#ifndef PARAMETERS_H
#define PARAMETERS_H

const float W1[] = {0.2056443393f, 0.0126829688f, 0.0648388788f, -0.2633363307f, -0.0345909633f, 0.2181286812f, -0.1299419701f, 0.1906323582f, -0.1646153033f, 0.0006072642f, -0.1396006048f, -0.0687028617f, -0.0004006108f, 0.0129676554f, -0.0794565678f, -0.6731336713f, -0.1488797814f, 0.0309048891f, 0.1562042683f, 0.2530665994f, -0.2133309096f, 0.0496379025f, -0.0367610008f, -0.0455396846f, 0.0517961271f, 0.3026573658f, -0.0245123580f, -0.2255486846f, -0.1598023325f, 0.1136182621f, -0.0452367440f, -0.0020042476f, -0.2921483219f, -0.0864214674f, 0.1834191829f, 0.2102870643f, -0.2618850768f, 0.2142945379f, -0.1724966466f, -0.3061013818f, 0.5418210030f, 0.3317624927f, -0.4265065789f, 1.0602219105f, -0.1268573254f, 0.0879988819f, -0.0844176784f, -0.1720611900f, 0.0845491737f, -0.1417347193f, 0.0111737866f, 0.1562667042f, 0.0665067658f, 0.1205828711f, 0.1780354828f, -0.1343791336f, -0.0405104272f, -0.0054451716f, 0.1714421064f, 0.2314230204f, -0.2961816788f, -0.1572209299f, 0.1926767975f, -0.0669530630f, 0.0674600601f, 0.2797525227f, -0.0755687431f, 0.0609410293f, 0.2202886045f, -0.4241355062f, 0.1922365725f, -0.0726055279f, -0.0402151980f, 0.2113719583f, 0.2284691632f, -0.2470915914f, -0.0356688611f, -0.2504355013f, 0.1619631648f, -0.0165711511f, 0.1763629019f, -0.0697058663f, 0.2429717928f, 0.2311240882f, 0.0179260783f, -0.0446029082f, -0.2705678046f, -0.4178228974f, -0.1279454082f, 0.2739012539f, -0.4079982638f, -0.0744960606f, -0.1202118173f, 0.3067380190f, -0.1082146391f, 0.1879303902f, 0.0551199280f, -0.1075564623f, -0.0429150164f, 0.1683711857f, 0.0795653164f, 0.4955204725f, -0.0740266368f, -0.0536002032f, -0.2696381807f, 0.0955690965f, -0.4399514496f, 0.1271696240f, 0.2134590596f, 0.1117869839f, -0.1253275424f, -0.1847173870f, -0.3829683363f, -0.0231004804f, -0.2627293468f, -0.0907121748f, -0.1151212230f, 0.0235216077f, 0.1121945083f, -0.1097371429f, -0.0322293751f, -0.0792810991f, -0.3417827189f, -0.3201306760f, 0.0948207229f, -0.1363789141f, 0.3541145623f, -0.0340481512f, -0.0946047530f, -0.3231237531f, 0.2826598883f, -0.2170281559f, -0.1062540114f, 0.3150314093f, 0.0135048768f, 0.0662973747f, -0.1090536937f, -0.1554019302f, -0.1367653608f, -0.0608439483f, -0.2248008251f, -0.2818098068f, -0.1149396673f, 0.0064113014f, -0.3873023391f, -0.3204714656f, 0.2109310925f, -0.0439238697f, -0.1231818348f, 0.2685420513f, -0.0955515131f, -0.0319600217f, 0.1164169163f, 0.0091133481f, 0.1689545363f, -0.2083931863f, -0.1031754017f, -0.2485881448f, 0.1137279719f, -0.1739346236f, 0.1073375866f, 0.0081519959f, 0.1040264741f, 0.0718609393f, -0.3370752335f, -0.0217522271f, 0.1610575914f, 0.0916894302f, 0.1622057706f, 0.6877382994f, -0.0129778199f, -0.4832698703f, 0.2403376848f, -0.0854246169f, -0.2925398052f, 0.6469326019f, 0.1418662220f, -0.7307744026f, 1.3324704170f, -0.0126968250f, -0.0178360660f, 0.0370533727f, 0.0021070745f, 0.1222336218f, -0.3596940637f, 0.1823738962f, 0.4290806949f, 0.0074652242f, -0.0909958854f, -0.1734175235f, 0.0592529327f, 0.0123506524f, -0.1044500470f, -0.0720662922f, 0.2213159949f, 0.0372113958f, 0.1173744947f, 0.0812628269f, 0.0074358685f, 0.3560423553f, -0.3096707761f, 0.2346474677f, 0.1357634813f, -0.0932454467f, 0.0812899321f, -0.1405563653f, -0.5642878413f, 0.0815617815f, -0.0132660363f, 0.0310676731f, 0.1867125779f, 0.7966778278f, 0.1214161441f, 0.0170512013f, 0.1143643111f, -0.1387893111f, -0.1247074157f, 0.2371203452f, 0.0702900663f, -0.2405025363f, -0.1668208390f, 0.1894554198f, 0.1798091531f, -0.1091755480f, 0.1482186317f, 0.1019662246f, -0.1421700567f, -0.1197624877f, 0.4751616120f, 0.1233420894f, 0.1462267786f, 0.2563048005f, 0.3645663261f, 0.1639120132f, 0.3611200750f, 0.4912849367f, -0.0719621032f, -0.1861198097f, 0.3077624738f, -0.2472084910f, 0.0156182805f, 0.0038481094f, -0.0848019347f, 0.1081026644f, 0.1824583858f, -0.2584405243f, 0.0512588210f, 0.0094533674f, 0.1317906678f, 0.0944531858f, 0.0221518818f, 0.2010401785f, 0.4340215623f, -0.0306326542f, 0.0235950202f, 0.1138596460f, 0.0826986432f, -0.1757258624f, 0.0933972076f, -0.0086253211f, -0.1546017379f, -0.1648761183f, -0.0869729519f, 0.5847294331f, 0.2391418666f, -0.3114134669f, 0.1558825374f, -0.2994319797f, -0.2580374181f, -0.1723814756f, -0.2325280011f, -0.5087829232f, 0.0370443724f, 0.2063352466f, 0.4960547984f, 0.0124607766f, 0.1120798662f, 0.0655043945f, 0.0868051872f, 0.0819874853f, 0.0698548779f, -0.0795752183f, 0.0398672260f, 0.0864084736f, 0.1597183049f, 0.0449113734f, -0.1206049398f, 0.3313142359f, -0.1768294573f, 0.2997446060f, -0.1690423042f, -0.0253242739f, 0.2046559155f, -0.1980544031f, 0.2195689827f, 0.0890805572f, -0.1282908320f, 0.1015301421f, 0.1080543026f, 0.0879289582f, -0.0389774665f, -0.0438374355f, 0.0529221781f, -0.0232377462f, 0.1950284541f, -0.0093671754f, 0.0603372678f, -0.0546178147f, -0.3011785746f, 0.3630988002f, -0.3837361038f, -0.0172113758f, 0.0290577803f, -0.8230187893f, 0.2386422753f, -0.1249772683f, 0.1103242859f, -0.0145951938f, -0.1406989992f, 0.2693245113f, -0.2981046736f, -0.4464098215f, 0.2048452497f, 0.4118846655f, -0.0820925161f, 0.4074890316f, -0.1983570755f, -0.0848740265f, 0.0985066518f, -0.0691191554f, 0.0498019084f, 0.2192266583f, -0.1115443259f, -0.3553023636f, 0.5618679523f, 0.2314248979f, -0.1209548414f, 0.2192803770f, -0.0141061181f, -0.0238635261f, 0.0381679237f, -0.1968708485f, 0.1187804863f, 0.1211652011f, 0.0001340692f, -0.0099677201f, 0.1864903271f, -0.0563983582f, 0.0301276781f, -0.1840637773f, 0.0117901787f, -0.1122706831f, 0.4111549854f, -0.0089281574f, 0.1595444977f, 0.2398558408f, -0.1564673781f, 0.1339799613f, 0.0573291071f, 0.2628052533f, 0.1975978017f, 0.0147044193f, -0.1327446103f, 0.0011747890f, -0.1812129617f, 0.2355772108f, 0.1100795045f, -0.2442394495f, -0.1095178574f, 0.0232384577f, -0.4397211969f, -0.2317965478f, -0.1346384734f, 0.3192853332f, -0.0323180892f, 0.0441385098f, -0.2304470092f, -0.3066544831f, -0.3956707120f, -0.0820377544f, 0.0332828201f, -0.1846966296f, 0.1497462839f, 0.2036235631f, -0.1341783851f, 0.5158451796f, -0.1133887023f, -0.0448634587f, 0.0219097696f, -0.2794109881f, 0.2507027388f, -0.0322626680f, -0.0664050281f, -0.2010838687f, -0.1510936916f, 0.3157657683f, 0.0012234943f, 0.1302606314f, -0.0551972874f, -0.1130756959f, 0.3222351968f, -0.0680149868f, -0.3315077722f, 0.8286147714f, 0.1624519825f, 0.1784626096f, -0.0634188727f, -0.2729709744f, -0.1217918321f, 0.1398592740f, 0.1707441509f, 0.2343607396f, -0.1425376832f, -0.0844985396f, 0.1567523479f, 0.2090601027f, -0.0433598906f, 0.0780470222f, -0.3159414232f, -0.0564549342f, 0.1991362870f, -0.2824255228f, -0.0733336210f, -0.1192719266f, 0.0642419234f, -0.1676795185f, 0.0245946776f, -0.2400122285f, 0.5504291654f, 0.0811159760f, -0.1758333445f, 0.0402022116f, 0.1398261935f, 0.0727116615f, -0.1489068270f, -0.1339304149f, 0.0063008349f, 0.0940362141f, -0.2496210635f, -0.1619726717f, 0.1589207947f, 0.1900197864f, 0.1622310132f, -0.2782743871f, -0.2097832710f, -0.1852641404f, 0.0020523400f, -0.1237440482f, 0.0376508832f, 0.1192432195f, -0.2998408675f, 0.2048778683f, -0.1089926884f, 0.1791621298f, 0.2310482413f, 0.1629446894f, -0.0249227211f, -0.0794685781f, 0.0415026397f, -0.1894920170f, -0.1113476902f, -0.0455617756f, 0.1732916087f, 0.0626168475f, -0.0520518497f, -0.1779121011f, -0.0407000035f, -0.3904724121f, 0.1741095185f, 0.1443618238f, -0.0193436109f, -0.0080447393f, -0.1268552989f, 0.1509361118f, 0.2021798790f, -0.1267782897f, -0.0600697361f, -0.2327141613f, -0.3225699067f, 0.2676385045f, -0.2781468928f, -0.1867189556f, -0.0811869577f, -0.3176561594f, 0.2072362453f, 0.0127712842f, -0.3863267601f, 0.0222558584f, 0.1414170414f, 0.2033627033f, -0.4933352172f, 0.0204090774f, -0.2128719985f, -0.2387991101f, 0.0282080974f, 0.0238154326f, -0.3364391625f, 0.3209786117f, 0.0944965556f, -0.3426143527f, 0.1976141781f, 0.1256536841f, 0.0905888826f, -0.2886745334f, 0.0381551683f, -0.2269810438f, 0.0727164671f, 0.3773781657f, 0.0009143031f, -0.1928234994f, 0.2620164752f, -0.0788810924f, -0.3883503675f, 0.0730704516f, 0.3068678379f, -0.1721040308f, 0.2638217211f, -0.2225490808f, -0.2779362202f, 0.1934845597f, -0.2810705006f, 0.1662362218f, 0.0192755423f, -0.1626957357f, -0.2933760583f, 0.0524780527f, -0.0656437054f, -0.1324090660f, 0.2428544611f, -0.2985993028f, 0.0039995313f, 0.0073346742f, -0.0365169235f, 0.2593888640f, 0.0862212926f, -0.1144429147f, -0.0171747655f, 0.4498338699f, -0.1208961830f, 0.4233675003f, -0.4518025815f, 0.1438960433f, -0.1431519836f, -0.4603039920f, 0.0165459979f, 0.2672781646f, -0.2365889102f, 0.2226155400f, 0.0475160852f, -0.5817837119f, -0.0377763137f, -0.0976442173f, -0.3579418063f, -0.0337329544f, -0.1221744865f, -0.3801328540f, 0.3397042155f, 0.2482072562f, -0.7186651230f, 0.0415980034f, 0.1283092797f, -0.5094451308f, 0.0059555732f, -0.3595712185f, -0.3972308636f, 0.3742163479f, 0.0254520308f, -0.4093699455f, 0.2824487388f, -0.0339505821f, -0.5721582174f, 0.4346864223f, -0.0693448335f, -0.4773736298f, 0.3972110152f, 0.0253635254f, -0.5625000000f, 0.3650294244f, 0.1139207855f, -0.3587683141f, 1.2492047548f, -0.2313265800f, -0.7517253160f, 1.6921387911f, 0.0851169080f, 0.1279368699f, -0.0188962817f, 0.1161998212f, 0.3818714619f, -0.0708384663f, -0.3420864344f, 0.0171774775f, 0.0436702035f, -0.1173474714f, -0.1589248031f, 0.2204068601f, -0.0110979341f, 0.0736508369f, 0.2436265498f, -0.1717826724f, -0.0366912223f, -0.2291074395f, 0.0593783930f, 0.2878981829f, -0.2082174718f, 0.0253589470f, -0.0769622177f, -0.1366710663f, -0.1605766118f, 0.2886205912f, 0.0295135956f, -0.0541208610f, -0.1577774286f, -0.2361940593f, -0.3616175354f, 0.0877162069f, 0.0595332310f, 0.2041074932f, 0.2232196629f, -0.3149089813f, 0.0232920088f, -0.0094885370f, 0.0003393088f, 0.0749489218f, -0.3684463799f, 0.1301398575f, 0.0661893860f, -0.5616422892f, 0.3979671597f, -0.0714119449f, -0.1715631932f, -0.0784292370f, -0.0700746328f, -0.0350785591f, 0.0680176392f, -0.0073296255f, 0.0294153541f, -0.4572976828f, 0.0705333501f, -0.2610155344f, -0.1413017809f, -0.1706562936f, -0.0174816996f, -0.0945326239f, -0.0477268435f, 0.1354245543f, 0.1367943436f, 0.1817536950f, 0.1495776922f, 0.1305548251f, -0.0575427338f, -0.2469982505f, -0.2006200701f, 0.1368377358f, -0.2009717524f, -0.3255292177f, 0.2004367411f, -0.2244845927f, -0.3753233552f, -0.0993938148f, 0.2254338562f, -0.2462688088f, -0.3392276764f, -0.0326534659f, -0.2399483919f, 0.1800661087f, -0.0253864881f, 0.2475711703f, 0.3349056542f, -0.0750270337f, 0.1254891455f, -0.2178812027f, -0.0236276854f, 0.1563835889f, -0.1466670632f, -0.1101286784f, 0.0650350600f, 0.1253273338f, -0.1342771798f, 0.0904728919f, -0.2794919908f, 0.1443578005f, -0.2044281811f, -0.2753147483f, 0.0490972623f, 0.1483551413f, -0.2078962475f, -0.3891360462f, -0.2322103083f, 0.1018875390f, -0.0632671937f, 0.1576017737f, 0.1129246727f, -0.2789350748f, -0.1119750738f, -0.1159233078f, -0.1902537942f, -0.0150819346f, 0.0008200961f, -0.1320726722f, -0.0505504869f, 0.0522590689f, -0.0830601156f, 0.2718007267f, 0.1816721112f, -0.3274856508f, 0.0131970672f, -0.2092191577f, 0.1564366519f, -0.0562114045f, 0.1797619611f, -0.0190857500f, 0.2572035789f, 0.1786057353f, 0.2679314315f, -0.0871175006f, 0.3389499784f, 0.2396433651f, -0.6286342740f, -0.0382452607f, 0.0341238976f, -0.1717768312f, -0.1993073523f, -0.1448930353f, 0.1255295128f, -0.3438616991f, 0.1269622743f, 0.2232966274f, 0.1675159782f, 0.0446599610f, -0.0192054007f, 0.2179648131f, -0.3069174290f, 0.0927856490f, -0.0199465510f, -0.3223055899f, 0.1405430436f, 0.0463787019f, -0.0328544341f, 0.1293732822f, -0.2213604599f, 0.4507489204f, 0.0905001014f, 0.0842049792f, 0.1169126108f, -0.1674207151f, 0.0031911032f, 0.1115913466f, -0.2634201348f, 0.0628768280f, 0.1197687760f, 0.0876765549f, -0.1600596011f, 0.0183765516f, 0.1670874506f, 0.4553017020f, 0.3085919321f, 0.0644609928f, 0.0431163348f, -0.1396065503f, 0.1833308637f, 0.3513949513f, 0.3949234784f, -0.3805840611f, 0.3031264246f, -0.1763862669f, 0.1205678508f, -0.0622792765f, -0.2250957936f, 0.3311362565f, -0.0383724384f, 0.1638596207f, 0.0211021062f, 0.0604025498f, -0.1451267600f, 0.1289282888f, -0.0715261027f, 0.0481842235f, -0.0809290856f, 0.1796690822f, -0.3308851719f, -0.1880540997f, -0.2559971213f, -0.4029779136f, 0.1249295995f, -0.0216523167f, 0.1197232828f, 0.1374570429f, 0.0034890682f, -0.1587443501f, 0.1622277945f, -0.0188686699f, 0.0623609088f, -0.1446833760f, -0.0416992866f, -0.0888056681f, -0.0619073920f, 0.2651440501f, 0.1150017381f, 0.1013166979f, -0.1708498448f, -0.1812524050f, 0.4419467151f, 0.0702580214f, 0.2650730312f, 0.3549838066f, 0.0088471202f, 0.1046305150f, -0.1535737514f, -0.0914016664f, -0.3395786881f, 0.1440510750f, -0.1172130927f, -0.4879465997f, 0.3920176923f, 0.0977938250f, -0.2738598585f, 0.0276667569f, 0.1039904132f, -0.0327733979f, 0.3776172400f, -0.0677071065f, -0.4812619984f, 0.0947552025f, -0.1182520017f, -0.0681146830f, 0.1711184233f, 0.0157959182f, -0.0047837133f, 0.1763556153f, 0.0301184934f, 0.0212561768f, 0.1746707559f, -0.1824058443f, -0.0817680880f, 0.5218390822f, 0.0558033213f, -0.0850264356f, -0.1816555560f, -0.0265928507f, -0.0743706897f, 0.0591333471f, -0.1100924239f, -0.0711068138f, 0.3296772242f, 0.1584385484f, -0.0372530781f, -0.0506071039f, 0.0263592899f, -0.0965609401f, -0.1073092967f, -0.0261137988f, 0.2359733135f, -0.1949091703f, -0.0194916446f, -0.4854090214f, 0.0075370925f, 0.0577188246f, -0.1535108984f, -0.0874596611f, 0.2111913264f, -0.2343177199f, -0.1878360808f, -0.0654173940f, 0.1600403339f, 0.0961835533f, -0.5916672945f, 0.0568312854f, 0.3650041223f, -0.1880944818f, -0.0304290317f, 0.2663505971f, 0.1065646559f, -0.0259411428f, 0.0027693307f, -0.0148662357f, 0.5464059711f, 0.0702743456f, 0.1626441032f, -0.1629806459f, -0.0149356034f, -0.1379274726f, 0.2162874192f, -0.2256944329f, -0.1241199449f, -0.1285521090f, -0.0343902111f, 0.1667861044f, 0.5405218005f, 0.2397916764f, 0.0610477068f, 0.3866859674f, -0.1313159764f, -0.0613251179f, 0.5558962226f, -0.2120438367f, 0.0886049792f, 0.6774005890f, -0.5914443731f, -0.3338163197f, 0.2159339488f, 0.0750244930f, -0.1517658830f, -0.1382349432f, 0.2367070913f, 0.0618616603f, 0.3115032911f, -0.2035134733f, -0.0046511102f, 0.1219128221f, -0.0278955121f, 0.2006568611f, 0.0457011573f, 0.0618121587f, 0.1147479489f, 0.1727263778f, 0.4512005150f, 0.1265438497f, 0.0533127077f, -0.0896032453f, -0.4052262008f, -0.0693912953f, -0.0520007834f, -0.0005466034f, 0.0390265472f, 0.1925372183f, 0.2119321376f, 0.0771464407f, -0.1358617246f, -0.0183923952f, 0.1188747212f, 0.2373892218f, -0.2855931818f, 0.5128649473f, -0.2904552221f, -0.2352172583f, 0.3937878013f, 0.0771208853f, -0.1373942643f, 0.4182887077f, -0.3785005808f, 0.0339812487f, 0.5775274038f, -0.8469443321f, -0.0890197456f, 0.0076781721f, -0.0974557325f, 0.2098153681f, -0.3033354282f, -0.4246147275f, -0.3715353608f, 0.0544460751f, -0.4335589707f, -0.1000854522f, -0.2060370445f, -0.1417338997f, -0.2527938783f, -0.0573107339f, -0.0081105540f, 0.0401929021f, 0.0206875745f, 0.1105468571f, -0.1559906751f, -0.0593375154f, 0.2577376366f, -0.1251263618f, -0.1036296040f, -0.3381207585f, -0.1583536863f, -0.2921954691f, -0.1073831245f, 0.1629331857f, 0.2104982734f, -0.0937345475f, 0.0550487116f, -0.3102864623f, -0.4187871218f, -0.1611914784f, -0.2070041746f, 0.1368296742f, -0.1783234179f, 0.5808799863f, -0.2070648521f, 0.0855796039f, -0.0658443645f, -0.3084608912f, -0.0580428019f, -0.1997065842f, 0.3302556872f, 0.0091661187f, -0.2669923306f, -0.0375257246f, 0.4503108561f, -0.4095541239f, -0.1575860381f, -0.1288796663f, 0.3523468375f, 0.0054251496f, -0.3859961033f, 0.1720975488f, -0.1046369150f, 0.2234041691f, -0.1331073344f, -0.1453584135f, 0.0221501626f, -0.4365908504f, -0.0792035833f, -0.0765574649f, -0.0103279492f, -0.0060029565f, 0.2488701493f, 0.0296212938f, -0.0081764720f, -0.0504802875f, -0.0981396213f, -0.2947992980f, 0.0545750372f, 0.0234277360f, -0.2297350466f, -0.2720537186f, 0.0019457579f, -0.0675735399f, 0.1126420125f, 0.1929380745f, -0.0942545980f, 0.3053061962f, -0.0048671253f, -0.1390398890f, -0.2387153804f, 0.1243471652f, -0.2784025371f, -0.5312979221f, -0.2030001432f, 0.2839123607f, -0.0868927240f, -0.2287844270f, 0.3147118688f, -0.2049399763f, -0.1762142479f, 0.1502721310f, 0.2612993717f, -0.3060897291f, 0.0608253889f, -0.0501125902f, 0.1170710549f, 0.3025584519f, 0.0570650883f, 0.1496334076f, 0.0819375739f, 0.2266132832f, -0.1714665592f, 0.4096360207f, -0.1522285193f, 0.2222890705f, 0.3546340168f, -0.0325438045f, -0.3072172701f, 0.3519440889f, -0.1124358773f, 0.1016979739f, 0.1196354553f, -0.0166641772f, 0.0822461769f, 0.2869949341f, -0.0222742762f, 0.0061056730f, -0.0039698365f, -0.0927495062f, 0.6264964342f, 0.4533963501f, 0.1303351223f, 0.0706396401f, 0.1147357523f, 0.1329650432f, -0.2502795458f, -0.1519546658f, -0.2287677079f, 0.0232901312f, -0.0575944558f, 0.1243900880f, 0.2011374235f, -0.2337718606f, -0.1112667024f, -0.2281769067f, -0.2664214671f, -0.0411679856f, 0.1317458749f, -0.5807124972f, -0.0336286612f, 0.0682010576f, 0.0777961463f, 0.1318128854f, 0.5935415626f, -0.1528206021f, 0.2494821995f, -0.0568468161f, -0.6101940870f, 0.0036316849f, 0.0275857113f, -0.0823344290f, -0.0578217432f, -0.1039522961f, -0.3722115457f, -0.0444447659f, -0.1795441806f, -0.1004651114f, 0.0837681293f, 0.2244312018f, -0.4258842468f, -0.0780672133f, -0.0565401725f, 0.0105345203f, -0.0541475378f, -0.2510293126f, -0.0657366216f, 0.1399900466f, 0.1257515848f, -0.1472682655f, 0.1127112657f, 0.0003894407f, 0.2299861163f, -0.1348848790f, -0.2243382335f, -0.4723025262f, -0.0748699680f, 0.0671693012f, -0.3537158668f, 0.1308393776f, -0.2929091156f, -0.2654488087f, 0.1136468500f, -0.4306609929f, 0.1392565668f, 0.0080307657f, -0.1120574921f, -0.2322418541f, -0.0985002369f, 0.1473764628f, -0.1115102917f, -0.3922414184f, -0.5373048782f, -0.0895789266f, -0.0883762166f, -0.1923660338f, -0.1173209995f, -0.0940417722f, -0.2136025578f, -0.1392500848f, 0.1848405898f, -0.0650924146f, 0.1776991487f, 0.1391328424f, -0.3152723312f, 0.2155774832f, -0.0194890983f, -0.0507573672f, 0.0069036819f, 0.2842927277f, 0.2061504871f, 0.2112444490f, -0.2205310613f, -0.0102957804f, -0.3466713428f, -0.0859020501f, 0.0971373916f, -0.2129377276f, -0.0318411365f, -0.3382708430f, 0.2371126562f, 0.1639274359f, -0.0626939908f, 0.1296304464f, -0.0424489155f, 0.2723367810f, 0.2487450838f, 0.1154860780f, 0.0605175123f, 0.0180493444f, -0.0973442346f, -0.2897031605f, -0.3915154934f, 0.0135120591f, 0.2121663839f, -0.1490921378f, 0.0088496767f, -0.1082693189f, -0.0773626268f, 0.1442272812f, -0.1160008162f, 0.1577740312f, 0.2340759486f, -0.1857622564f, 0.3591413498f, 0.2058096528f, -0.3075153232f, 0.0291521903f, 0.2128952444f, 0.3157127798f, -0.1638636440f, 0.0992691219f, -0.0447303951f, 0.1168219000f, 0.1599882841f, -0.3148356974f, -0.2409958690f, 0.1354738176f, 0.2590288222f, -0.1460918933f, 0.2707102001f, -0.4034280777f, -0.2144114226f, -0.1546079218f, -0.3502404392f, 0.0775293112f, -0.0805008188f, -0.1190345511f, 0.4437979162f, -0.0533680320f, -0.4057822824f, 0.2399483770f, 0.1590175331f, -0.3201365173f, -0.2330927998f, -0.2672439516f, -0.0655774027f, 0.2382598817f, -0.0757377297f, -0.3677113056f, 0.2314402461f, 0.0251042154f, -0.3116292357f, 0.1037879661f, 0.2354270369f, 0.1769136935f, 0.3558063507f, -0.3360799551f, -0.1325037181f, 0.4277125299f, 0.1861911714f, -0.2101377845f, 0.0061446400f, 0.0089476425f, -0.0635883808f, 0.1543516815f, -0.0142171709f, 0.1477350295f, 0.0071281386f, 0.0348723680f, 0.0231576879f, 0.2682621181f, -0.0017581285f, 0.1125708595f, -0.4011946917f, 0.1590298712f, 0.3050028086f, 0.2177841812f, -0.2077443898f, 0.0165251251f, -0.2288701087f, 0.0713798776f, -0.4151309133f, -0.2276662737f, 0.1744780838f, -0.3350919485f, -0.1508172750f, 0.0707412064f, -0.2341300845f, -0.4108015001f, -0.1156218275f, -0.5619256496f, -0.2033839226f, 0.2553114295f, -0.2128741741f, 0.1381824315f, -0.2397473752f, -0.0894933864f, 0.1068023071f, -0.0634532645f, -0.0524442084f, 0.0652310401f, -0.0477308966f, 0.0789425820f, -0.0546298586f, 0.0721143112f, -0.0687596723f, 0.1238740608f, -0.2184116542f, -0.0182507169f, 0.2368674725f, -0.1307474375f, -0.1214212701f, -0.1136702150f, -0.0627955124f, -0.2235868424f, -0.3799062371f, 0.3057893217f, -0.2206862569f, 0.1040621400f, -0.1521189511f, -0.0767729133f, 0.6112576127f, 0.0895039514f, -0.6512503624f, 0.6516872644f, 0.0163805485f, -0.2751573622f, 0.3459494114f, 0.0697981864f, 0.1683817655f, 0.1451607347f, -0.0441628732f, -0.1713947654f, -0.0298543721f, -0.0850908831f, -0.1190827414f, 0.2903378904f, 0.0274685025f, 0.0860558078f, 0.3790149093f, -0.1088824570f, -0.0678730160f, 0.1274103671f, 0.0731149241f, -0.2080236971f, 0.0885618478f, -0.0062376610f, -0.2675349116f, 0.0328810513f, -0.0308997184f, -0.1483164132f, 0.3488367796f, 0.1132939607f, 0.2252972424f, 0.3998198807f, -0.0345672667f, 0.3766764700f, 0.3342120051f, 0.0190856587f, -0.1951551586f, 0.0848485902f, -0.1133160293f, 0.2646156847f, 0.0124965375f, -0.0485923961f, 0.2126067579f, -0.2337910235f, 0.0764420405f, 0.2301081866f, -0.2087234408f, 0.0279409587f, 0.0358849429f, -0.4174098969f, -0.1144628003f, -0.1041648239f, 0.0040243911f, -0.0284739360f, 0.2452851385f, -0.3936118484f, -0.1009434536f, -0.2059954852f, 0.0512271821f, 0.0674818456f, -0.1118434966f, -0.0932040289f, 0.1537568569f, -0.3284010887f, 0.0300091784f, -0.2327112854f, 0.3583373725f, -0.1188577041f, 0.2239037752f, 0.2734462619f, 0.2420637161f, -0.2331700176f, 0.0417851061f, 0.2153948694f, 0.1157199964f, 0.1945047975f, 0.3190234900f, -0.3510277569f, 0.0501082614f, 0.3662591577f, 0.0119181937f, 0.0978763178f, 0.4302148223f, -0.1916909665f, 0.1567741483f, 0.1553241313f, 0.2159233987f, 0.1582296789f, 0.3062185049f, -0.1830420196f, 0.3108436465f, 0.3453295231f, 0.1888150573f, 0.1279572546f, 0.2341094762f, -0.2992734015f, 0.0768067762f, 0.0696714595f, 0.2426014543f, 0.0921009555f, 0.5731892586f, -0.1193505451f, 0.0499437712f, 0.3214973509f, -0.2649090588f, 0.0113414843f, 0.2007611841f, 0.0854268596f, 0.1233261749f, 0.2296531498f, 0.1830242723f, 0.0511808656f, -0.0799538866f, 0.4565075934f, 0.1315602213f, -0.3573102355f, 0.1094949991f, 0.2677204609f, 0.1226326004f, -0.1863386929f, -0.3471818268f, 0.0149198435f, -0.0472832024f, 0.1340020299f, 0.2366899699f, -0.1907803267f, 0.1076821163f, 0.2169438004f, 0.0100851515f, 0.0535776392f, -0.0645997748f, 0.0849726349f, -0.0226334222f, -0.1932690293f, -0.0546503104f, -0.3356899917f, -0.5844281912f, 0.0534288958f, 0.2659229934f, -0.1417801529f, -0.2429639399f, 0.1310898513f, -0.0116104875f, -0.1313465089f, 0.2620288432f, 0.1721515059f, 0.0375552364f, 0.1706957370f, -0.1197272316f, -0.1785569787f, 0.1099474430f, -0.1929560155f, 0.1490642577f, 0.3132689595f, -0.5000733137f, 0.4271013737f, 0.5092962384f, -0.1946001053f, -0.0926509276f, 0.1531068087f, -0.0085716164f, -0.0147204371f, 0.0561334528f, -0.1409817636f, 0.0711963326f, 0.0847896561f, 0.1159950495f, -0.0192276184f, 0.4087204933f, -0.2056927532f, -0.2281949818f, -0.0100022089f, -0.3732398748f, 0.0415736213f, 0.1291922182f, -0.4966520369f, -0.0660984367f, 0.1243800744f, -0.0284083728f, -0.5721338987f, 0.3482553065f, 0.2211971879f, -0.3881272972f, 0.0528933480f, -0.4135414064f, 0.0059641623f, 0.2544906437f, -0.0885202438f, -0.1318362802f, -0.0820565522f, 0.1252675354f, 0.0031042339f, 0.1580826640f, 0.2445568740f, -0.0344174430f, 0.1193798631f, -0.1147294268f, -0.1300463080f, 0.2559877932f, -0.2981965244f, -0.0341941528f, -0.0625007823f, -0.2948839068f, -0.2017879784f, -0.0404027142f, 0.1577702016f, -0.0035501947f, -0.0677220523f, 0.1111445948f, 0.0065301261f, -0.3747827709f, -0.0182534773f, -0.0372142233f, -0.1945758611f, -0.0199749917f, -0.1618506461f, 0.0111713521f, -0.0505408607f, -0.0011808032f, -0.1693559736f, -0.0061988966f, 0.1151152998f, -0.5996404886f, 0.0920135751f, 0.2233122289f, -0.7621698976f, 0.5267556906f, -0.2342384607f, -0.1073477194f, 0.0538629219f, -0.1934041232f, 0.1486664414f, 0.0750663057f, -0.0030619758f, -0.0120314304f, -0.1499772817f, -0.1006562486f, 0.0380258970f, -0.3453966379f, 0.4030798078f, 0.0664080754f, 0.1446644664f, -0.2573615015f, 0.4101628959f, -0.1531612873f, 0.2475094050f, -0.0885006785f, 0.0921704844f, 0.2545208037f, -0.2983264327f, 0.2612666786f, 0.1293113530f, -0.1428472549f, 0.0517956279f, -0.1799753606f, 0.2403177023f, 0.0418980867f, -0.0579244867f, -0.0387398340f, 0.3465039432f, -0.1475743800f, 0.2325446159f, 0.1339715272f, 0.0526913740f, -0.1327803433f, 0.0263092760f, -0.2318975478f, 0.1297696978f, -0.0310154762f, 0.2904466689f, -0.1454551220f, 0.2127660364f, -0.1939870566f, 0.2483901680f, -0.2614568770f, -0.2015206963f, -0.0576973408f, 0.0816492885f, 0.0405854397f, 0.0925156251f, 0.2478311062f, -0.1538192332f, -0.2115582079f, -0.0125477873f, 0.0761739239f, -0.2792725861f, 0.2400517762f, 0.2271682173f, 0.0876901224f, -0.2948273420f, -0.2241259664f, 0.2562927306f, -0.1659668088f, -0.1905633807f, -0.0265892651f, -0.3314363956f, 0.0545927249f, 0.0907830521f, -0.1052927002f, -0.1020249203f, 0.0150124896f, 0.0170125719f, 0.0915958285f, -0.1646330804f, 0.0368920490f, 0.2793234587f, 0.0234308466f, -0.2643315494f, 0.4058331847f, 0.0941331536f, 0.1375876367f, 0.0693101212f, 0.6673188210f, -0.5457736254f, -0.2411269695f, 0.5772392154f, -0.6681590676f, -0.3741458356f, -0.5516797900f, 0.0130308950f, -0.2487649918f, -0.4299218059f, -0.1809366643f, 0.0757250041f, 0.2521411479f, 0.2021279335f, 0.2546585500f, 0.2962211370f, -0.0162949022f, -0.2992686331f, 0.3362878859f, -0.1147891209f, 0.0016950130f, -0.0917193145f, 0.0454377420f, -0.0700111091f, 0.2205775082f, 0.3923531175f, 0.2714838088f, -0.0044944263f, 0.0557902157f, -0.0093506677f, 0.2075153142f, 0.1025804579f, 0.5220439434f, -0.0600942075f, 0.1988795400f, -0.2140299976f, 0.1758555174f, 0.1887150258f, 0.1633226722f, 0.0296307355f, -0.0463310108f, -0.0358096771f, 0.1409176588f, 0.0939778984f, -0.0447778851f, 0.4123553336f, -0.0909517631f, 0.1314328015f, 0.3910410404f, -0.4823667705f, -0.2506478727f, -0.0764109939f, -0.0118007790f, 0.2797870338f, 0.1344449371f, 0.1225048378f, -0.2485147268f, 0.3615210652f, 0.1513385326f, -0.1538921446f, 0.1463703364f, 0.2498722672f, 0.0403574556f, 0.0198401790f, -0.2473861575f, 0.2519532740f, 0.2090848237f, -0.0179291777f, -0.0530751646f, 0.0937320963f, 0.0335467421f, -0.1145206019f, -0.0312594511f, -0.0589611642f, 0.2758239210f, 0.1305746138f, 0.3984705806f, 0.0169186778f, -0.1266944706f, 0.1833959818f, -0.3617007136f, -0.3100722134f, 0.0711788237f, 0.0606387742f, 0.0034240070f, 0.0082457261f, 0.0359977037f, 0.1502995640f, 0.0902842507f, 0.2430230975f, -0.2046208978f, 0.4148893952f, -0.0604115017f, -0.3091579080f, 0.9922383428f, 0.2224627286f, -0.2333260924f, 0.1022646725f, 0.5775777698f, 0.0021764932f, 0.1652089357f, 0.1621515453f, -0.1112872139f, -0.1993891299f, 0.3296771944f, 0.0089887707f, -0.1154815033f, -0.0657778308f, -0.2163345218f, 0.2030390650f, 0.0232751369f, -0.0383769497f, -0.0071676723f, 0.2243270278f, -0.2640044093f, -0.0799524412f, -0.1009995788f, -0.0360135697f, -0.1179012731f, 0.1099501327f, 0.2606415749f, 0.3245687187f, 0.2739466429f, -0.0957400501f, 0.2515341043f, 0.0107728085f, 0.0775240064f, 0.1635456681f, 0.1016996652f, 0.0010358549f, 0.3967652023f, 0.2966643274f, -0.3367509246f, 0.2087928653f, 0.0804911628f, -0.3551853299f, 0.0195810553f, -0.3249238729f, 0.2622050047f, -0.0616808347f, 0.0969764963f, 0.3930785358f, 0.1739337444f, -0.0922039971f, 0.5973989964f, 0.1146209091f, 0.1366005838f, 0.4349793196f, -0.0473011732f, 0.0791455954f, 0.3928304017f, 0.1232619807f, -0.1088935509f, 0.5640604496f, -0.1742492169f, 0.0496367738f, -0.0469277613f, 0.1813488156f, 0.1687346548f, 0.4213287830f, -0.2253527641f, -0.2336510569f, 0.4278623164f, -0.4160587490f, -0.2983668149f, 0.1417465806f, -0.1198988929f, -0.1903858483f, 0.4151567519f, 0.1620361358f, -0.1259301603f, 0.0282778610f, -0.2530649304f, 0.2871769369f, 0.0146172633f, -0.4282674491f, 0.2340503782f, 0.0718098804f, -0.1637658924f, -0.0325936936f, -0.2010953873f, -0.2934725285f, 0.0130222980f, -0.2459032387f, -0.5170148015f, -0.0323430300f, -0.3544919193f, 0.2494886220f, -0.0815677047f, -0.0180347934f, -0.0551353358f, -0.1684683561f, -0.0864559337f, -0.2666263580f, -0.1529770195f, 0.0957819298f, -0.1167626455f, 0.1832998097f, -0.1288288087f, -0.0782041177f, 0.0313739069f, 0.0316208564f, -0.2158588022f, -0.1755868644f, -0.1346545368f, 0.2101425529f, -0.1343817711f, -0.0368527398f, -0.0382620767f, -0.1515803039f, -0.3425428569f, 0.1669112295f, 0.0475448892f, -0.2564698160f, 0.1151829585f, 0.1411575079f, 0.3802464306f, -0.2470948249f, 0.2519460022f, 0.1837769002f, 0.0840915665f, 0.0333636813f, -0.0936406329f, -0.1762125045f, 0.1250918508f, 0.0771929696f, -0.1966659576f, 0.1234304830f, 0.0547534600f, 0.0198217351f, 0.0600357167f, 0.0558327772f, -0.0629105568f, 0.0907449946f, 0.2304399908f, -0.0932977200f, -0.1371772736f, -0.0776851028f, 0.0361143872f, -0.1220853031f, 0.4263945222f, -0.2076283991f, -0.1658830941f, -0.0681917742f, 0.2299957275f, 0.2056410909f, 0.1481173187f, -0.1775845140f, -0.3847948313f, -0.0993045494f, 0.1444697976f, 0.2611183822f, 0.0586183928f, -0.4791780114f, 0.0691986308f, -0.2075039744f, -0.1511875838f, 0.0484101921f, -0.0105541153f, 0.0009021477f, 0.1886015683f, 0.2879375517f, -0.2166065276f, -0.0348410755f, -0.0220017172f, -0.2588563263f, -0.0339542925f, -0.1406072080f, -0.3557907045f, -0.1044404879f, -0.2278192639f, 0.3187121749f, 0.1137589440f, -0.4316246212f, 0.3741537929f, 0.1035588756f, 0.6127139330f, -0.0873757601f, 0.2483841926f, 0.5171000957f, -0.4698383212f, 0.0772443563f, 0.3036985397f, -0.0278631523f, 0.0658239350f, 0.1004474610f, 0.1559633613f, -0.1165353805f, 0.2738428712f, -0.3035918474f, -0.1358142942f, 0.5140862465f, -0.2897902727f, 0.0997739583f, 0.1355801821f, -0.1438631862f, 0.0261504054f, 0.0027287279f, 0.0181216449f, -0.0600643121f, 0.0635650828f, -0.1057255864f, -0.0356909037f, 0.1422728747f, -0.3562591076f, -0.1996932626f, 0.3431877792f, -0.0590945929f, 0.0375015512f, -0.0011858008f, 0.1085357293f, 0.2198375165f, -0.2663942277f, 0.1972889304f, -0.2227948904f, -0.1663242728f, 0.0461971574f, 0.1327496171f, 0.0372871123f, -0.0248013828f, 0.0395153426f, -0.1443744600f, 0.1641556025f, 0.2961189449f, -0.3634319901f, 0.2900176644f, -0.2450013310f, -0.2226930410f, -0.2272965759f, 0.0845425129f, 0.1693264246f, -0.1559155136f, -0.1256160140f, 0.1342267394f, -0.1216977090f, -0.0645925626f, -0.0459736995f, -0.1717165112f, -0.1276591718f, 0.3833291829f, -0.0504203364f, 0.0836797804f, 0.1247750819f, -0.3444069028f, -0.1065666229f, -0.1899245828f, -0.0757703781f, -0.0793820024f, 0.0552631691f, -0.1834943146f, 0.0810031444f, 0.0412494391f, 0.3174146414f, -0.0175249185f, 0.3274213076f, -0.4020971060f, 0.1104870886f, 0.4515536726f, -0.5833564997f, 0.1711921096f, 0.5594044924f, -0.5223344564f, 0.0460790843f, 0.3953985572f, -0.8615137935f, 0.3942562938f, 0.3535787165f, -0.6883391142f, -0.0324240588f, 0.3742260933f, -0.3774466813f, 0.2890175581f, -0.2045179307f, -0.1410314441f, -0.0805477872f, -0.0969295055f, -0.0184140522f, 0.2480017096f, -0.0780654103f, -0.1080616638f, 0.2398231030f, -0.0016921781f, 0.1347094923f, -0.0081953267f, -0.0684413016f, 0.0156712588f, 0.1342032999f, 0.1493294984f, -0.3234879971f, 0.1835009009f, -0.0198909547f, 0.1651239544f, 0.2320229411f, -0.0073180893f, -0.0036855368f, -0.0647491589f, -0.1911589354f, -0.0205821004f, 0.0700094178f, -0.4081466198f, 0.0420113094f, -0.0347426198f, -0.3712233901f, 0.2492994070f, -0.1733070612f, -0.3896375597f, 0.3182871938f, -0.0522362627f, 0.0853755176f, 0.1964168400f, -0.2845403254f, 0.1226115599f, 0.3211959898f, 0.0388228744f, 0.0869676024f, 0.2726636529f, 0.0624860153f, -0.1625542641f, 0.2444153130f, -0.2570622563f, 0.0663261190f, 0.1285233647f, -0.0314320773f, 0.0685241595f, 0.0682251453f, 0.0942451954f, -0.0957949609f, 0.0287644304f, -0.1212307289f, -0.0787236691f, 0.0089982068f, 0.0972299278f, 0.0285144448f, 0.1190827861f, -0.1695973575f, 0.0063960766f, -0.4187248349f, 0.0459507294f, -0.0318492800f, 0.2341504097f, -0.6002803445f, -0.1177881658f, -0.2318184674f, 0.0017727327f, 0.2233879417f, -0.1847685277f, 0.2720833421f, 0.1833904535f, -0.2754109502f, 0.2223635614f, 0.3565106392f, -0.6785852909f, 0.2332194000f, 0.7350475192f, -1.2345045805f, 0.0755460188f, 0.0182352122f, -0.1239211485f, -0.0265103485f, -0.2236382514f, -0.3782845140f, -0.3468171954f, -0.0557043627f, -0.0678415745f, 0.1895598322f, -0.0453136861f, -0.3948138058f, 0.0441013761f, -0.1828376204f, -0.0580553375f, -0.0493916310f, -0.2900227010f, -0.0879538581f, -0.1174994037f, -0.1127098948f, -0.4100110531f, -0.0543315224f, -0.3921549022f, -0.0142933913f, 0.0303542409f, -0.0655777305f, -0.2229009420f, -0.0517527536f, -0.1858780533f, -0.1980987787f, 0.1168498546f, -0.4789264202f, 0.0742192566f, 0.2005803585f, -0.2881873548f, 0.1969272047f, 0.1111569628f, -0.1167501137f, -0.0219681133f, -0.0563012585f, -0.4630790651f, 0.4118320942f, -0.0515668951f, -0.7214371562f, 0.6974207163f, 0.2268690169f, -0.0778390914f, -0.2312755287f, 0.0698889345f, -0.5263925195f, -0.0394255556f, 0.0936124399f, 0.2521228194f, -0.0072712675f, -0.1177462488f, -0.3203910291f, 0.0549394377f, -0.0201334730f, -0.0716929957f, 0.0332330950f, -0.0219968203f, 0.2364245653f, -0.2745309472f, 0.1802736372f, -0.2290844768f, -0.1849226654f, -0.1291979253f, -0.2105476111f, -0.0867627859f, -0.1661464423f, 0.1292598993f, -0.4434654117f, -0.0811379701f, 0.2505713105f, 0.2202124894f, 0.0250863433f, 0.1117187589f, -0.2648871243f, 0.1634130776f, -0.1664246023f, -0.0605262779f, -0.1572678834f, -0.1461013407f, 0.1957154721f, -0.0223455261f, -0.1318862438f, 0.1411471665f, 0.1983385086f, 0.0911883712f, -0.0802441612f, -0.0082934350f, -0.3749993443f, 0.1942889243f, 0.0187339764f, -0.3967686594f, 0.3383960724f, 0.3075245917f, -0.1699324101f, -0.3479300737f, -0.0851789042f, -0.1208365485f, -0.1153641716f, -0.2177906483f, -0.3263660967f, 0.2449229360f, 0.1128688976f, -0.2840546966f, -0.1956643015f, -0.0767782331f, -0.0780270249f, 0.0239207856f, 0.0615141243f, 0.0923050791f, 0.1179677472f, -0.0549046621f, 0.0043523014f, -0.1036026180f, 0.1018450558f, -0.2603268325f, 0.0614292584f, 0.1024642289f, -0.4064116180f, 0.0665844455f, 0.2293233275f, 0.2976505458f, -0.0763142109f, -0.2778877318f, 0.1534215659f, -0.1313325167f, 0.1924588829f, -0.3354871869f, -0.0423687100f, -0.1659158468f, -0.1168340892f, -0.1273100376f, -0.0481231548f, -0.1933550686f, 0.4218094945f, -0.0294541903f, 0.0724172220f, 0.4272733033f, -0.1765005141f, -0.1519110799f, 0.3162325919f, -0.1162801906f, -0.5517952442f, 0.3309467733f, 0.0096629253f, 0.0206754357f, 0.0280786157f, -0.1460036635f, -0.1268389225f, 0.0470769405f, 0.2948372662f, -0.4825957716f, 0.4645836055f, -0.1079960689f, 0.0384429879f, -0.1923733205f, -0.0244911201f, -0.3108808100f, 0.1069636568f, 0.1290773898f, -0.0979878157f, 0.0475669168f, 0.2244695276f, -0.0505556948f, 0.0370362327f, -0.0581444502f, 0.4560565948f, 0.0920735672f, -0.0595457330f, -0.0050530918f, 0.0978870466f, 0.0430913605f, 0.0270969514f, -0.0164812095f, -0.1211427972f, 0.2249559164f, -0.3221179545f, -0.0321615711f, 0.0542191528f, 0.1359339505f, -0.1014857665f, -0.0450284705f, 0.4190028906f, -0.0418637395f, -0.1565122902f, 0.3176415563f, -0.0996510684f, 0.2363275141f, 0.2477204502f, -0.1630655080f, 0.1430992037f, 0.3236072063f, 0.1147710159f, 0.0290494878f, 0.1822962761f, 0.1955561936f, 0.3011030257f, -0.1230334267f, 0.0901146084f, 0.3159932494f, 0.0625594333f, -0.3391446769f, -0.1875847578f, -0.0509181917f, 0.4197259545f, -0.1742540598f, -0.0406138077f, -0.0555315726f, 0.0450983495f, 0.1110574007f, -0.0372037329f, -0.2232993096f, 0.0246706810f, -0.2326641828f, 0.0351176001f, 0.4483544230f, -0.1577685922f, -0.0225931704f, -0.6089253426f, -0.0268823542f, -0.2227247953f, -0.3674823642f, 0.5571140647f, 0.6180014610f, -0.0588969029f, -0.1245399639f, 0.5439068675f, 0.1094532683f, 0.1326705515f, 0.0610028654f, -0.0553368405f, 0.0433568731f, 0.4775568545f, 0.2157869339f, 0.0540885925f, 0.1171733588f, -0.2590256631f, -0.0790629387f, 0.3201205134f, 0.2350447923f, 0.0061600497f, -0.0768626407f, 0.3602071106f, 0.1162055656f, 0.4720096290f, -0.0712433606f, -0.3558202386f, 0.4248620868f, -0.2425655425f, 0.2023432851f, 0.0841373727f, 0.1926481873f, -0.1721724123f, 0.2421201319f, 0.2378382832f, -0.0072923610f, 0.1178950518f, 0.1666256934f, 0.2682171166f, 0.3051094115f, 0.0864034072f, 0.3027876019f, 0.3783876002f, -0.4491063952f, 0.0321060233f, 0.1083258837f, -0.8738192320f, -0.4345070720f, -0.1388293207f, -0.0704055279f, 0.0563234910f, 0.0989141166f, 0.1643433422f, -0.0093775680f, -0.2135391235f, 0.1502797604f, -0.3971266448f, 0.2870772779f, -0.1261038035f, 0.1696483940f, 0.1591631770f, -0.3130839765f, 0.3639757037f, 0.0972279161f, -0.0183996502f, 0.0499002598f, 0.0250210650f, -0.4548656642f, -0.2290364057f, -0.0855135992f, -0.1827879250f, 0.2469040453f, 0.0686358362f, -0.2067133635f, 0.1098293886f, 0.5228309035f, -0.3418000638f, -0.0676220879f, 0.3957796395f, 0.1455943435f, -0.0046206233f, -0.1484531462f, 0.0834522620f, -0.0042767022f, 0.1181464419f, 0.2333171070f, 0.1843207777f, 0.0639793053f, 0.3613266349f, -0.1375441849f, -0.2837673128f, 0.5077973008f, -0.1919868737f, 0.1616180688f, -0.4764442742f, -0.0020538718f, 0.1900274307f, 0.0245340187f, 0.2341271192f, 0.2260310650f, -0.0541176125f, 0.3244922757f, -0.0242229942f, -0.2963564694f, -0.2763942778f, -0.0668582022f, 0.1040660366f, 0.3024830222f, -0.0983621851f, -0.1040682271f, -0.0097238496f, 0.1606049240f, -0.0583941340f, -0.0757990107f, -0.2239915133f, -0.0367250890f, -0.2058676332f, -0.1163100898f, -0.2468899637f, -0.0937366560f, -0.2724320292f, 0.1096538603f, -0.2036771625f, 0.1118126512f, 0.1952907294f, -0.0638677329f, 0.0412843600f, 0.2060161084f, 0.1195785627f, 0.2780105770f, 0.0655700192f, -0.0653859824f, -0.1809268147f, 0.3856064975f, 0.3579711616f, -0.0962022692f, 0.9121526480f, -0.1294608265f, -0.1040018797f, 0.0478589572f, 0.1665813029f, -0.0485836342f, -0.1475001276f, 0.0291947611f, 0.0483163893f, 0.0205735788f, 0.0775539503f, 0.1211586222f, 0.0265919697f, 0.4318183064f, 0.5707073212f, 0.1163490564f, -0.0865355656f, 0.3822629452f, 0.1149513945f, 0.2273391932f, -0.2100092471f, -0.0124015417f, -0.1344088316f, 0.1954509616f, 0.1996928751f, 0.0118211983f, -0.2183432281f, -0.0215779319f, -0.4816410840f, -0.1813677698f, 0.3536837101f, -0.2551133931f, 0.2973904610f, -0.1872875094f, 0.1104792506f, -0.0677744150f, 0.1128058136f, 0.0461785756f, 0.2905536294f, 0.3075279593f, 0.5100246668f, 0.0111952433f, 0.2843801379f, 0.0554929860f, -0.1126757115f, 0.3320381641f, 0.0695224404f, 0.3011013567f, -0.3743137717f, -0.0713338852f, 0.2157722861f, 0.0545705445f, 0.0999152735f, 0.3967672586f, -0.0438324809f, -0.1337523609f, 0.2030623555f, 0.4641880393f, 0.0335678309f, 0.1446379423f, -0.0689493418f, -0.0805952623f, 0.0705702975f, 0.2205270231f, -0.0912997052f, 0.2086285353f, -0.0178863015f, 0.2672735453f, -0.3001449704f, -0.1445949674f, -0.1082379520f, 0.1312162429f, -0.0922291130f, -0.1739098281f, 0.1879589707f, -0.1301587224f, 0.2196541280f, 0.3427689970f, -0.2243434638f, 0.2593500316f, 0.3036878109f, -0.2151349485f, -0.0726450980f, 0.4821750224f, 0.1171031073f, -0.1564342827f, 0.3076720536f, -0.3092404306f, -0.0148238540f, 0.0345005095f, -0.8301464915f, -0.0733419657f, 0.2252997458f, -0.1930385828f, 0.0532467663f, 0.3970790207f, 0.1740614325f, -0.2330087721f, 0.2698947489f, 0.2044940740f, -0.3744062781f, 0.1358649135f, -0.2636539936f, -0.2583551705f, 0.1818856895f, -0.2104276270f, -0.2133344114f, 0.4244884253f, 0.1923629940f, -0.3826692402f, 0.0675050840f, -0.0678892136f, -0.3261687160f, -0.1573703438f, 0.0995536000f, 0.0904991776f, -0.0304230433f, -0.0693447739f, -0.1204483807f, -0.2409128547f, -0.0295216292f, -0.2832069397f, 0.3834535182f, -0.1659318805f, -0.0093087656f, -0.3286804557f, -0.1121916473f, -0.3351621032f, 0.0295658968f, -0.2548417747f, -0.1623367071f, -0.2290318906f, 0.3287847638f, -0.3118560314f, -0.6565752029f, 0.1052086428f, -0.1819644719f, 0.0764537156f, 0.0676773265f, -0.1055540890f, -0.1519819498f, 0.0849770308f, -0.0637662411f, 0.1346113235f, 0.0825924203f, -0.0983339995f, 0.1439786851f, -0.4610765874f, 0.0467176326f, -0.2600348890f, -0.0389470011f, -0.2750983834f, 0.0439550020f, -0.2967951596f, 0.1242988110f, 0.4336496890f, 0.1338464618f, -0.0318310373f, 0.1724108607f, -0.2566668987f, -0.1452544183f, 0.3053753078f, 0.1857541800f, -0.1538117677f, 0.2917206883f, -0.1889625043f, -0.3455373645f, 0.1715814322f, -0.2598746419f, 0.0096231401f, 0.3271436393f, -0.0287530851f, -0.3371049762f, 0.4565289915f, 0.0939971879f, 0.0601183921f, 0.4250062108f, -0.2706286013f, -0.0488949306f, 0.9240885973f, -0.9096079469f, -0.1674669683f, 0.0801992044f, -0.2041899264f, -0.2598192692f, 0.1962031275f, 0.0523311272f, -0.1247132570f, -0.0020535719f, 0.0019816316f, 0.1206959412f, 0.4680291712f, 0.0721791461f, 0.0107057551f, 0.1169157401f, 0.1990670264f, -0.2399529517f, -0.0571123026f, 0.1748546809f, 0.1874160767f, -0.0759400651f, -0.0853047073f, 0.0654397681f, -0.1439847797f, -0.2651764750f, 0.0146551114f, -0.2647481859f, -0.2570377588f, 0.0513828546f, -0.0453644283f, -0.4030744135f, -0.3386941552f, -0.2157640159f, -0.0954844132f, 0.3973954320f, -0.2778807878f, -0.3347746134f, 0.0469918549f, -0.5463570952f, -0.0417787470f, -0.0692272484f, -0.2045797706f, -0.0633150637f, 0.0364371166f, -0.0603858531f, -0.4020504057f, 0.0456027724f, -0.0307125449f, -0.0337019190f, -0.0124285389f, 0.2043390274f, 0.0169703607f, 0.0551487841f, -0.1222091764f, 0.3088467717f, -0.1060147583f, 0.2252448648f, 0.0758380145f, -0.2421638221f, 0.0885860249f, -0.1968983263f, -0.0503948703f, 0.2814771533f, 0.0476083234f, -0.0234841686f, 0.3938499391f, 0.0222966187f, -0.1105452776f, -0.0061495509f, -0.0445032641f, -0.1067396253f, -0.1913782954f, 0.0005048166f, -0.2745115161f, 0.5573849678f, 0.1470389068f, -0.0202651564f, 0.1586236507f, -0.0871758163f, 0.2409568280f, 0.3758443594f, -0.1312934905f, 0.1653251797f, 0.3632521033f, 0.3131307364f, 0.1528860480f, 0.2935980856f, -0.3203583956f, 0.1565220356f, 0.6672866940f, -0.8090008497f, 0.0243635289f, 0.0476523824f, -0.2212603837f, -0.3147046566f, 0.1919150651f, -0.0683569163f, -0.1732535064f, -0.0371422619f, -0.0549262315f, -0.4548011124f, 0.1799381375f, -0.0280216374f, -0.0576784350f, 0.4252283275f, 0.0161016099f, 0.1543028206f, 0.0437972024f, 0.1315900683f, 0.1044714451f, 0.0161422696f, 0.1140458435f, 0.0745686889f, -0.2987059653f, 0.0425103866f, -0.0303741358f, 0.1503518075f, -0.0193871334f, -0.1178293750f, -0.0813676044f, -0.1749646813f, 0.3392703831f, -0.1203786731f, 0.1207500026f, 0.3311643302f, -0.0522425584f, -0.1639963239f, 0.2090502828f, 0.0552658029f, -0.0591701008f, 0.1300210506f, -0.0087627415f, 0.2742197812f, 0.2157942355f, 0.3390938044f, 0.4233091772f, -0.0352423377f, -0.1067155078f, 0.0182835478f, -0.0553738847f, 0.1798853725f, -0.5547206402f, 0.0195551366f, -0.0647814423f, -0.1696586758f, 0.3267565072f, 0.0951252654f, -0.1184333339f, -0.1179238632f, -0.0811315253f, -0.2176009268f, 0.2666893601f, -0.3328027129f, -0.2887379825f, 0.0193060599f, -0.0146493036f, -0.0117350221f, -0.2061249912f, -0.0736300200f, 0.0412008576f, -0.0401374102f, 0.3565249741f, 0.0213845167f, 0.0793534741f, -0.1184504703f, -0.1576537788f, -0.1441789716f, -0.2077747136f, -0.0888462663f, 0.2946668863f, -0.0536849871f, -0.3767614961f, -0.1038526222f, 0.2233302295f, 0.0330943055f, -0.2439497709f, 0.1617770046f, 0.0985192508f, -0.1599007547f, -0.3679814041f, 0.1835047901f, 0.2246522754f, 0.0593793765f, -0.1454724371f, 0.1756543219f, -0.1278847307f, -0.1639054716f, -0.0355629772f, -0.1450288892f, -0.0376167558f, 0.0636409447f, 0.0811429024f, -0.3235849440f, -0.1486499757f, -0.1596182138f, -0.2190431356f, 0.2851660252f, 0.1212701350f, -0.0563383289f, -0.0161866471f, 0.0072662961f, 0.1402143091f, 0.1356074065f, 0.1696086824f, 0.1643372327f, -0.1234130934f, 0.0039080400f, 0.4274649620f, -0.1221423224f, -0.1227196455f, -0.1181750968f, 0.0787445158f, -0.0842843056f, -0.2255039364f, 0.1270537376f, -0.1632341146f, 0.0850148275f, -0.0302399304f, -0.1695102006f, -0.3829862773f, 0.4827439189f, -0.2689674795f, -0.0729857311f, 0.0099263638f, -0.5682658553f, 0.3132709861f, -0.1206054613f, 0.1019833833f, 0.1285984963f, 0.0273325611f, 0.3333371282f, 0.0671932399f, 0.3153378367f, 0.3401243389f, 0.2593677342f, 0.0645516664f, 0.0322305262f, -0.2257084101f, -0.0672763363f, -0.0165092852f, 0.0150049385f, -0.0765714943f, 0.5590122342f, -0.3126948476f, -0.2328410745f, 0.1511776298f, -0.1007799953f, -0.0634617731f, -0.0834622011f, -0.1772923321f, -0.2505550086f, -0.0151701476f, -0.0867010131f, 0.2585608661f, 0.2499532700f, -0.2463422418f, 0.2209807783f, -0.2118608057f, -0.0745368749f, 0.1759189665f, 0.0155617613f, -0.0345492400f, 0.1948257536f, 0.1461271644f, -0.5205149651f, -0.2332421243f, 0.0089779086f, 0.1612956673f, -0.0983537883f, -0.2670094371f, -0.3552025557f, 0.0779487342f};
const float b1[] = {-0.0588142946f, 0.2135743797f, 0.1758252084f, -0.0334604196f, -0.0059601483f, 0.0741738826f, -0.0630960390f, -0.0833594948f, -0.0774811879f, 0.0834164470f, 0.0368118063f, -0.1081084535f, -0.0565053448f, 0.0260405764f, 0.0172476396f, -0.0454475321f, -0.2412197590f, -0.0685111657f, -0.0285253376f, 0.0016009880f, 0.0076408433f, 0.1659373641f, 0.2685540020f, 0.0422771089f, 0.0730888024f, -0.1157289445f, 0.0159967914f, 0.0974480286f, -0.0430501178f, -0.0538963303f, 0.0340524577f, 0.0378717855f, -0.0132096857f, 0.0406167135f, -0.1945695877f, 0.0831969082f, 0.0424926206f, 0.0852798745f, -0.0868273154f, 0.1591567993f, 0.0198723301f, -0.0987445489f, -0.3412924111f, 0.2991920710f, -0.1376338601f, 0.0765845403f, 0.0714802071f, -0.0107164904f, 0.1926297992f, 0.0293351226f, 0.1823670119f, -0.0306562819f, -0.0289325360f, -0.0138203222f, -0.1489811987f, 0.1772875488f, 0.1620475054f, -0.0568549819f, -0.0143489605f, 0.0434645787f, -0.0808760151f, 0.1377254128f, 0.0654878691f, -0.0442452803f};
const float W2[] = {0.0287164077f, -0.3117406070f, 0.0683906898f, 0.0855451524f, -0.0764130205f, 0.4119884372f, -0.4081929624f, -0.1099052429f, -0.3329074979f, -0.0281083342f, 0.0346759297f, -0.1568111628f, 0.5495277643f, -0.0641001984f, 0.2363241315f, 0.2457907349f, -0.0359477066f, -0.3147329688f, -0.0752247870f, -0.1173406467f, 0.1044728756f, 0.0081238076f, -0.4123518765f, -0.3465696871f, 0.2702772319f, -0.0198658854f, 0.2844523787f, -0.0028714903f, -0.0878494754f, -0.1949800998f, -0.1202645153f, 0.4047027528f, 0.1243178323f, -0.1257714629f, -0.2585522532f, -0.0914670825f, -0.1935710907f, -0.1116260514f, -0.0016366688f, 0.1403217614f, -0.2109173685f, -0.1099108905f, 0.0238601528f, -0.2549525499f, -0.0539609380f, -0.1171164513f, 0.1417275518f, 0.1241353899f, -0.1294419467f, 0.3355305791f, 0.4582308829f, 0.0549263507f, 0.0677712560f, -0.1549631357f, 0.0554489233f, 0.0231034458f, -0.3041358590f, 0.2765549123f, 0.2542702258f, 0.0658517480f, -0.3073317111f, -0.0558797419f, -0.1225294247f, -0.1576337516f, -0.0465111919f, -0.2621475458f, -0.1536658704f, 0.1059893817f, -0.2998707891f, 0.2494589537f, -0.2044190764f, 0.1969255507f, -0.3252992630f, -0.0038206233f, -0.1781484038f, 0.3175528347f, -0.1478869021f, 0.0422286727f, 0.0010264780f, -0.0776307136f, 0.0862364545f, 0.1146475077f, 0.0369717255f, -0.1684683710f, -0.0958254561f, -0.2052789032f, -0.0122125391f, -0.1248757914f, 0.2272767872f, -0.1894934475f, 0.0698850900f, 0.1429184079f, 0.0152780097f, 0.1082472801f, -0.0545791388f, 0.1147775650f, 0.3642205894f, 0.5108054876f, 0.0953020453f, -0.2453024834f, 0.2667931020f, -0.1337403953f, 0.0775522664f, 0.2581840754f, 0.0824738666f, -0.0958918482f, 0.1616507620f, 0.0669780672f, -0.0521418937f, 0.1933160424f, -0.1392205209f, -0.0350847133f, 0.1747499108f, -0.1766735613f, -0.0693248436f, -0.2093862295f, 0.3168158829f, -0.0527116656f, 0.0311297420f, 0.0144173251f, -0.0172796492f, 0.0396742374f, 0.0620364584f, -0.1621473432f, 0.0036890940f, 0.0941898301f, -0.0697481781f, 0.1690491438f, 0.0768658668f, 0.0813543275f, -0.3736474812f, -0.0198669992f, 0.2250727266f, -0.0664124936f, -0.3094360530f, -0.2617465258f, 0.1787173152f, -0.2202018648f, 0.1433131099f, -0.0831371918f, 0.0723574683f, -0.0140922554f, 0.0018375085f, 0.0811541528f, 0.2550279200f, 0.0083034541f, 0.2490239441f, 0.2344749570f, 0.2954244614f, 0.0284241661f, 0.4611071646f, 0.3920485079f, 0.1148166209f, -0.0258502383f, -0.0310429353f, -0.0483081304f, 0.0210854933f, 0.0907092243f, -0.2277957648f, 0.3003826141f, 0.3236814141f, -0.0338472575f, 0.0510252751f, 0.0852963850f, -0.0150998347f, -0.0263831150f, -0.2641181648f, 0.0310729146f, -0.0000099273f, 0.1038908884f, 0.0464364588f, 0.2140283138f, -0.1599004716f, 0.1548475772f, 0.0692219660f, 0.0040173442f, 0.2929657698f, 0.0112991212f, -0.1990881860f, -0.1057667211f, 0.1900165975f, -0.2872760296f, 0.1695561260f, -0.2257079333f, -0.2901908457f, 0.1342198700f, 0.1257862300f, -0.1760526448f, 0.0886168629f, 0.2752156258f, 0.0869026184f, 0.0349092707f, -0.2217559665f, -0.2373477966f, -0.1273629963f, -0.1183663458f, 0.0033688811f, 0.0628648400f, 0.0454140864f, 0.0599394217f, 0.1142471135f, 0.1450628787f, -0.0201432314f, -0.1117397621f, 0.6691154838f, -0.0769411698f, 0.0312745869f, 0.1717329770f, 0.1422687024f, 0.1894254088f, -0.1559967846f, -0.0887279809f, -0.2729415298f, -0.1640444845f, 0.2054179162f, -0.0036756166f, 0.3738392889f, 0.3779751956f, -0.0599791482f, -0.2660763860f, 0.1146689206f, -0.0604877993f, -0.0606170408f, -0.2684592307f, 0.1284173876f, 0.0197416544f, -0.2134729773f, -0.0605254993f, -0.0806176588f, 0.0068383431f, -0.1175229102f, -0.1734232605f, -0.2047110796f, -0.1625977159f, 0.3932118714f, 0.1041787639f, 0.0980970636f, 0.0172921978f, -0.3837062418f, 0.2752239108f, 0.0691172928f, -0.0966971144f, 0.0800431594f, -0.0203766786f, 0.0139050269f, -0.0515401326f, -0.0523502193f, 0.0599890314f, 0.4365683198f, -0.3921090066f, 0.1015886739f, 0.1784918159f, -0.0524325743f, -0.1136748567f, 0.0017748708f, -0.1362871081f, 0.1557832807f, 0.4089067280f, 0.2115083188f, 0.5716668963f, -0.0714312792f, -0.1197221875f, -0.1852027923f, -0.1078824103f, 0.0955490619f, -0.0614856444f, -0.0452991724f, -0.0496349782f, 0.9489265084f, 0.1918502897f, -0.0064481245f, -0.0798912719f, -0.3878852129f, 0.0728928447f, 0.1548071802f, 0.0330330506f, -0.1886417717f, 0.1542001516f, 0.1833402365f, 0.2886857986f, -0.0937205032f, -0.0447539911f, 0.0705944300f, 0.3662402034f, 0.2147344202f, 0.3307468891f, -0.0890727788f, -0.0875427127f, 0.0127127049f, 0.0422240011f, -0.0934146345f, -0.2694747746f, 0.0487989411f, 0.1119278818f, -0.2343353331f, -0.2283297032f, 0.0997878090f, -0.0445617251f, -0.5317088962f, 0.3640409112f, -0.2680103183f, -0.2982237637f, 0.4306206405f, -0.0987682790f, 0.2493976206f, 0.0328956842f, 0.0349689499f, -0.3417919874f, -0.0219144262f, 0.0710257366f, -0.0635245889f, -0.2183495760f, 0.3482809067f, -0.4568921328f, -0.1777488291f, -0.2614322901f, -0.0487509668f, 0.0644963533f, 0.1209103987f, 0.0449126922f, -0.1808875799f, -0.0218350366f, -0.1423174441f, 0.3811003864f, 0.2590354383f, -0.3585609794f, -0.0844720230f, -0.1723723412f, -0.1975830793f, 0.0065153632f, 0.1803305894f, -0.2597675025f, -0.3449308276f, -0.1197946146f, 0.2614468336f, -0.1094629318f, 0.1893082261f, 0.3120816648f, 0.0782404020f, -0.1666977257f, 0.1338100582f, -0.0202351846f, -0.3055244982f, 0.2312531918f, 0.2204829156f, -0.0962559953f, -0.2077184618f, 0.1189005673f, -0.0538922213f, 0.3322319388f, -0.1373426467f, 0.0829008147f, -0.3921426833f, -0.0976818353f, 0.2028408796f, 0.0970146433f, -0.1393387765f, 0.0271957964f, 0.1125164181f, -0.1747788787f, 0.0152541744f, 0.1644230187f, -0.3845787644f, -0.0509559885f, -0.1521499604f, 0.0896342024f, -0.0934623629f, 0.1034556404f, -0.1752292514f, 0.2278026491f, -0.2742907703f, -0.4399915934f, 0.0858950168f, -0.0378697403f, 0.1243306249f, 0.0418175161f, 0.1698030978f, 0.2218917012f, -0.1300338656f, 0.0083948029f, -0.1779265106f, 0.0041517299f, -0.1648782492f, 0.2113459408f, -0.3966664076f, -0.0066913832f, -0.1628800780f, -0.1092290655f, -0.1144315451f, -0.0500474982f, 0.0412218831f, -0.0566080697f, -0.0060798717f, 0.1998798847f, 0.3739114702f, 0.1784470081f, 0.3192853034f, -0.0590414740f, -0.0825031698f, -0.0223939046f, -0.0557804480f, 0.0427904613f, -0.0557158887f, -0.1116245985f, -0.2169145197f, 0.0895556957f, -0.0579482391f, -0.4025083184f, -0.0400489159f, -0.3778951168f, -0.3448729217f, -0.1035614610f, 0.0340367444f, -0.2713420689f, 0.1058120877f, -0.2501279712f, 0.1724570543f, -0.2018169612f, 0.0182869751f, 0.0335421301f, -0.1137966439f, 0.0073078834f, -0.0859605968f, -0.1662975550f, 0.0458444692f, -0.1321903020f, 0.1317364573f, 0.2132471949f, 0.0103182765f, 0.0665366203f, -0.1444837302f, -0.6165281534f, -0.0899453834f, 0.2465727478f, -0.1522964686f, -0.0161292776f, -0.0760184973f, 0.0326127708f, -0.1026704758f, 0.0388489142f, -0.2849902809f, -0.0844172910f, 0.0919664353f, -0.0635137782f, -0.0961935595f, -0.0608231276f, -0.1442408860f, -0.0880863518f, 0.1165871471f, -0.1658399999f, 0.1926218271f, -0.1974410117f, -0.2391717583f, -0.0572521351f, 0.2095208019f, -0.2181522995f, 0.0115353791f, -0.1458796859f, -0.2637335360f, 0.0127637303f, 0.2548001409f, 0.2230418324f, -0.0447914265f, -0.1277840436f, 0.1949449480f, 0.1334509701f, -0.1590277851f, -0.0723739713f, 0.2658893764f, -0.0533736236f, -0.2135716528f, 0.0444674231f, 0.3019945920f, 0.1565068513f, 0.3702853322f, 0.1242715269f, 0.3002358079f, 0.0516954586f, -0.1012485325f, 0.2309679538f, 0.1984959394f, -0.0078305090f, 0.2376551330f, 0.0431515425f, -0.1132613868f, 0.3813060820f, 0.0137786064f, -0.0997798741f, 0.0699580908f, -0.0476953723f, 0.0759669319f, 0.2815106213f, 0.0256303400f, 0.0943404436f, 0.2090372294f, -0.1746923774f, -0.0864721984f, 0.1649269164f, 0.0519688427f, 0.0348879844f, -0.0028899438f, 0.3888691068f, -0.3188162148f, 0.1567003429f, 0.0023955265f, 0.0481159426f, -0.1171852872f, 0.2675102949f, -0.0262356512f, -0.1909214556f, -0.1982031316f, 0.1126492769f, -0.2063819319f, -0.2672049105f, 0.0020834142f, 0.0502918512f, -0.0455768071f, 0.0977869853f, 0.1553790271f, -0.0683500022f, 0.1943410188f, 0.0663352534f, -0.2733066082f, -0.3783091009f, 0.5281621814f, 0.0135911321f, 0.0650329292f, -0.0521261208f, 0.2678228617f, 0.1486210823f, -0.2518319190f, -0.0844443813f, 0.0348614380f, 0.3405756056f, -0.0250287578f, -0.1337371171f, -0.2359446287f, -0.0968197137f, -0.0175419748f, -0.2963731289f, -0.2824972570f, -0.1512873918f, -0.0177938007f, -0.1642278582f, -0.0232032556f, 0.1196752936f, -0.2915183008f, -0.1996062696f, 0.2435147017f, 0.1881337166f, 0.0128304558f, 0.3638898134f, 0.0137456041f, -0.0401388668f, 0.1104081571f, 0.1552356482f, -0.0905951411f, -0.0172083694f, -0.1188603789f, -0.1586663872f, 0.0619092211f, -0.1981274039f, -0.0871816278f, -0.1239523590f, 0.0490471646f, -0.2090486288f, -0.0224761609f, 0.4099051058f, -0.1238194704f, 0.0255095568f, -0.4956042171f, 0.1124146953f, -0.0063067698f, -0.0325914733f, 0.0594966151f, -0.1386787295f, 0.0901204571f, -0.0170475803f, 0.0180250667f, -0.2359719872f, -0.1973746568f, 0.0155396368f, -0.2386838049f, -0.1886774898f, -0.1728185713f, -0.1101968139f, 0.0927909240f, 0.2206484079f, 0.2657062411f, 0.2129410505f, 0.0337296985f, 0.2276528776f, -0.0041042599f, -0.1511392146f, 0.1281327009f, -0.0682193413f, 0.1787661910f, -0.2350230366f, -0.0369285531f, 0.2360377014f, -0.3980955482f, -0.1272953004f, -0.0934814885f, -0.4028607011f, 0.0278004389f, -0.1954749227f, 0.0358479284f, -0.2611928582f, -0.0167514719f, 0.0906759202f, 0.0412384383f, 0.1745550185f, -0.1910164803f, 0.0657350048f, 0.3003482223f, 0.2293807566f, -0.0615413897f, 0.2318824232f, 0.2159159034f, 0.0136381323f, 0.1691807806f, -0.0206227247f, -0.2527285814f, -0.0401638635f, 0.2861586213f, 0.1109795272f, 0.2398111969f, -0.3135121763f, 0.3284651041f, -0.0110247824f, -0.1670091003f, 0.1187454388f, 0.1575917453f, -0.0626424700f, 0.2152705193f, 0.0606525168f, 0.0848356113f, -0.0061555696f, -0.1936294138f, -0.3323091865f, -0.1982238293f, -0.1572306752f, -0.3446415067f, -0.1178816184f, 0.1989950985f, -0.0125559615f, 0.0495740101f, 0.0011646630f, -0.3204896748f, 0.1586463451f, -0.0449616089f, 0.1166529730f, 0.2122065425f, -0.0811841488f, -0.1277566850f, 0.0992096961f, -0.3412490189f, 0.0195957702f, -0.1141779348f, -0.4620316625f, 0.2337424308f, -0.0248671174f, 0.1783147454f, 0.0340788998f, 0.0402170457f, -0.2365480810f, 0.2215961665f, -0.0259884950f, -0.0217617936f, -0.1612673253f, -0.1021338031f, -0.1323899925f, -0.0025742170f, 0.1238130108f, 0.0698713735f, -0.1450603306f, -0.1353938580f, 0.2233705521f, -0.0854613036f, 0.1267605275f, -0.1331941783f, 0.2105226070f, -0.0562927984f, -0.1882624477f, -0.0699901730f, 0.3367392421f, -0.0838286504f, 0.1325489283f, 0.0499899797f, -0.0735152140f, -0.0747572705f, -0.0501205847f, -0.1267856359f, -0.1982174218f, -0.1478787065f, 0.0385980159f, 0.1908329129f, 0.0552065596f, 0.0190636609f, -0.1125484705f, 0.2044024020f, -0.3659789860f, 0.2571649551f, 0.0034122164f, 0.0246564820f, 0.0006193424f, -0.1389130652f, -0.0644409880f, 0.0665384308f, 0.1466766596f, 0.0918897688f, 0.1632065326f, 0.0146439411f, -0.0876755714f, -0.1647848934f, 0.0741418898f, -0.0486489795f, -0.0877928957f, 0.2110227644f, 0.1218476370f, 0.1949233562f, -0.0607077703f, 0.0398793817f, -0.0314125009f, -0.0767142251f, -0.1684103012f, 0.1996614933f, -0.0479971878f, -0.1363460422f, -0.1696727127f, 0.0817793161f, 0.1533854455f, -0.0535653941f, -0.3402787447f, 0.0171820354f, -0.1073721424f, -0.0811563954f, -0.1182544306f, 0.2184952646f, 0.2105595320f, 0.1974137723f, -0.2064164281f, -0.3064181805f, 0.0778664425f, -0.2328741103f, 0.1737603992f, 0.1610456854f, 0.0770446286f, -0.1203717589f, -0.0759157315f, 0.2062132955f, -0.0417296775f, -0.0575519688f, 0.1899065375f, 0.0477965213f, -0.2604965568f, 0.1696662754f, 0.1197418049f, -0.0931265578f, 0.1036610231f, 0.0147558702f, 0.0258543342f, 0.0201213453f, -0.0262549575f, -0.3565925062f, -0.2711316645f, 0.0457912683f, 0.1111166701f, -0.0578014664f, -0.2644210458f, -0.3099688590f, 0.2782815397f, -0.0986811519f, -0.1928626895f, 0.0783627927f, 0.2045288831f, -0.2862134874f, -0.1671695709f, 0.0869554281f, -0.2435442954f, -0.3745642900f, 0.2040909678f, -0.0454653688f, 0.3300724924f, 0.0757614374f, 0.0658565089f, 0.0540340021f, 0.4069502056f, 0.3189584315f, 0.2211685181f, -0.0430657677f, 0.0680841580f, 0.0279370937f, -0.3776461184f, 0.2218601704f, 0.3194165230f, 0.0028627194f, 0.5597037673f, 0.0774817094f, -0.2845563293f, 0.0071478048f, -0.3529130816f, 0.1056318432f, -0.0432988778f, -0.0508836061f, -0.3339191377f, -0.1471792012f, 0.0207293630f, 0.3715897202f, -0.0813068300f, -0.0384164676f, 0.1255001128f, -0.2785523236f, 0.1575486511f, -0.0074474150f, 0.0803369135f, 0.1531701237f, 0.2388654202f, 0.2886544466f, 0.3095253408f, 0.1908256412f, -0.0524298027f, 0.2243810147f, -0.2131040990f, 0.2993233502f, 0.1273574829f, 0.0468065254f, 0.3508038819f, 0.0117938621f, 0.0053648842f, 0.2919258475f, -0.0948322788f, -0.0586180873f, 0.0559965111f, 0.1756093949f, 0.0669707656f, -0.0277253129f, 0.1435939223f, -0.1289498210f, 0.0868219584f, 0.2055106610f, 0.3496454954f, -0.1944215745f, -0.2370816022f, -0.5547818542f, -0.0945183784f, -0.3104979992f, 0.1058524325f, 0.1810880303f, 0.0331590027f, 0.2133201659f, 0.0971667990f, 0.1874409020f, 0.1144479886f, -0.2143765241f, 0.0500458106f, -0.0555558167f, 0.0602652952f, 0.0266951919f, 0.2771136761f, -0.0555606782f, 0.5566504002f, 0.1279661804f, 0.1184591278f, 0.1157389805f, -0.0250236969f, 0.2618120015f, -0.0636688843f, -0.2455916852f, 0.2219657898f, 0.0130807264f, -0.0797483698f, -0.1917715222f, -0.3009281754f, -0.2392092049f, 0.3215135932f, 0.0361896865f, 0.1873220205f, -0.1158148721f, 0.0440327041f, 0.3339706957f, 0.0478806496f, -0.0901503786f, -0.0855731890f, 0.1789997071f, 0.0510242507f, 0.0782299191f, -0.2562757134f, -0.0780174136f, -0.1284217983f, 0.0693791360f, -0.0581736490f, 0.0050460533f, -0.1099586040f, -0.1779285222f, 0.1856592894f, 0.4021223783f, -0.1118382663f, -0.0327315964f, -0.0484318398f, -0.2127875984f, -0.0447659791f, -0.0122788344f, 0.2180663496f, 0.1322164536f, 0.2599604726f, 0.0226133466f, -0.0639435500f, 0.2864066362f, 0.1744232029f, -0.1344952732f, 0.0881602764f, -0.0185478646f, -0.2604755461f, -0.0257922634f, -0.3268503547f, 0.0521653257f, 0.1764417142f, -0.1535161287f, -0.1877805591f, 0.1852796972f, 0.0075013125f, -0.3178049922f, -0.3362540901f, 0.1203053892f, -0.2035671920f, 0.1740409583f, -0.1055319831f, 0.0964044258f, -0.0788116008f, -0.0592805594f, 0.0175280422f, 0.0734874159f, 0.3310148716f, -0.1985385567f, 0.0598794371f, -0.0749991089f, 0.3854079843f, 0.1750979573f, -0.3764794767f, 0.0478878506f, 0.2632316947f, -0.3604919016f, 0.0475610681f, 0.0747999400f, -0.1886176616f, 0.0005037085f, 0.1039540693f, 0.0746896490f, -0.0450841971f, 0.0548857190f, 0.4497723281f, 0.0719604269f, 0.2366703153f, 0.4774697125f, -0.0417960510f, -0.2461384535f, 0.2943645120f, 0.0849940479f, 0.2919268012f, -0.1711980551f, 0.0442957096f, -0.3304829299f, 0.0566293187f, -0.2307581156f, -0.1216556579f, -0.1764462888f, 0.0989909768f, -0.0836505741f, -0.0194908995f, -0.1225040331f, 0.0176894478f, -0.0750730261f, 0.4649364352f, -0.0845782980f, -0.0327718146f, -0.1468055248f, 0.5959281921f, 0.0557943806f, 0.0171996746f, -0.1262968779f, -0.2622592747f, 0.1717516929f, -0.2813648582f, 0.0278435703f, 0.0405058749f, -0.0509615093f, -0.1616684496f, 0.0076908553f, -0.0412519760f, 0.2350095361f, 0.0628300384f, -0.0446877070f, 0.0623990260f, -0.1472402811f, 0.0070987348f, 0.0962297767f, 0.2335414737f, -0.0851936787f, 0.0938174203f, -0.3303188086f, 0.0989274383f, -0.0922286510f, 0.0315663368f, 0.2701077461f, 0.1663117856f, 0.1694692522f, -0.0693231896f, -0.0801795647f, 0.1999772787f, 0.1397391111f, -0.1375678778f, -0.0519675128f, 0.0635871068f, 0.2480431795f, 0.0101044793f, 0.1084471792f, -0.0252369586f, -0.2497093379f, 0.1438087374f, -0.0991133526f, 0.3053306639f, -0.1273880154f, 0.1494556963f, -0.0948134959f, 0.1075252891f, 0.0427841097f, -0.2999926507f, 0.0788634494f, 0.2034048289f, 0.1214769706f, 0.0145439785f, -0.4784825742f, 0.3688430190f, 0.0514875799f, -0.0370776318f, -0.7549082041f, -0.2708133459f, 0.0133035062f, 0.0961144939f, -0.3319771290f, -0.1556439698f, -0.2313310951f, 0.0030077235f, 0.1970255226f, 0.0693025216f, 0.3079431057f, -0.0531624258f, 0.3026761413f, -0.1633464843f, -0.0951498523f, -0.0237777270f, -0.2425241023f, -0.7291854024f, 0.1654834449f, 0.1964453757f, -0.2576800287f, -0.1426692158f, -0.2894826829f, 0.3151942790f, 0.2311707288f, -0.1340544373f, 0.1197931990f, 0.4210763872f, -0.0480746664f, -0.1901854128f, -0.1869445741f, 0.5317465663f, -0.0144464197f, 0.4645985663f, -0.1516851932f, 0.0950494185f, 0.4050716460f, -0.1110675186f, 0.3299161494f, 0.0922930762f, -0.0924131721f, -0.0637783185f, -0.1477916241f, 0.7113211751f, -0.1596290320f, 0.4192179739f, 0.1891199052f, 0.1358137131f, 0.0028306136f, 0.3307966590f, -0.1061864123f, -0.0379903056f, -0.0214204192f, -0.2585211694f, -0.0447758399f, 0.1390162408f, -0.0315409712f, -0.1442817897f, 0.2318097800f, 0.1654556692f, -0.0720503703f, -0.1813227087f, 0.2344620675f, -0.3316062391f, 0.1526203901f, 0.1437280476f, 0.0999263003f, 0.3373039365f, 0.0402175263f, -0.1381368190f, 0.2057127059f, 0.1787412018f, 0.0425962098f, -0.0818486512f, 0.1160216928f, -0.0188468806f, -0.1846739501f, -0.1043341681f, 0.1669851691f, -0.1292029768f, -0.0856995136f, -0.6013727784f, 0.2156948745f, -0.0303116608f, -0.1034089401f, 0.5400843024f, -0.1861587316f, -0.1670250595f, -0.2221967131f, 0.1868984550f, 0.0887710974f, -0.3093478978f, -0.2178359032f, -0.0564969182f, 0.1117047146f, 0.2304242104f, 0.0257258527f, 0.1635196954f, 0.0959002227f, -0.1229612380f, -0.0822774544f, -0.0094950516f, 0.0300463736f, 0.1758566350f, -0.0292661581f, -0.0446528122f, -0.2052722424f, 0.1259111315f, -0.0577346347f, 0.0990590379f, 0.2899848819f, -0.3426437676f, 0.0257574786f, 0.0438547879f, -0.0152538260f, 0.0550107174f, 0.0304657426f, 0.1546462774f, 0.1788784415f, -0.0437803566f, -0.2434178442f, -0.0354873464f, -0.1501277089f, 0.1868127882f, 0.0051238663f, -0.1819658428f, 0.0422644764f, -0.0899016634f, -0.3099313378f, -0.0622077510f, -0.0186159350f, -0.0682900548f, -0.4507411718f, 0.1123117059f, 0.2564641833f, 0.1254818439f, 0.0281394962f, 0.1282932311f, 0.2066302747f, -0.0121461712f, -0.0479768440f, 0.0125520118f, -0.0339031927f, 0.2955014706f, 0.1050834507f, 0.6172108650f, -0.2963449061f, 0.0869106501f, 0.0499196984f, -0.1274079680f, 0.0544721633f, -0.0062276879f, -0.0526391678f, 0.1652114093f, 0.1864798069f, -0.3868718445f, 0.1366569847f, -0.0403397530f, 0.0687899366f, 0.2962064147f, -0.4253852069f, -0.0540398955f, -0.1961593926f, 0.1921553463f, -0.3289686739f, -0.0790394098f, 0.0610437393f, -0.2653549910f, 0.0949662402f, -0.0102533177f, 0.0767456964f, 0.3440845609f, -0.2050637752f, -0.1664574295f, -0.2673748732f, 0.0458764285f, -0.0384758860f, -0.2020799667f, 0.0800871402f, 0.0862716660f, -0.2762799561f, 0.5591415167f, -0.3152345121f, -0.2443167418f, -0.3795441091f, -0.3556076288f, 0.1471001804f, 0.0542777851f, 0.1146815270f, -0.0641692355f, -0.3365041912f, -0.1369388849f, -0.2887035906f, -0.0981498137f, 0.2491773814f, -0.0606775992f, -0.0414722562f, -0.1019015238f, 0.1092799902f, 0.1283841878f, 0.1196840703f, -0.0417751484f, -0.2814951837f, 0.1261528730f, -0.1135469750f, 0.1272791624f, -0.0062627476f, 0.3996045887f, -0.3717763424f, 0.1580598205f, 0.1549104303f, 0.2587210536f, -0.2562020719f, -0.1016897559f, 0.0297500044f, 0.1901213676f, 0.2992009521f, -0.2774502337f, -0.1751578599f, -0.2628071606f, 0.2609142959f, 0.1777394563f, -0.1319252104f, 0.0423483774f, -0.1737195700f, 0.2609364986f, 0.0205379315f, -0.2077971846f, 0.2654143870f, -0.0478292406f, 0.0172456913f, 0.0987858698f, -0.2223825902f, -0.4836398363f, -0.0423332490f, 0.2613461614f, -0.2030400038f, -0.1469648778f, 0.1485004723f, 0.3963686228f, 0.1186262742f, 0.0986101031f, -0.1716949493f, 0.0818733349f, -0.1400129795f, -0.3708287477f, 0.1093951389f, -0.0976988226f, -0.1793555021f, -0.0863070711f, -0.2529575229f, -0.0612670891f, -0.0829425976f, 0.0201516133f, -0.2525423467f, 0.1209334433f, -0.0450543314f, -0.0247480292f, 0.2323211282f, -0.3458360434f, 0.0418827087f, -0.1949948519f, 0.1817387938f, 0.1453044266f, 0.0247512162f, -0.0580467023f, -0.0994541496f, -0.1401189864f, -0.1037489399f, 0.1991526783f, 0.1240047291f, 0.1464047879f, 0.1559140980f, 0.0831549466f, 0.4388301969f, 0.0441381112f, -0.2817247510f, -0.1340881437f, 0.1151343659f, -0.2930724025f, -0.2884894907f, -0.0949418023f, 0.2006544024f, -0.1430344135f, 0.2823024392f, 0.2187842727f, 0.1555818170f, 0.0843022764f, -0.2894137502f, -0.1765746176f, 0.0143330023f, -0.1242296174f, 0.3419634700f, -0.0265778732f, -0.0603179522f, 0.0214421991f, -0.2098527104f, -0.1676938683f, 0.2394397855f, 0.0447248369f, 0.0606095716f, 0.0534576699f, -0.0623249933f, -0.1822589338f, -0.0126605984f, 0.0081634894f, -0.0911682397f, -0.0692322105f, 0.1133524254f, -0.1706279218f, -0.0450983606f, 0.1781909466f, 0.1007101312f, -0.0396647342f, 0.0094657503f, -0.0829789788f, -0.1109145060f, -0.1896216720f, 0.2188823670f, -0.0716125295f, -0.0196332447f, 0.0200539865f, -0.1843294203f, -0.2175061852f, -0.0979409292f, -0.1548275948f, -0.1159543246f, -0.2339295745f, -0.0416482575f, 0.2748058736f, -0.1386373341f, -0.0520551167f, -0.2512454689f, 0.1918110698f, 0.3566622138f, -0.2070241123f, -0.0379080251f, 0.2684899867f, -0.0494764969f, 0.1367418468f, -0.0972241983f, -0.0784009919f, 0.1567748487f, 0.1690641195f, 0.0969074145f, -0.0781730935f, -0.1652196050f, -0.1363351345f, -0.0820045099f, -0.2767910063f, -0.0650381222f, -0.1403412968f, 0.1180292070f, 0.5971984863f, 0.2566874027f, -0.1030643135f, 0.0115189524f, -0.1605735421f, -0.0025300914f, 0.0175161269f, 0.1256297529f, -0.0935900211f, 0.0336329304f, 0.0089232288f, 0.0727166906f, -0.0267266538f, 0.0897454396f, -0.0031536394f, 0.0270410161f, 0.0020350413f, -0.1858733445f, 0.0017170723f, -0.1876856834f, -0.1979292035f, -0.0521461181f, 0.0443236902f, 0.1477517486f, 0.0286320280f, 0.1300289631f, -0.2844935954f, -0.3130720258f, 0.2057559341f, -0.2622751296f, -0.0611308180f, 0.0576995797f, -0.0895693898f, -0.1279313415f, 0.0712075308f, -0.0367994234f, 0.1528832465f, 0.0884713680f, 0.0536879487f, 0.1068087369f, 0.1616614461f, -0.1338519305f, -0.1778390706f, -0.2503589690f, 0.1452320516f, -0.3378583193f, -0.2149068713f, -0.2897035480f, -0.1692035943f, -0.0202657543f, 0.1334073097f, 0.1080076173f, 0.0277370904f, -0.0599241406f, 0.2589679360f, 0.3960367143f, -0.1095069274f, -0.1483215690f, 0.0546267889f, 0.2581946552f, -0.0306291096f, 0.2228511572f, -0.1605206877f, -0.0290769450f, -0.1123820171f, -0.0344143212f, 0.3268119991f, 0.4094082117f, 0.0929747596f, 0.1396787614f, -0.0443061180f, -0.1338632852f, 0.7553607225f, 0.0317402743f, 0.3119151592f, -0.0189917628f, -0.0116397049f, 0.0710825026f, -0.3334191442f, 0.2625903785f, -0.1612664163f, 0.0759814233f, 0.1284466982f, -0.0364830047f, 0.4191934764f, 0.0554077141f, 0.1864731312f, 0.0545027182f, -0.0986072496f, -0.3350251615f, 0.0049243709f, 0.1529291719f, -0.1882380843f, -0.0077176914f, -0.1429947615f, -0.2145914882f, -0.0527549647f, -0.0898041725f, 0.1415346414f, 0.1355821192f, 0.2003798932f, 0.0589660853f, -0.1039300784f, -0.0741293058f, 0.1795184314f, -0.0900671929f, -0.0749015659f, 0.0396804176f, 0.0001277214f, 0.1577312946f, 0.3086322546f, 0.1918088645f, 0.0186435245f, -0.0209648851f, -0.2327774018f, 0.0181941222f, 0.0224796236f, 0.2248570472f, -0.1976946443f, -0.1135928109f, -0.6134459972f, 0.0538956039f, 0.0930097923f, -0.0384960510f, -0.0043242485f, 0.0896218643f, 0.0943761989f, 0.1256203949f, 0.0538592488f, -0.2096481025f, 0.1265099645f, -0.0291068424f, -0.1264912933f, 0.0485335141f, 0.0127005549f, -0.0814622566f, 0.1669669896f, -0.1604560614f, 0.0081737991f, 0.0476893075f, 0.1164850444f, -0.2924115360f, 0.0323949419f, 0.0396182314f, -0.1794022471f, -0.1602633446f, 0.2279771119f, 0.4709683359f, 0.0583830215f, 0.0625579581f, 0.2008174509f, -0.1239457130f, -0.0385240614f, 0.0962776691f, -0.0838196799f, -0.3470293880f, -0.1053551212f, 0.1054477170f, -0.0822402686f, -0.0976543203f, -0.1124548465f, 0.1012712866f, 0.0441964269f, -0.1529743373f, 0.1968946159f, -0.0912913159f, 0.4538667202f, -0.0175410286f, 0.0732634515f, -0.1422014683f, 0.2071574926f, -0.0670292377f, 0.0354328230f, -0.0953621417f, -0.0250333101f, 0.0438710712f, 0.1369990110f, 0.0326762311f, -0.0728906989f, 0.0854183733f, 0.0699221045f, 0.1373958290f, 0.0523729995f, 0.1426801533f, 0.1202646419f, -0.0327876844f, 0.3136757314f, 0.0108526591f, 0.2717308104f, 0.1061185971f, 0.0794053376f, -0.0303734690f, 0.3065374792f, -0.1285694689f, -0.1568758637f, -0.0758303553f, 0.0381084643f, -0.1132324785f, 0.0235933792f, -0.3342504203f, -0.1638260633f, 0.0957449153f, -0.2335243374f, -0.0899300203f, -0.3327835798f, -0.1935489774f, -0.2406420559f, 0.1241799816f, 0.1182066724f, -0.1170019358f, -0.0868509188f, -0.1961806417f, -0.1933212429f, 0.2400390953f, 0.0394475348f, 0.2047807276f, 0.1204616576f, -0.3044780195f, 0.2110670507f, 0.1739179194f, 0.0928355083f, -0.0048148967f, -0.0595537797f, 0.0862511471f, 0.3511736691f, 0.0834612325f, -0.0859714523f, -0.2539692223f, 0.0823871270f, -0.2468611747f, -0.1097100154f, 0.0074748029f, 0.0456252396f, -0.0456714593f, 0.2223872840f, 0.2169550210f, -0.0546710044f, -0.1275809109f, -0.2554518282f, 0.0904450715f, -0.5045545697f, -0.0064226775f, -0.0488566123f, 0.0172478352f, -0.0715441927f, 0.4496097565f, -0.1402257383f, 0.0995145664f, -0.0570114963f, 0.0940324962f, -0.2149946243f, 0.1053390279f, -0.0562515967f, -0.0230165087f, 0.1347549558f, 0.2029211223f, -0.0497649126f, -0.0275724158f, 0.1177482903f, 0.2793917954f, -0.0075585982f, -0.1619170904f, -0.1539022774f, -0.2695329487f, -0.3128753603f, 0.1097354889f, 0.2340209037f, -0.2538505197f, 0.0110214725f, -0.2436172962f, 0.2488043308f, 0.0286704246f, -0.3229581118f, 0.1335815787f, 0.1801109612f, 0.0166601408f, -0.3080124855f, -0.0044303522f, 0.1677004099f, 0.1270415634f, 0.1738870591f, 0.0597093850f, -0.1541839838f, 0.1791530102f, -0.1674887538f, -0.0279824752f, -0.2361331284f, -0.3336254656f, -0.1863052398f, -0.2455606461f, -0.0127954148f, -0.0166121423f, 0.0785024613f, -0.0182280559f, -0.2607779503f, -0.2227995694f, -0.0139603047f, 0.1579166651f, 0.2603298724f, 0.1048120186f, -0.2084126323f, -0.1012212411f, -0.1473320425f, 0.2512700558f, 0.1749414653f, 0.3183635175f, 0.0473892167f, -0.0004099981f, -0.0835293755f, -0.1835596412f, 0.0855578259f, 0.2060316503f, -0.0063613029f, 0.2305160165f, -0.2271362394f, -0.1220027432f, 0.3044345677f, 0.1705269665f, 0.0438836627f, -0.2377543300f, 0.0415412076f, -0.0481753312f, -0.2108459920f, 0.2052251548f, 0.1523703635f, -0.0242407694f, 0.0493416823f, -0.0375855379f, -0.0176556017f, -0.3460377753f, -0.2045675218f, -0.0879756287f, -0.0411803015f, -0.0179802831f, 0.1497254968f, -0.0374586768f, 0.0416534580f, -0.0819707140f, -0.1245352626f, -0.1030474380f, 0.0052189184f, -0.1549803019f, -0.1429189742f, -0.1755710989f, 0.2135110348f, 0.1083082408f, -0.0469879694f, 0.1789847016f, -0.0387574583f, 0.1653231978f, -0.0856417492f, -0.0580948777f, -0.0576526970f, -0.0303143170f, 0.0184724703f, -0.2318031043f, -0.0179004502f, -0.0468999147f, 0.4002025127f, 0.1402231604f, -0.3465478718f, -0.3009914160f, -0.1883275807f, 0.1311509162f, -0.3281371295f, -0.0460901111f, 0.2038487643f, 0.0812802017f, 0.3374273181f, -0.0381373838f, -0.1524703652f, -0.0531901121f, 0.0837440118f, -0.1320579499f, -0.2602400780f, 0.0186056327f, -0.0681544319f, 0.0363411866f, -0.2623279095f, 0.0039671115f, 0.0047883899f, -0.4684608579f, 0.0568247102f, -0.0070143328f, 0.2348570377f, -0.0993397161f, 0.0550381467f, 0.0885035023f, -0.1741973907f, -0.2864831388f, -0.1563547850f, 0.0690078363f, 0.2890966237f, -0.0192752164f, -0.1991135776f, 0.0195666421f, 0.1526735276f, 0.0942276716f, 0.0588517040f, 0.0877796784f, 0.0222138986f, 0.0166640542f, -0.0679492652f, 0.0943321660f, -0.0507730767f, -0.0969318226f, -0.1388883442f, -0.0850890055f, 0.2063397467f, 0.1798242927f, 0.1140142977f, -0.1940186024f, 0.1596647799f, -0.2636732757f, -0.0757161826f, 0.0500342362f, 0.1085189357f, -0.1437908262f, -0.1326760650f, -0.0491535962f, -0.0370157883f, 0.2525437474f, 0.2096257508f, -0.1429030895f, 0.1512252092f, 0.1358167529f, 0.1576358080f, 0.2485401779f, 0.0478815585f, -0.3209477961f, 0.1935459226f, -0.0264095049f, -0.1923549324f, -0.3516340256f, -0.0662171766f, -0.2856885791f, 0.1184061617f, -0.1151462719f, -0.1561755538f, -0.1949519962f, -0.2550027668f, 0.0735787675f, -0.0153169846f, -0.1618841290f, 0.3910489678f, 0.0694909245f, -0.1955333352f, 0.0576371402f, 0.1627721488f, 0.2094134539f, -0.3841480017f, 0.0635788143f, -0.0524431430f, 0.0805336460f, 0.2472962439f, 0.2210994214f, -0.1347819418f, 0.0440630279f, 0.2005994916f, -0.0869604349f, -0.1000584811f, 0.1001302674f, 0.0208617784f, 0.1985007524f, -0.0060985214f, -0.1122726873f, -0.1715411246f, 0.1327575147f, -0.0084812921f, 0.1872464120f, 0.1515726298f, -0.4445155561f, -0.1000042036f, 0.2053120732f, -0.0907282904f, 0.3483889103f, 0.1240271553f, -0.0324570984f, 0.0380817652f, -0.0222459305f, -0.1609205008f, 0.1937520653f, 0.0187918525f, 0.1128660142f, 0.1399849057f, 0.2332960516f, -0.2857591808f, -0.0486210622f, -0.0590372719f, 0.2566365302f, -0.0640689433f, -0.3145448267f, -0.0328521430f, -0.0867391676f, 0.3275239468f, 0.3427211940f, 0.0735690892f, -0.2116362602f, 0.1970514357f, -0.0430876948f, -0.2055986226f, -0.1366702616f, -0.1034596562f, 0.1495297551f, -0.0754754692f, -0.0887093022f, 0.0227482636f, 0.0528040864f, 0.2288290858f, -0.2598859072f, -0.0311518777f, 0.0518006496f, 0.4382587671f, 0.1000407338f, 0.4815654755f, 0.2289756089f, 0.1477199495f, -0.1557396203f, 0.1660805941f, 0.1774892211f, 0.0333591998f, 0.1539099962f, -0.2174723893f, -0.0995753482f, 0.1126426607f, -0.0613108873f, -0.0094538024f, 0.1044414043f, -0.0815385506f, -0.3348069191f, -0.0951092243f, 0.4166264236f, -0.1027390510f, 0.2471731454f, -0.0893335566f, 0.3082957864f, -0.3593322635f, -0.2859761119f, 0.1520918608f, 0.3606144488f, 0.2287591398f, -0.0865749419f, 0.2923695743f, 0.3836170435f, 0.1631481647f, 0.2536972761f, -0.1181545034f, -0.0326742865f, 0.3638495207f, -0.2035466731f, 0.2284522057f, -0.1201331690f, 0.4936695993f, 0.0133941695f, -0.3398892879f, 0.1367367357f, -0.3380628228f, 0.0244938731f, -0.0444999151f, 0.2594869137f, -0.1282084137f, 0.0783927962f, 0.2540588081f, 0.1276887208f, 0.4346392751f, 0.0680073574f, -0.2365730852f, -0.1789834648f, 0.0526656397f, -0.3041331172f, -0.3584811985f, 0.0125990221f, 0.0548963994f, 0.0579129010f, 0.0564217009f, 0.0498094968f, 0.1510355771f, -0.1949847043f, 0.0322286636f, -0.1571836919f, 0.3026929200f, 0.0839818195f, -0.2356245965f, 0.2409039587f, 0.0314705409f, -0.0966586694f, -0.2271493375f, 0.1659539342f, 0.3029958010f, 0.1160967499f, 0.1376769394f, 0.0690229014f, -0.3384383023f, 0.1911873966f, -0.4225071669f, -0.0990388915f, 0.1531181037f, 0.1275471151f, -0.2794106305f, 0.1608209312f, -0.1409763992f, 0.1463232785f, 0.1680869609f, -0.1149448529f, 0.3920178115f, -0.3153012097f, -0.0487807617f, 0.2081045210f, 0.0597605295f, -0.1176068634f, 0.2315534353f, 0.1178426445f, 0.0322804637f, -0.1716829538f, 0.1043819264f, 0.0452296287f, -0.0074260412f, -0.0973754525f, -0.1183143407f, -0.0915958509f, -0.1615564078f, 0.0897743031f, -0.4081028402f, 0.3822869956f, -0.1448275149f, -0.0250792392f, -0.0180974305f, 0.0313826576f, 0.1087531969f, 0.0965207890f, 0.0106755104f, 0.1976947188f, -0.0401800312f, 0.3383363187f, -0.0702196732f, -0.0499595851f, 0.0318262801f, -0.0004843490f, 0.0778598189f, -0.4449202120f, -0.0091921780f, 0.0611305870f, 0.2093688399f, -0.0324408486f, -0.0518378355f, -0.0944116488f, 0.1221205071f, 0.1219480485f, -0.2043883502f, 0.1004955247f, 0.0234068763f, 0.1882978082f, -0.0210289285f, -0.1400243342f, -0.1056440845f, -0.1425697505f, -0.0208040252f, -0.1989955604f, 0.0254472848f, -0.0173191857f, 0.0503295437f, -0.0224141870f, -0.3345201313f, 0.0837159231f, 0.1147666052f, -0.2264314145f, 0.0004212918f, 0.2676983476f, 0.2738444209f, -0.1627169251f, -0.1320036948f, 0.0589581914f, 0.1405435205f, 0.2794277966f, -0.2212415785f, 0.0688611344f, 0.1272212267f, 0.1245924830f, 0.0527379401f, 0.0817342922f, 0.0239562187f, 0.0099527864f, 0.1239559948f, 0.0315024517f, -0.2161188871f, 0.3391560018f, -0.2889897525f, -0.0087616621f, 0.2951196730f, -0.0182173569f, -0.3010584712f, 0.0235948786f, 0.0403263830f, 0.0791496933f, 0.2410818934f, -0.1094528735f, -0.2451301962f, 0.0714064762f, -0.1729704440f, 0.1383295059f, 0.0374955758f, -0.0395479687f, -0.1113090664f, -0.1287918538f, 0.1878980249f, -0.0147976233f, -0.0836366639f, 0.0378238000f, -0.0079775453f, 0.1317416877f, -0.2317888737f, -0.3373083174f, 0.2990584970f, 0.0425648652f, 0.2593593895f, -0.2011629343f, 0.1285943389f, -0.2506780922f, -0.1199309751f, 0.1140200645f, 0.0067972280f, -0.0654657260f, 0.0178530738f, -0.0117928190f, -0.1713335365f, 0.1240305305f, -0.1937375814f, 0.0557970367f, 0.2204107046f, 0.1216039732f, 0.1095183566f, -0.1649194211f, 0.1763001978f, 0.2661199570f, -0.1004243642f, 0.0273852851f, 0.2304917276f, 0.0227108561f, 0.0471620001f, -0.1538050473f, 0.0997210965f, 0.0674935877f, -0.2155981064f, -0.1738479733f, 0.1758891642f, 0.0014047478f, 0.1568758786f, -0.0850708559f, 0.0404972546f, 0.3120501339f, -0.0821005702f, -0.2757521570f, -0.4843077660f, 0.2900961637f, 0.1871056408f, -0.0834699422f, -0.0947458893f, -0.0789765120f, -0.1840570569f, -0.1923153400f, -0.1012717187f, -0.2928312123f, 0.0352569185f, 0.0794313475f, 0.3661465347f, -0.0209381506f, -0.0320987366f, 0.0441338532f, -0.3237047195f, -0.4275052249f, 0.0468325987f, -0.2582842112f, -0.1291399747f, -0.1707113832f, 0.1828906834f, 0.3293383718f, 0.1128178686f, 0.1291834712f, -0.0102494704f, 0.1044622660f, -0.2890060544f, -0.1607440859f, -0.0322641134f, -0.0201406833f, 0.1342427433f, -0.1844740659f, 0.0526940934f, 0.1883438379f, 0.0700577125f, -0.1312881559f, 0.2496936321f, 0.1776868552f, 0.1140006706f, -0.0234429780f, -0.1761592925f, -0.0142921656f, -0.2950944006f, -0.1833826303f, 0.0704147071f, -0.6174441576f, 0.1879948080f, -0.1625232995f, 0.0029981239f, 0.0826818794f, -0.1351557076f, 0.3914607763f, -0.1202425882f, -0.0056511066f, 0.1340405047f, -0.0169248134f, -0.2434737384f, -0.0365971215f, 0.0311115291f, 0.0946251452f, 0.1481944919f, 0.2568259835f, -0.1223355606f, -0.3124325871f, 0.1712709963f, 0.1446304023f, 0.0824621245f, -0.0708427653f, 0.0183219798f, 0.0747020617f, -0.2088481635f, 0.1907809377f, -0.1913482994f, 0.2084099650f, -0.0412306078f, -0.1640542746f, 0.1404644400f, -0.0141209457f, -0.0517805256f, -0.3195616305f, -0.1191444099f, 0.1191259250f, 0.2259661406f, -0.2348955870f, -0.0753485635f, -0.1990683526f, -0.0744177252f, 0.1096788496f, 0.1371615529f, 0.1910917014f, -0.0505152754f, 0.0062616151f, 0.0214281864f, 0.0439947695f, 0.1379327476f, 0.1011767164f, -0.1863377988f, -0.3188358545f, 0.1356608272f, -0.1747135520f, -0.0939194039f, 0.0576029271f, 0.1180407852f, 0.2227164954f, -0.1445247978f, 0.1343411654f, -0.1506943703f, 0.0620995685f, -0.0222530905f, -0.1963539273f, 0.2714411020f, 0.0865535513f, -0.0990062505f, 0.0222733077f, -0.2069988400f, 0.1000673398f, -0.0235306006f, -0.0521495305f, 0.1913123280f, -0.1213700324f, 0.1193990856f, 0.2505186200f, 0.2083542794f, 0.1962078214f, 0.3958130777f, 0.2608996332f, 0.4227324128f, 0.2050511837f, -0.2182785422f, -0.1720125973f, 0.2145775408f, 0.2719705105f, 0.0027777907f, 0.3527909815f, 0.0687503964f, -0.0326401554f, -0.0523514636f, -0.0666267648f, -0.0271595083f, -0.2329325080f, 0.1054144576f, 0.1000409350f, -0.0449585803f, -0.2925481796f, 0.0013003446f, 0.0378865041f, 0.2463333160f, 0.2277642936f, -0.0263981055f, 0.1581905633f, -0.1510981917f, 0.3683069646f, -0.1786302328f, -0.1884555668f, 0.1338899434f, -0.0915636644f, -0.3818834126f, -0.1649153829f, -0.1163960323f, -0.0930131525f, -0.3009212613f, 0.1067488045f, -0.0305184629f, -0.0940497071f, -0.4388085902f, 0.1019710153f, -0.1134188920f, -0.1726482064f, -0.0145354811f, 0.2650872171f, -0.0224382095f, -0.2527648211f, -0.2319802195f, -0.1275740713f, 0.1296052188f, 0.1430886537f, 0.0718712583f, -0.1051642522f, 0.3039191663f, 0.0118404655f, -0.1704834700f, 0.4118352830f, -0.1422917098f, -0.0450875647f, -0.0949435681f, 0.0344756283f, -0.0186865591f, 0.0664248839f, 0.1988182664f, -0.0575956143f, -0.3608476222f, -0.2495749295f, -0.1366362870f, -0.0513444841f, -0.2152266204f, -0.1462714523f, -0.0200430620f, 0.0491094440f, 0.1868918985f, 0.0167561937f, -0.1404641867f, 0.1883821785f, -0.3754500747f, 0.1774213463f, 0.0020539872f, -0.1417282373f, -0.0926205665f, 0.0022224181f, -0.0865948573f, -0.1199585721f, -0.0706494674f, 0.0671296716f, -0.0665619224f, -0.1005748510f, 0.0280934777f, 0.2379205078f, -0.0845217109f, 0.0310197789f, -0.0506615378f, -0.1123530567f, -0.1908607781f, 0.1452619731f, -0.1876322329f, -0.4944810569f, -0.1729587466f, 0.3195813894f, -0.4937522113f, -0.0358936824f, -0.4452270567f, 0.4835971594f, 0.2609782517f, 0.3100493848f, -0.1851787418f, -0.1055087373f, -0.1526385695f, -0.0214096438f, 0.3583065271f, -0.3006034195f, 0.1494308412f, -0.0407239497f, 0.3283146620f, -0.1400375366f, -0.0875497088f, -0.1399435848f, 0.0954167694f, 0.0742828995f, 0.2227471769f, -0.2762403488f, 0.2063956112f, 0.1265624017f, -0.3011108637f, -0.5049032569f, 0.2069463730f, -0.0598208942f, -0.0623995960f, 0.2802853286f, -0.1278289258f, 0.4441878498f, 0.1500884593f, -0.1563534439f, 0.0617624559f, -0.3608007133f, -0.1989738643f, -0.4471831322f, 0.1359453201f, -0.1696605384f, -0.1831117123f, -0.1402940154f, 0.0173792541f, -0.1688031405f, 0.3359349072f, -0.2562659681f, 0.5978263021f, -0.0020812524f, 0.0293372516f, -0.1305917799f, 0.3247513771f, 0.0268637948f, 0.0593946874f, -0.1397172064f, 0.2288444936f, 0.1056782454f, 0.3306402564f, -0.1645072550f, 0.3523598611f, -0.4566789567f, 0.1338113397f, -0.2757872343f, 0.0531899519f, 0.0103012919f, 0.0742676407f, 0.1822782606f, -0.1575069427f, -0.0956739336f, -0.0966799036f, 0.0099520301f, -0.0974419340f, 0.2497067153f, -0.0164136142f, -0.1626737118f, 0.1428420991f, -0.1636818200f, -0.4215369225f, 0.0821224451f, 0.2109129280f, -0.0663362071f, -0.0021418519f, 0.2813270688f, -0.0965614393f, -0.0455690101f, -0.0717980564f, -0.1408443749f, 0.2119870037f, 0.1819760352f, -0.1446473598f, 0.3287349343f, -0.0523914434f, 0.1212440431f, 0.1499400437f, 0.2769404054f, 0.1108821929f, -0.0077470969f, 0.1820763201f, -0.1545282155f, -0.1159392372f, -0.1436870843f, 0.0446204208f, -0.2798577845f, 0.0802970082f, 0.4257847965f, -0.2043682635f, 0.1245062500f, -0.0010073588f, 0.3582704663f, 0.0629526302f, 0.2857648134f, -0.0101672094f, -0.1122642756f, 0.2270898670f, -0.2068912834f, -0.0297105443f, -0.1168732196f, -0.2211369723f, 0.2151252776f, 0.0928138569f, 0.1634981483f, 0.1311161071f, -0.0615624152f, -0.1463139653f, -0.2801361382f, -0.1057542190f, 0.0832082853f, 0.1112609655f, -0.2019370496f, -0.0919658169f, 0.2359217703f, -0.2108133733f, -0.0224463809f, -0.0457907803f, -0.0585961975f, 0.0115040215f, -0.0825165808f, 0.2525483072f, 0.2359465659f, -0.1623442620f, 0.1011482775f, 0.0220102426f, 0.0989448577f, 0.1595308334f, 0.0665153116f, 0.0161908753f, -0.0455992781f, -0.1674809307f, 0.2253804803f, 0.0512997471f, -0.0411746055f, 0.1578736901f, -0.2445900887f, 0.1433713734f, -0.1015273184f, 0.4559267461f, 0.2143496573f, -0.2104270011f, 0.1857180744f, 0.0018812959f, 0.1994930804f, 0.0532530248f, -0.1339090317f, 0.0731284469f, 0.1432709247f, -0.3005477190f, 0.2808380723f, -0.1717099696f, -0.1119866967f, 0.2672388256f, 0.2866283655f, -0.0223624147f, 0.0613618605f, 0.3107747436f, 0.1598020196f, -0.1613699198f, -0.3176025450f, -0.1040146053f, -0.1054204702f, -0.1606754065f, 0.0381736569f, 0.0605476461f, 0.1196737140f, 0.1790770739f, 0.0588772334f, -0.1616517454f, -0.0369203985f, 0.0767159387f, -0.0011112932f, 0.2436907738f, 0.3059814870f, -0.1668107510f, 0.0649220273f, 0.1027282029f, 0.1689846814f, -0.2149795890f, 0.0619935989f, -0.1878068000f, 0.0433638915f, -0.2887259424f, 0.0846010745f, -0.0366693623f, -0.0856800154f, 0.0916673467f, 0.3913350999f, -0.0600429811f, 0.2120939046f, -0.4172039628f, -0.3954370022f, 0.1556228995f, 0.0803566799f, -0.0973344967f, -0.1632871777f, -0.0739993528f, 0.1991440803f, 0.0926741585f, -0.0419965982f, -0.1306791604f, 0.3078381121f, 0.0976262689f, -0.2514523566f, -0.0494108126f, -0.3814227879f, -0.1935337037f, -0.2823769450f, -0.0055368324f, 0.1208072081f, -0.0642774180f, 0.2670238912f, -0.0391693115f, 0.5557997227f, 0.2632455528f, -0.1927826852f, -0.4185158610f, 0.5756827593f, -0.1187369600f, 0.0465875231f, -0.3226534426f, -0.1122748852f, 0.3041945398f, 0.2149156630f, -0.2377166301f, -0.3633396029f, 0.1418260038f, 0.0260830875f, 0.2668501437f, 0.0016344750f, -0.2691267431f, 0.0897124857f, -0.0800846890f, 0.1517119855f, -0.1920293272f, -0.1779937595f, 0.3926967680f, 0.2343900502f, 0.2625718713f, 0.2684638798f, 0.0395913981f, -0.0384337530f, -0.0940956548f, -0.1656518281f, -0.0949084237f, 0.1892982870f, -0.3642672598f, -0.0406782776f, -0.0100974636f, 0.2007049620f, -0.0841637626f, -0.1973944902f, -0.0677612647f, -0.0599702001f, -0.2830620110f, -0.0398457497f, 0.3319560289f, 0.2749341726f, -0.1316670626f, 0.2074712366f, -0.1251666844f, -0.1169249490f, -0.0106659858f, 0.0182643514f, -0.0675753430f, -0.2579778731f, -0.0637390837f, 0.4031265676f, 0.1044623703f, 0.1252544224f, 0.0400415435f, -0.0408792868f, 0.0487581082f, 0.0668995902f, -0.1713064164f, 0.1348249465f, -0.1872768849f, -0.3426906168f, 0.2055738717f, -0.2334350497f, -0.1577315181f, -0.0106000183f, 0.1973301917f, -0.3143436015f, -0.3830782473f, 0.1211067364f, 0.0549298227f, 0.0517397076f, -0.2050976753f, 0.1945331246f, 0.0823608041f, 0.2828048170f, -0.3561262190f, -0.0822914913f, 0.0971324220f, -0.1612972915f, -0.1586012989f, -0.0405993834f, -0.0921772793f, 0.1851219088f, -0.0941151530f, 0.4482769668f, -0.0220443662f, 0.0319281481f, 0.1926101297f, -0.3924619555f, -0.0764107928f, 0.0715253353f, 0.2089922875f, -0.0102479709f, 0.1621655077f, 0.3321157098f, -0.0086495327f, 0.0117226886f, -0.1126099229f, 0.4080559909f, -0.4502465725f, -0.1642488837f, -0.0165999588f, -0.2938611805f, 0.1847724169f, -0.3462238312f, -0.1399805695f, -0.0157491174f, -0.2262583077f, -0.0499783680f, 0.0774561539f, -0.2294309139f, 0.1559478790f, -0.0854906514f, 0.0223912317f, 0.1015588492f, -0.4174731672f, 0.1028464884f, 0.1338504106f, -0.0280611999f, -0.0468434617f, 0.3216071129f, -0.0470114686f, -0.0666794032f, 0.2089745253f, 0.4507761300f, 0.2185012102f, 0.0712607354f, -0.0897958875f, 0.1124190614f, -0.0963020474f, 0.0365473293f, -0.2094611973f, 0.0615627915f, -0.3529195487f, -0.0307757631f, 0.1897820532f, 0.2390320748f, 0.0386792272f, 0.3306468725f, 0.0665729940f, 0.3964537680f, 0.2166073322f, 0.1229609102f, -0.0043205181f, -0.1885394305f, -0.1632594466f, 0.3108081520f, -0.0080950530f, 0.1052958891f, 0.5119178295f, -0.0253704507f, -0.1152855828f, -0.3131213188f, -0.1102682501f, -0.2757143080f, -0.0010014214f, -0.0149233155f, 0.2379811704f, 0.1194239557f, 0.0930328593f, -0.1829338372f, -0.2147832513f, 0.2191330492f, 0.0402788855f, 0.0269376170f, 0.1383510083f, -0.2480979413f, 0.0739852488f, -0.3971011937f, 0.0690875053f, -0.0735683367f, 0.3448850513f, 0.0776062310f, -0.1870168746f, 0.2083948851f, 0.0666411370f, 0.2463191748f, -0.1253601462f, 0.2059819698f, -0.4593939781f, 0.3802488744f, 0.1784720868f, -0.1875036061f, -0.0474184118f, -0.0580250733f, 0.3996047378f, -0.2160690874f, -0.0554648191f, 0.1716191918f, 0.2511004210f, -0.0539754182f, -0.2120730132f, 0.2341435403f, -0.0290004276f, 0.1707049012f, -0.1911220253f, 0.1231923774f, 0.0009633978f, -0.1741940230f, 0.0132548409f, -0.5809353590f, -0.3784738481f, 0.0744724497f, 0.0018872519f, -0.1336839199f, 0.0572639704f, -0.1257871091f, -0.0711736903f, 0.3421199918f, -0.0733889714f, 0.1100266799f, -0.2435193211f, 0.0358236358f, -0.1934831738f, 0.0867158249f, -0.1526492387f, 0.1918268055f, 0.1273373812f, 0.0326988772f, 0.0081951469f, 0.0067807510f, -0.3658598661f, 0.3126030862f, 0.1183116511f, 0.0782138854f, 0.0717229694f, 0.2909132838f, 0.1152891368f, 0.1867883950f, 0.2726648450f, 0.0437160842f, -0.1458289027f, -0.3068983853f, -0.0428014621f, -0.3092633486f, -0.0203537792f, -0.0377801321f, -0.1231036931f, 0.2955872416f, -0.0788687989f, 0.0273476616f, -0.1158021912f, -0.1455104798f, -0.0758534744f, -0.0340362117f, 0.1533176452f, -0.0595259406f, -0.0324270502f, 0.0732014328f, 0.1415695846f, -0.2182088494f, 0.0011446123f, 0.1157002002f, 0.0278884564f, -0.5350754261f, -0.0784173906f, 0.0393111147f, -0.0203146748f, -0.0915145576f, -0.0179009903f, 0.0070902761f, -0.1451740414f, 0.0393283442f, 0.0166494790f, -0.0015987761f, -0.0843692720f, -0.0171833001f, -0.0385702662f, 0.0197602082f, 0.3295055926f, 0.1916710585f, -0.2164774388f, -0.3104495406f, -0.4077963829f, 0.2878068984f, 0.1027559415f, -0.1100079939f, -0.0626477376f, 0.1848106086f, -0.0094206529f, -0.1939098239f, -0.0795267895f, -0.0966324732f, -0.3864913285f, 0.1487818360f, -0.0790196210f, -0.0264391135f, 0.2064747959f, 0.1294121593f, -0.1007470042f, -0.3702814579f, 0.1659604311f, -0.2107903361f, -0.2167221159f, -0.0863029733f, 0.0541239753f, -0.0119493399f, -0.0981418416f, -0.2419075966f, 0.0179040190f, 0.0507242680f, 0.1165507585f, 0.1829264760f, 0.0377995670f, -0.0969124138f, 0.1874795258f, -0.2022251487f, 0.1313042343f, -0.1861267835f, -0.0207162648f, 0.2316738367f, 0.2197248936f, 0.2554547191f, -0.3891270757f, -0.1565652043f, 0.0918415338f, 0.2594639361f, 0.1944790781f, 0.3225663900f, -0.0924752280f, 0.1923230588f, 0.1209879294f, 0.1734326780f, -0.0140439542f, 0.3229958713f, 0.2743117511f, 0.0596472919f, -0.1633422822f, 0.1216243431f, 0.0687211305f, 0.1378127187f, 0.1285166293f, -0.1222416684f, 0.2427739501f, -0.1169456765f, 0.2849076092f, -0.0282393973f, -0.1307086051f, -0.0470110700f, -0.0403680801f, 0.0542010404f, -0.3066159189f, -0.0102400128f, -0.0000123659f, -0.0008628151f, 0.0151783433f, 0.3224514723f, -0.0397606753f, -0.1051930636f, 0.0389296040f, -0.0117765563f, 0.0287116114f, -0.0250575244f, -0.2513023317f, 0.0140798176f, 0.0408244543f, 0.2286732346f, -0.0152419284f, -0.1307247877f, -0.1772467494f, -0.2363904119f, -0.1624586135f, 0.1704502404f, -0.3352190554f, 0.0558567606f, -0.4212805033f, -0.1477974951f, 0.0742818564f, -0.1654128432f, 0.1805386096f, 0.1330853552f, 0.3359521329f, -0.0196405910f, 0.1812292039f, -0.0272526219f, 0.3302376866f, -0.0088310894f, 0.1725755185f, -0.3315902352f, -0.0418416634f, -0.1439381689f, 0.0283155944f, 0.3491174877f, 0.3286181688f, 0.0911175683f, 0.1446495503f, 0.1471464932f, -0.0815809518f, -0.0513071828f, -0.1225886717f, 0.3238857388f, -0.1210604683f, 0.0010890027f, 0.2324573845f, -0.1922783852f, -0.0283387210f, -0.1370407194f, -0.0008655139f, -0.1820553094f, -0.0631217137f, -0.2459278703f, 0.0000881414f, -0.0424146429f, -0.1393992603f, 0.0421186686f, 0.0383466333f, 0.3043506145f, 0.0384690352f, 0.1850674599f, 0.1359473467f, 0.2368783355f, -0.1269527972f, 0.0770457759f, -0.2708301246f, 0.0745504498f, -0.1848707646f, -0.1144529134f, -0.3191388845f, -0.2024876624f, -0.0824215412f, -0.0341945291f, -0.1213897914f, -0.0520342402f, 0.2818099260f, 0.1134504080f, 0.1165125817f, -0.2746566236f, -0.2351171523f, 0.2647643387f, -0.0172333419f, -0.1183100343f, 0.1371856183f, 0.1913688630f, 0.0096134413f, 0.0401529558f, 0.2700085938f, 0.0718614161f, -0.0937260538f, 0.2261550128f, -0.3157964349f, 0.1137629449f, -0.0395575240f, 0.0335345455f, -0.1480608135f, 0.0723301545f, 0.1884822547f, 0.1358466744f, 0.1799571216f, -0.4433715940f, 0.2583258450f, -0.1534029096f, 0.1081184745f, -0.0615541078f, -0.1775093675f, -0.1520646811f, -0.4639256895f, 0.1277831942f, -0.0180794206f, -0.0051380377f, -0.1322049052f, 0.1032389998f, -0.0798614323f, -0.0698233843f, 0.4059988260f, 0.3800137937f, 0.0458961241f, 0.0930372551f, -0.1859185547f, -0.0732097179f, 0.0534805693f, -0.1315501779f, 0.2513344288f, -0.2752159536f, 0.1816551238f, 0.0734639764f, 0.0738402233f, 0.1469263732f, 0.1002541408f, -0.0102395983f, 0.2881748676f, 0.2444704473f, -0.0057086265f, 0.2593491077f, -0.2702165842f, -0.0992808044f, -0.2669985294f, -0.1259167939f, 0.0265708715f, 0.0218253508f, 0.0721972883f, -0.2597070634f, 0.0287574977f, -0.3021822870f, -0.1456824690f, -0.0707965195f, -0.1418277621f, 0.2537464797f, -0.1370187551f, 0.1001175195f, -0.4002482295f, -0.1129748002f, 0.1722397357f, 0.4253224134f, 0.0837052464f, -0.0776726454f, 0.2000243068f, -0.0315347649f, 0.3130705357f, -0.0703568831f, 0.0199808832f, -0.3497267962f, 0.2027606666f, 0.3559533358f, 0.0273053590f, -0.0469503142f, -0.1153705940f, 0.0731799901f, 0.0386683345f, 0.2012816668f, -0.0599531271f, -0.0938096270f, 0.0866698697f, -0.0777247921f, -0.0157145411f, 0.2756720781f, 0.2468225807f, 0.1699013561f, 0.2043970972f, 0.1083635241f, 0.1671272367f, -0.0601733439f, -0.1638627201f, -0.1640595198f, -0.3017317355f, 0.3461085260f, 0.0053019216f, -0.3694142997f, 0.1171768829f, -0.3575404584f, 0.0646030158f, 0.0820965171f, -0.2723430395f, -0.0713886023f, 0.1877073497f, 0.0534936488f, 0.0954896435f, 0.0546125025f, 0.0263112132f, -0.0550231561f, -0.1258448511f, 0.0440924913f, -0.0509058014f, -0.3525479734f, -0.2755426466f, 0.0975645110f, 0.0560032055f, 0.2757498324f, 0.0385835320f, -0.0512929410f, 0.1066013798f, -0.1642931253f, -0.3052816689f, -0.2531865239f, -0.0540667549f, -0.0056024506f, 0.1743613482f, 0.0894374251f, 0.4437846839f, 0.0512861572f, 0.0196321141f, -0.0449294820f, -0.3294537067f, 0.1512635648f, -0.1614323407f, 0.0354224257f, -0.1107694954f, -0.0437465161f, 0.1147969440f, -0.1842457503f, 0.0971019641f, -0.0938640237f, -0.2182057053f, -0.1448138952f, 0.0782154649f, 0.1627309471f, 0.1564836651f, 0.0500949658f, 0.1294902414f, 0.2493840158f, 0.0092000728f, 0.1927419901f, -0.3240549564f, 0.1748492718f, 0.0124728177f, -0.3434921205f, -0.2533846200f, 0.0479003936f, -0.2637624145f, -0.2609495521f, 0.2321701050f, -0.0427621827f, 0.3453750908f, -0.0173838008f, 0.3076472282f, -0.1802035421f, -0.4762458503f, -0.2039888054f, 0.0723782703f, -0.1311064065f, -0.0549704917f, -0.1079775766f, 0.2679649591f, -0.4129021466f, -0.0583146475f, 0.0168649424f, 0.0523665175f, -0.0245181229f, 0.2716261148f, -0.0924912393f, -0.1380719692f, 0.0429200828f, 0.0547326431f, -0.1056261882f, 0.0708665103f, -0.0591008216f, -0.0462127402f, 0.0474963523f, -0.2742804289f, 0.2007932067f, -0.1420692801f, -0.1179584116f, 0.0420534611f, -0.1082274914f, 0.1319813728f, -0.2341845632f, 0.1400487274f, -0.0049521322f, -0.2466941476f, 0.0016294058f, -0.0558587834f, 0.1640384048f, -0.2280175835f, -0.1111317798f, 0.0893364847f, -0.1817670316f, -0.0094379168f, -0.1768308878f, -0.1152784973f, 0.0932596475f, 0.0230279528f, 0.2349811494f, -0.0309314169f, -0.1478279233f, -0.0699390844f, -0.1466641277f, 0.1702981293f, -0.1916553676f, -0.0732784122f, -0.1188974380f, -0.0279492047f, 0.0128854401f, -0.0210882667f, -0.1487379819f, 0.4126568437f, 0.1689912379f, -0.0848671049f, -0.1982682496f, 0.0209934209f, -0.1725750566f, 0.0965999886f, 0.0318638645f, -0.1310250610f, 0.1047186330f, -0.0840677172f, -0.3632374704f, -0.1276184022f, 0.0555083305f, -0.1074865684f, -0.0487761199f, 0.0986531898f, 0.0275072530f, -0.0415541641f, -0.0415724590f, 0.1945984811f, -0.0028697357f, 0.1588255763f, 0.0594794564f, 0.4929514229f, -0.1029826254f, -0.0281215589f, -0.0606964268f, 0.1265857369f, -0.1988916546f, -0.2707521617f, 0.1441478729f, -0.1692177951f, 0.1221155450f, -0.2545550168f, -0.0202278923f, 0.2003638595f, -0.0150834210f, 0.1597132832f, 0.1738327444f, 0.0568288527f, -0.3902775943f, 0.1365873814f, -0.6073180437f, 0.3322735727f, -0.0020383415f, -0.1287573576f, 0.1826429069f, 0.3955542743f, -0.2698418200f, 0.1181335747f, 0.1252571940f, 0.0934188962f, -0.2482386082f, -0.1555329412f, 0.1052209139f, 0.1525589526f, -0.0651174635f, -0.2272355109f, -0.0263154861f, 0.0243395641f, 0.2168843895f, -0.2728502452f, 0.1001106799f, 0.1940507442f, 0.2037245333f, -0.1451286674f, -0.1157822907f, -0.0536843687f, -0.1791394800f, -0.2762170732f, -0.1088860482f, 0.2182165384f, 0.1126896590f, 0.0229591392f, -0.5390980840f, 0.1907607466f, 0.1714453101f, -0.0294214133f, 0.1140298396f, -0.1614269912f, -0.1652739793f, 0.0161004663f, 0.0582664236f, 0.1726374924f, 0.2258585840f, 0.3364564776f, -0.2520579100f, 0.0435065888f, 0.0352651514f, 0.2551023066f, 0.1711987853f, 0.4768613875f, -0.2046096921f, -0.1387366503f, -0.1131942943f, 0.1544690281f, -0.2238400280f, -0.3699926138f, -0.0177023206f, 0.0071519301f, -0.2381402105f, -0.0468379259f, -0.1430973113f, -0.0725192875f, -0.0122936741f, 0.0776961967f, -0.2422013581f, -0.2792234421f, -0.1129962057f, -0.2223366946f, 0.0372933149f, 0.2002244443f, -0.2657730877f, -0.0723036975f, -0.2051285356f, 0.2413167804f, 0.2273244560f, 0.0395735912f, -0.0492646620f, 0.3601825237f, 0.0472718515f, 0.3481370509f, 0.1871675849f, -0.1978261620f, -0.0405410565f, 0.3072910309f, 0.2184324861f, 0.2831267715f, -0.3537209928f, 0.3021917641f, 0.1568475068f, 0.0005664398f, -0.0986304358f, 0.0369708017f, -0.3535184860f, -0.4202275872f, -0.1326594055f, 0.2175835669f, -0.2255318910f, -0.0369177498f, 0.2653312683f, 0.2727839351f, 0.1315737963f, 0.2621060312f, 0.0107362634f, -0.2035865039f, 0.0729420483f, 0.0440940894f, -0.0234689675f, 0.2769684196f, -0.1106161699f, 0.0906377435f, 0.0840900838f, -0.2095308006f, -0.0745149404f, 0.4172118008f, 0.4325707257f, -0.1039144099f, 0.0392561667f, -0.2408361286f, -0.0834731385f, -0.0836389735f, 0.0697311461f, 0.0364673212f, 0.1419979632f, -0.5242605805f, -0.1738049239f, 0.0280309506f, -0.0105334325f, 0.0381599292f, 0.0149319982f, -0.0361842290f, 0.0936916992f, -0.1105313897f, 0.1671012938f, 0.0472650528f, -0.0169275496f, 0.2804854214f, 0.1825017184f, 0.0475435518f, 0.0769131184f, -0.1623861045f, -0.2418077439f, 0.1934490353f, -0.0717848241f, -0.1220075712f, 0.3301711977f, 0.1545580178f, -0.0497279279f, -0.3117750883f, -0.3637690842f, -0.2468051761f, -0.0633913949f, 0.1214960143f, 0.1573508680f, -0.1538564712f, -0.1017589942f, 0.0774237216f, -0.1739770323f, -0.2778962255f, -0.2720437050f, -0.1639060676f, -0.1546008438f, -0.3219536841f, 0.1674201339f, 0.0318980552f, 0.0501113310f, -0.3038637638f, -0.2513673902f, -0.0544532947f, -0.3198830187f, -0.0989684984f, -0.1059090346f, 0.0268896185f, -0.0465913489f, -0.0613711998f, -0.0565602854f, -0.3466929197f, 0.1083012819f, -0.2961097360f, 0.1333336234f, -0.0609007217f, -0.1949852705f, 0.3536239564f, 0.1871042848f, -0.0615617447f, -0.1084871143f, 0.1820272058f, -0.1124175563f, 0.1827634275f, -0.0176364817f, -0.0743448213f, 0.1012423411f, 0.1144157648f, 