#ifndef PARAMETERS_H
#define PARAMETERS_H

const float W1[] = {0.5588055849f, 0.4063360989f, -0.1168700308f, 0.2209292501f, -0.1723638773f, -0.2647320330f, 0.3222053945f, 0.1479232311f, -0.0039576748f, -0.1178365424f, -0.5774194002f, -0.1184893176f, 0.0091779996f, 0.0601039231f, -0.1605939865f, 0.2641685307f, -0.0627934784f, -0.1220802590f, 0.2963496745f, 0.6254453063f, -0.1645895690f, 0.2568850815f, 0.1365586519f, -0.2597021461f, -0.1798104644f, -0.0811684281f, 0.3601748943f, -0.3597729504f, -0.4910427928f, 0.0775019154f, 0.0308489222f, -0.0178519208f, 0.2542311251f, -0.2261779010f, 0.1218301654f, -0.1600929201f, -0.0916727483f, -0.2981256545f, 0.2336259037f, -0.2165793926f, -0.2285700887f, -0.0659758821f, 0.1336738020f, -0.0723666400f, -0.1596958041f, 0.1227626950f, -0.3857527375f, 0.0470050611f, 0.1254926622f, -0.0876864716f, -0.1433144063f, 0.0886267275f, -0.1773220301f, -0.1785482466f, 0.1910527647f, 0.4902350903f, 0.0719892979f, 0.0835005939f, -0.1773117036f, 0.0242862590f, -0.1277663112f, 0.2254728228f, 0.0516310856f, -0.4136936069f, -0.3182125390f, 0.1529510915f, 0.1297211945f, 0.1080739498f, -0.2855680883f, -0.0325497799f, -0.0567235835f, -0.1338741779f, -0.3980665207f, -0.6112799644f, 0.0092331907f, 0.1822547317f, -0.0774350911f, 0.0158938542f, -0.2341871262f, -0.1798984855f, -0.0239152256f, 0.0154689038f, -0.2128984779f, -0.1072883382f, 0.0651767477f, 0.1996093690f, 0.0394648500f, 0.1075666249f, 0.2771917284f, 0.1315994859f, -0.0106568597f, 0.0115849180f, -0.2422952652f, 0.1084357649f, 0.1740349084f, -0.0633509159f, 0.2046961486f, 0.1719466895f, 0.0449530967f, -0.0396669991f, -0.2014949173f, -0.3154821396f, 0.0171993691f, -0.0973703861f, 0.2679731846f, -0.1310627759f, -0.1898329854f, -0.3608874381f, -0.0116761476f, 0.4202584028f, -0.2644398510f, 0.0322779939f, -0.3268037140f, 0.0438203774f, 0.1106765866f, -0.2661056221f, 0.1756734699f, -0.1696998924f, -0.0541436560f, 0.0518685356f, -0.1199938953f, -0.1174524873f, -0.1588145345f, -0.2369540185f, -0.3414850235f, 0.0498722084f, -0.1322156936f, -0.0976287574f, 0.1239663064f, 0.0052922084f, -0.1187777966f, -0.1530589014f, 0.1228346452f, 0.1642548740f, -0.4019690156f, 0.1957067698f, 0.0610536635f, 0.0025901271f, -0.1793942153f, -0.2409062684f, 0.2341700792f, 0.0137854116f, 0.0264259968f, 0.1293880045f, -0.0177700445f, -0.0122461142f, -0.0811586082f, 0.1730173677f, 0.1541664600f, 0.2557488084f, -0.1928976327f, 0.0396547019f, -0.0515288636f, -0.3310790956f, -0.0850574374f, 0.3004164100f, -0.0117412070f, 0.2292760760f, -0.2648842335f, 0.0920942426f, -0.0815909952f, 0.1147586703f, 0.0593426973f, 0.1972173899f, 0.0721648261f, -0.0337234139f, -0.0913504362f, -0.0295023564f, -0.0594728068f, -0.1359537095f, -0.2864069343f, 0.0174616873f, 0.4501461983f, 0.1116408706f, -0.0092389612f, -0.1108729169f, -0.1673482805f, 0.0216633156f, 0.1790366024f, 0.1363681406f, -0.2899191976f, -0.5937486291f, -0.2179896533f, 0.0082607809f, -0.0642551705f, 0.2821094990f, 0.1690115333f, -0.0249803253f, -0.0847530663f, 0.1419453174f, 0.4942255318f, 0.0879946798f, -0.0814136937f, -0.2927511930f, -0.2314240187f, 0.2204818428f, 0.3345358968f, -0.1992136687f, 0.2622539699f, 0.3603691459f, -0.3862342238f, -0.1501373202f, -0.1180431917f, -0.1357271075f, 0.0542468764f, -0.0240704529f, 0.0153770959f, 0.2697214484f, -0.1098255143f, 0.1699583083f, -0.0818900764f, -0.4318673313f, 0.0991710573f, -0.1723858267f, 0.0715929940f, -0.1822862774f, 0.2374714762f, 0.4873326421f, -0.1830510348f, -0.0733775347f, -0.1533342153f, -0.0807173774f, -0.0389290489f, -0.2531356812f, 0.0045872703f, -0.1099246666f, 0.2226896733f, 0.2484341413f, -0.0850900933f, -0.1557866186f, 0.1016111895f, -0.0201204699f, -0.3196911812f, 0.0776072592f, -0.2195546180f, -0.1021016687f, 0.0665571541f, 0.0629258305f, -0.1990722120f, 0.1404942721f, 0.0321843065f, 0.0888682827f, 0.0916514471f, -0.4028877020f, -0.0981625989f, 0.1820334941f, -0.0908774137f, 0.1551481336f, 0.2023582309f, -0.0247011799f, 0.0848137513f, 0.1088765189f, -0.3095962703f, -0.1590982974f, 0.1486814171f, -0.3499860466f, 0.1654755175f, 0.0582481660f, 0.1451524049f, 0.0848362520f, 0.3119953275f, 0.3658508062f, 0.5739241838f, 0.0162689332f, 0.2568086386f, 0.0046768049f, 0.4579353631f, 0.2176989615f, -0.1173510477f, 0.1687180102f, 0.1894571632f, -0.4222050011f, -0.1126048490f, -0.3065084517f, 0.1010929123f, -0.2396189421f, 0.0346747376f, 0.0223869123f, 0.0474463291f, 0.4072013199f, 0.4180133045f, -0.1412518024f, -0.3106213510f, 0.2036146522f, 0.1449015737f, 0.0105193276f, -0.1199097633f, -0.0160498805f, 0.2566652894f, 0.3888281584f, -0.0540618822f, -0.0920449644f, -0.0097011207f, -0.2271404713f, -0.2316826284f, 0.1454987377f, -0.1766810864f, 0.1480286568f, 0.4700434804f, -0.3246358037f, -0.3436912298f, -0.0890931711f, 0.1359006912f, 0.0122480886f, 0.2687738538f, -0.2213143259f, 0.3304121494f, 0.1297994107f, 0.2828625441f, -0.1131701022f, 0.0020353121f, -0.1292461604f, 0.0600744113f, -0.0396617763f, -0.0941548571f, -0.0378287807f, -0.6447350979f, -0.0502313524f, -0.0733211562f, -0.0308850389f, 0.2341429740f, 0.0963631421f, -0.0421482660f, 0.1525246650f, -0.4086084068f, -0.3326318860f, 0.2890597880f, 0.2016476095f, -0.0222570226f, 0.0114453528f, -0.0324819349f, 0.0330243930f, -0.0327662751f, -0.2498193383f, -0.3710803688f, 0.0036280265f, 0.1450524777f, -0.0176616218f, -0.1426452547f, -0.2473803312f, -0.0836148486f, 0.1826000810f, 0.5657214522f, 0.3192456663f, -0.0260822400f, -0.0879402459f, -0.3031635284f, 0.0353768691f, -0.1400250345f, -0.2213913053f, 0.2634096146f, -0.2190373987f, -0.5827800632f, 0.1432858258f, -0.0075851465f, 0.0662138835f, 0.0595273860f, -0.1723705530f, 0.1186893061f, -0.0026711987f, 0.0856071115f, 0.4155509472f, 0.0191914607f, -0.0060164738f, -0.0237448551f, -0.0753116310f, 0.0061824340f, -0.3275828660f, -0.0698210523f, -0.2385235131f, -0.4110075235f, 0.3437540531f, 0.3119462430f, -0.1435278356f, 0.1264515370f, -0.0840034857f, -0.0112935957f, 0.0780780092f, 0.0036963574f, 0.0653065592f, 0.0417480767f, -0.3545491993f, -0.1438533515f, -0.0648679808f, -0.5518572927f, 0.0094890371f, -0.0274545942f, 0.0988319516f, -0.1820004731f, 0.2792129517f, 0.1065017208f, 0.1331463754f, 0.0013964595f, -0.1574427783f, 0.1036998406f, 0.1841126680f, -0.1149037555f, 0.2029264569f, -0.1504902840f, -0.2461711764f, 0.1732697785f, -0.1362550706f, 0.0441397429f, 0.0160860550f, -0.0462966152f, -0.5353989005f, -0.4154648483f, 0.3038110733f, -0.3950433731f, -0.1503210068f, 0.1057931855f, 0.2976858318f, -0.1919047385f, 0.3461216986f, -0.3925186992f, -0.4458808303f, 0.1852496415f, 0.1260978729f, -0.1436358392f, 0.0545113012f, 0.3757897317f, -0.0275624320f, 0.2359331399f, 0.0787229314f, 0.3118533790f, -0.3880895972f, 0.1292775571f, -0.0642372891f, -0.1261798292f, 0.3140165508f, -0.1393031180f, 0.0468082875f, -0.4126304984f, -0.2711443901f, -0.1660837680f, 0.0902747214f, -0.1995953918f, -0.2090673149f, -0.1328352243f, -0.1061334088f, -0.0096795969f, 0.0988286659f, 0.1878797710f, -0.0682306662f, 0.2734721303f, 0.1115030795f, 0.0656171888f, 0.1440140903f, -0.4346855283f, -0.2909911573f, -0.2445575595f, -0.5992512703f, -0.1820169836f, -0.0094240708f, -0.0714153498f, -0.3081254661f, -0.1550282836f, -0.0947263911f, 0.3897260129f, 0.1437173337f, 0.2418411076f, -0.3113680780f, 0.0636714026f, 0.0640813559f, 0.2095035762f, -0.2301480025f, -0.1297519654f, 0.2053416371f, 0.0875111073f, 0.2477711588f, -0.0529014431f, -0.1651034206f, 0.3117257655f, -0.2636069655f, 0.0630341992f, 0.0426914357f, -0.2013663054f, -0.1047971398f, -0.2896706760f, 0.0740297213f, -0.1650705487f, -0.0246615279f, 0.1498142630f, 0.0705303028f, -0.0471566916f, -0.1076587290f, -0.0820047036f, 0.3281805813f, 0.0230978206f, 0.2885873020f, 0.1173829436f, 0.1058806702f, 0.0157352667f, 0.1195307150f, -0.2297601849f, -0.1134569496f, -0.3920725584f, 0.0354175307f, -0.1700513065f, 0.1665934622f, -0.0664988086f, 0.2088407278f, -0.1531989723f, -0.1331192553f, -0.4448124170f, -0.6667388082f, -0.0126624405f, 0.0334848240f, -0.3345783055f, -0.3641591370f, -0.1208626404f, -0.0107331919f, 0.1043346152f, -0.0784912407f, -0.3918471932f, 0.0133788753f, 0.2743337750f, -0.1806738079f, -0.2445825189f, -0.1138364449f, 0.2556109726f, 0.1568924487f, -0.1470400095f, -0.4187397659f, 0.0682717860f, -0.1389750987f, 0.3021868467f, -0.0507729128f, -0.0968764573f, 0.2314273119f, 0.2392998338f, -0.3629696071f, -0.5608172417f, 0.2336028963f, -0.1979359835f, 0.0582956858f, -0.1690417379f, 0.0692530349f, -0.4211998284f, -0.1788924187f, 0.4357308745f, 0.3687763214f, 0.0616531447f, -0.2305213809f, -0.2600028515f, 0.0614846908f, 0.1818196625f, 0.0914329514f, 0.1632820964f, -0.4785416126f, -0.0674571767f, -0.2180104107f, -0.1366163045f, -0.3686990738f, 0.1160455644f, 0.0227842461f, 0.3974821270f, -0.0337838121f, 0.1070877016f, 0.2241918743f, 0.0541788079f, -0.2557165623f, 0.2801211476f, 0.0968492627f, -0.3518389165f, -0.0368953794f, -0.0341789573f, 0.3470213115f, 0.5308036804f, -0.2469140887f, -0.0760853514f, 0.1527890861f, -0.0329049192f, 0.2129237652f, -0.0493956953f, 0.2043860108f};
const float b1[] = {-0.0163531844f, -0.0003402733f, -0.0019254421f, 0.0137979062f, 0.0128906760f, 0.0155308107f, -0.0026596365f, 0.0097845132f, 0.0069166082f, 0.0185703486f, 0.0048714513f, 0.0212941505f, 0.0038428062f, 0.0042722272f, 0.0055946312f, 0.0067363973f, 0.0030619923f, 0.0001572605f, -0.0099417651f, -0.0152574154f, -0.0001483581f, -0.0067031356f, 0.0103490632f, -0.0059667551f, -0.0081822891f, -0.0157346390f, 0.0095217964f, 0.0039703110f, 0.0099893436f, -0.0035779502f, 0.0105883088f, -0.0141758621f, -0.0089755459f, 0.0029949208f, -0.0272266697f, 0.0001245843f, -0.0052574831f, 0.0077535794f, -0.0053430931f, 0.0041535739f, -0.0081552528f, -0.0059728031f, -0.0140972799f, 0.0060230903f, -0.0045321416f, -0.0069294530f, 0.0059079309f, 0.0091799563f, 0.0079927417f, -0.0197960082f, 0.0075677289f, -0.0066653616f, -0.0187009741f, -0.0011617416f, -0.0111441566f, 0.0146488091f, -0.0021589468f, 0.0165601391f, 0.0018071783f, -0.0026356434f, -0.0156873222f, 0.0192355942f, -0.0043197498f, -0.0032372233f};
const float W2[] = {-0.2283838391f, -0.2975054979f, -0.0835768506f, 0.2651006579f, -0.2941898108f, -0.2071087211f, -0.2683808804f, 0.2967475057f, -0.2232107073f, 0.0656773373f, 0.1021228135f, 0.0417161323f, -0.0249655209f, -0.0674033165f, 0.1008782834f, -0.1458193660f, 0.0718925819f, 0.2243198156f, -0.0849623829f, -0.1362903267f, 0.0719407648f, 0.2340623140f, -0.0846653208f, 0.0004614941f, 0.0670910329f, -0.1663209796f, 0.0919120386f, -0.3712930679f, 0.2177718580f, -0.0246030185f, -0.0247797891f, 0.2336947769f, -0.1391641200f, -0.3074658215f, 0.1653869897f, -0.4179631472f, 0.0612538457f, 0.0110257100f, 0.2611371577f, 0.0210795850f, -0.1523642689f, -0.1231495366f, -0.2326921970f, 0.1734798551f, 0.2556706667f, 0.1093554050f, -0.1452710479f, 0.1103833467f, -0.1787912846f, 0.0058628535f, -0.0649207234f, 0.1929039210f, -0.1053233817f, -0.0341193527f, -0.1570807248f, 0.2209656090f, 0.2301393747f, 0.0208490770f, 0.0096644992f, 0.1174570844f, -0.0424068943f, -0.0039417776f, 0.1348945051f, 0.2844145000f, -0.1728489250f, -0.0245363005f, -0.1019271538f, -0.2066320777f, 0.0163511336f, -0.0096629234f, 0.1492485702f, 0.1627523601f, -0.0762798190f, -0.1349803507f, 0.0656606779f, 0.1769242436f, 0.0333368257f, 0.5554857254f, -0.0802403614f, -0.1230475679f, -0.0975874141f, -0.0545069389f, 0.3707319796f, -0.2198190987f, -0.1055742726f, 0.0849508494f, 0.1728289425f, 0.0088962279f, 0.5113086700f, 0.0426019914f, -0.0956843570f, -0.1106790677f, 0.2064600438f, -0.4043340981f, -0.2612384558f, -0.2750440836f, 0.0282636117f, -0.2160430998f, 0.0282223746f, 0.0485732816f, -0.1854801923f, -0.1184817553f, -0.2242116034f, 0.1175552458f, -0.0865880102f, 0.0648772269f, 0.3505363762f, 0.1631872207f, -0.1915037036f, 0.0271187518f, -0.0168601852f, 0.1213136315f, -0.1724044830f, 0.0975526497f, -0.0017458185f, 0.2231951654f, -0.0793902054f, 0.0688754544f, 0.0614727177f, -0.0273376796f, 0.0062980535f, 0.2029547393f, -0.0545251742f, -0.1059294865f, -0.1671593934f, 0.0571734384f, -0.1065477356f, 0.1117469668f, 0.0478604659f, -0.0113767162f, -0.0938133895f, -0.0258052777f, -0.0850596055f, 0.1901148707f, -0.2583346963f, -0.2922003269f, -0.2567436695f, 0.0693092570f, 0.0769296065f, -0.0314906761f, 0.0151838893f, 0.1652652621f, 0.1309087574f, 0.3048625588f, -0.0739797428f, 0.2532494366f, -0.0081093237f, 0.2474148273f, 0.1042465866f, -0.1409572065f, -0.2257040739f, -0.1077334583f, 0.1594511271f, 0.1578118950f, -0.3702068329f, 0.0421864800f, -0.1640625894f, -0.1420422345f, -0.0005954749f, 0.2939429879f, -0.0430247635f, -0.1342129558f, 0.0266506951f, 0.0424405746f, -0.0680542961f, 0.1765647829f, 0.1873220801f, 0.2136304080f, -0.1795177609f, -0.4179199934f, 0.3113166690f, 0.0144708464f, -0.2068543285f, -0.2790207565f, 0.0460832305f, -0.0005563947f, 0.2271136194f, 0.1437364966f, -0.0408333503f, -0.1481868178f, 0.0030103617f, 0.1238962635f, 0.0521922819f, 0.4482384622f, -0.1243908480f, 0.1553113610f, -0.1146497652f, 0.0866983905f, -0.1134387925f, -0.0185027532f, 0.2392692417f, -0.0332377106f, -0.0408298485f, -0.1108928695f, -0.1614322066f, 0.2431122959f, -0.0143676177f, 0.1819590032f, -0.0381445922f, -0.2497684062f, -0.1671373248f, -0.1915437728f, -0.0654421672f, -0.0090753576f, 0.1876884252f, 0.1677202135f, 0.0049654297f, -0.0885261893f, 0.0607841127f, 0.2182838172f, 0.3404034674f, -0.2048284709f, -0.1894115657f, -0.2767025530f, 0.1998747438f, 0.0149766579f, 0.0208094642f, 0.2017545104f, -0.2364883423f, -0.1412918568f, -0.1962421834f, 0.0841616616f, 0.2206616104f, 0.2449620366f, -0.2187039554f, 0.0216487348f, 0.1863394380f, -0.0609862544f, 0.0540439337f, 0.1002603397f, -0.0105680646f, -0.1338574439f, -0.3432011902f, 0.1977884471f, 0.0663135424f, 0.1041273326f, 0.1540098637f, 0.0937489644f, 0.3152754307f, 0.1863762438f, 0.0948630199f, -0.1426620632f, 0.1170908436f, -0.0189283211f, 0.0866153017f, -0.0425602607f, 0.0271081347f, -0.2156514823f, -0.0424376279f, -0.3344309032f, 0.0946355537f, 0.0970219374f, 0.1811385602f, -0.2966873646f, -0.4104403853f, -0.0040996401f, -0.0489299409f, -0.3531108201f, 0.3496507108f, 0.1701871455f, -0.0826184750f, -0.2627860606f, 0.1908966750f, -0.1519140154f, 0.2494502813f, 0.0260986537f, 0.1117472500f, -0.0262539666f, -0.0577909648f, -0.2521049678f, -0.1769533902f, -0.0860351250f, 0.0779529363f, -0.0825877935f, -0.0598746575f, -0.3103631735f, 0.1442208886f, -0.1484376788f, -0.0171417203f, -0.2013013065f, -0.1030130908f, 0.0386110917f, -0.2953560650f, -0.0403843671f, -0.1209828630f, 0.0069754259f, -0.1601002365f, 0.0090346923f, -0.0688470453f, -0.0749259815f, -0.3119949400f, 0.0389412418f, 0.0514412597f, -0.0893805176f, -0.1737196594f, -0.1373090148f, -0.3094133735f, -0.1313558668f, 0.0240097940f, 0.2834488750f, -0.0850447193f, -0.3108981550f, -0.0202729553f, -0.1150116995f, -0.0172290429f, 0.1272279918f, -0.2807840109f, 0.1247874424f, 0.0075293677f, 0.0989212617f, -0.1300473809f, -0.1945041120f, 0.0785029083f, -0.1248701289f, -0.4624374807f, -0.1233730912f, -0.3199335039f, -0.1243807673f, -0.0960485414f, -0.1742118448f, -0.2440860271f, -0.0527938865f, -0.2049520165f, -0.3302418590f, 0.0484182052f, 0.0427312963f, -0.0072935792f, 0.4183158278f, -0.0409473851f, -0.0407272652f, -0.3402934670f, -0.0036567198f, -0.1971919686f, -0.4233592153f, -0.0782252699f, -0.1073526666f, -0.1590722799f, -0.0731142461f, -0.0546146706f, -0.1373668462f, -0.1226579398f, -0.0047806096f, -0.0688571930f, 0.0685505271f, 0.1375314593f, -0.1277143657f, -0.3585490882f, -0.2362508923f, -0.0021871158f, 0.1931182146f, 0.1001371220f, 0.0436897501f, -0.1470097303f, 0.0769919232f, 0.1166125610f, 0.2042812258f, -0.2266744375f, -0.0749911144f, -0.2516230643f, 0.1967633814f, -0.0101653850f, -0.0632933676f, -0.2182455212f, -0.1182194129f, -0.0597582571f, -0.1109312251f, 0.1839917004f, 0.0833954141f, 0.0918758586f, 0.1976814121f, 0.0192462318f, -0.0601967536f, -0.3643592000f, 0.1082883775f, 0.2106922716f, 0.1926404536f, -0.2804690301f, -0.3170198798f, -0.1815530062f, 0.0422900021f, 0.1642762274f, 0.0976206809f, -0.0479245931f, 0.0638379380f, 0.2229247987f, -0.1154768988f, -0.0946904197f, 0.1420322806f, 0.0257763024f, -0.0477242433f, -0.0982917398f, -0.2567070425f, 0.1726865172f, 0.2377185374f, 0.0304903202f, 0.3167351186f, 0.0797906667f, 0.0200453941f, -0.0078342510f, 0.0003799504f, -0.4011537135f, -0.2022437453f, 0.2371904701f, 0.0837768018f, -0.1052939296f, 0.0954795182f, -0.2754797637f, -0.1399596632f, -0.1567217261f, 0.2015854418f, 0.2038193345f, -0.2824139893f, 0.2506331205f, 0.1169810891f, -0.0242259279f, 0.0815869421f, 0.1417048573f, -0.0391205959f, -0.0598714016f, 0.0534189939f, 0.2833090127f, -0.1761724204f, -0.3362159729f, 0.2133088112f, -0.0086502805f, 0.1780571938f, -0.1181541383f, 0.3656266034f, 0.1730289459f, -0.2179273367f, -0.0180002097f, 0.0067817979f, 0.2054372728f, 0.0805042312f, 0.0957887843f, -0.1288131773f, 0.0927711055f, 0.1811220795f, 0.1623053402f, 0.0704848841f, -0.2941441834f, 0.0246913433f, 0.1201577783f, -0.0906757116f, -0.0139492936f, 0.0582711399f, 0.0441941656f, 0.3702025115f, -0.0643498674f, -0.4153231084f, -0.1558284760f, -0.1106264219f, 0.0617338344f, -0.2216034383f, 0.2813719213f, -0.0051055816f, -0.0997884944f, -0.0252076741f, 0.1576799154f, -0.0154164964f, -0.1227823943f, 0.2104081661f, 0.3472996652f, -0.1985815465f, 0.3482956290f, -0.2065905333f, -0.0713915154f, 0.0382663310f, -0.0156219918f, 0.0777442753f, -0.1769213974f, -0.0802755207f, 0.1072653607f, 0.1426762342f, 0.0854383782f, -0.0830317736f, -0.1867716312f, -0.0217468236f, 0.2258670777f, 0.1591054052f, -0.1412260085f, 0.2241063863f, -0.1153453812f, 0.2383087277f, -0.0227290392f, -0.3958178759f, -0.1566809863f, 0.2403222024f, 0.0947852433f, -0.1702032387f, -0.1240404993f, 0.1119829565f, -0.0849676728f, -0.0448058695f, 0.0127862850f, 0.0706109032f, -0.1001787335f, 0.0197951198f, 0.2045195848f, -0.1711244583f, 0.1115809530f, -0.4093350470f, -0.0063224323f, 0.1302746385f, 0.0972593203f, -0.0506206229f, 0.2801075876f, 0.0714489892f, -0.0926927850f, -0.2481909841f, 0.1774510145f, -0.2668924630f, 0.2653276622f, 0.2302966416f, -0.1100258902f, 0.1757949144f, 0.2595548928f, -0.1493885219f, 0.1097284779f, 0.0393492617f, 0.1062726304f, 0.3463909924f, 0.0815014467f, -0.3439214230f, -0.0356492065f, -0.0285606869f, -0.0925763175f, -0.0196137633f, 0.1012931466f, 0.1069187671f, -0.0573187657f, 0.3522812128f, 0.1427212358f, -0.1455636024f, -0.0418588482f, 0.0678689256f, 0.2527547181f, -0.2471688390f, -0.1065728143f, -0.1384415478f, -0.0056448579f, -0.0727126747f, -0.0587586649f, -0.1742349267f, -0.0081021702f, 0.0143149104f, 0.0111506060f, 0.1453285813f, -0.0022635160f, -0.0536406375f, 0.1527372152f, 0.1940665990f, -0.2442964315f, 0.1955324560f, -0.1483705640f, -0.1450859010f, -0.0819102898f, -0.2265933156f, 0.0300039370f, 0.1630684435f, -0.4145877361f, 0.1873161793f, 0.0758427903f, -0.1072645336f, 0.1025950685f, 0.0366339013f, 0.0274901502f, -0.1486292034f, -0.0117387557f, 0.0304860137f, -0.1273846030f, 0.2564590275f, -0.0452641211f, -0.4290372431f, -0.0943798944f, 0.4450373650f, 0.0860123113f, 0.2029655576f, -0.0322999544f, 0.0891192332f, 0.1965761483f, -0.0754083022f, 0.3273739517f, -0.1650233418f, -0.0549013950f, -0.0971981362f, 0.1591025591f, -0.0062859263f, 0.3370427191f, 0.0375527069f, -0.0278077684f, -0.0676895380f, -0.0579355359f, -0.1741460562f, -0.1206465214f, 0.0626656264f, 0.0909193978f, -0.3643235266f, 0.1147852167f, -0.0455113128f, -0.0923447013f, -0.2650075555f, -0.0292391349f, 0.0193540622f, 0.2765635848f, 0.0328823440f, 0.1030497476f, -0.0451595411f, -0.2232877165f, 0.1341002434f, 0.0082444567f, -0.0564638674f, -0.1153795794f, 0.1447003186f, -0.1274518669f, 0.1395062059f, 0.0440187529f, -0.6228402853f, -0.0840694234f, 0.2318553329f, 0.2863904536f, 0.0855851620f, 0.1654642820f, 0.1209303439f, 0.0963271782f, 0.3486751914f, 0.2566113770f, 0.1542809010f, -0.0943541676f, 0.0668793693f, -0.1862168759f, -0.0160726979f, 0.2396223694f, -0.0396078415f, 0.2079813629f, -0.0235346779f, -0.0403608382f, 0.2302690297f, -0.1733763665f, 0.1832739115f, 0.3629620969f, -0.1701117605f, -0.1486519575f, 0.2528757751f, 0.0454737768f, 0.2304656953f, -0.1296887398f, 0.1628804207f, -0.0636553168f, 0.2756677270f, 0.0331219397f, -0.0795912594f, -0.2179921865f, -0.1270993203f, -0.1273421496f, 0.2937455177f, 0.0412509218f, -0.1749088168f, 0.3831155598f, -0.0076223775f, -0.0210814346f, -0.1516499817f, 0.2887489498f, -0.2109481990f, 0.0550547503f, 0.0819685012f, 0.1602523476f, -0.2866980433f, 0.2288496345f, 0.0235952009f, -0.1494449377f, 0.2215690911f, 0.0293708947f, 0.0795500055f, -0.0796967149f, 0.0688019618f, 0.1007357910f, -0.2683976591f, -0.0920215473f, -0.1294208765f, -0.0662565157f, -0.1725914478f, 0.1002537683f, -0.2835553288f, -0.1587486863f, 0.3221831024f, 0.0817479193f, -0.2016508877f, -0.0059494134f, 0.3214971423f, -0.1300247461f, 0.0458694510f, 0.0051629371f, -0.1220759377f, 0.1030729339f, -0.0260788724f, 0.3313912451f, -0.0698737204f, -0.0558205917f, 0.1796436459f, 0.2188337445f, 0.1163595319f, 0.0943746939f, -0.1932104677f, 0.1655696630f, 0.2500064075f, -0.1728281528f, 0.1415482759f, 0.1416726857f, 0.2232157886f, 0.4362300336f, 0.0216766521f, 0.2952205539f, -0.0257676188f, 0.0688514039f, 0.2469473481f, -0.1021422744f, 0.2516743839f, -0.3622389734f, 0.0871522352f, 0.0711887181f, 0.1575765610f, -0.0760145187f, -0.2854653299f, -0.0707584098f, 0.1446737498f, -0.3010998666f, -0.1863430738f, 0.1467700154f, 0.1388399154f, -0.1870094687f, -0.0429008342f, 0.1485867351f, 0.3293176889f, 0.3191680014f, 0.1171409488f, -0.1294835806f, 0.0869324505f, 0.1251433492f, -0.1167089865f, 0.1752019674f, 0.0737647563f, 0.1562732458f, -0.0077952780f, 0.1848328710f, 0.1185866520f, 0.0336671546f, -0.0855703875f, -0.0709750801f, 0.1426014304f, -0.2016943693f, 0.1251380891f, -0.0990036130f, 0.1596812159f, -0.0878089070f, 0.0408709534f, 0.0044037155f, -0.0624599941f, -0.3557865918f, 0.2226299644f, -0.0504209772f, -0.1579973251f, -0.2262753695f, -0.1744062901f, -0.0357016400f, -0.0614430830f, 0.2148881257f, -0.0472883917f, 0.0446459651f, -0.1508386731f, -0.3755639493f, -0.0234086476f, -0.2795635164f, -0.1354597062f, -0.1377410442f, -0.1180813089f, 0.1669289917f, -0.3651240170f, 0.1627452821f, -0.1064635664f, 0.0869981200f, 0.0093704406f, -0.3824608028f, 0.0909970626f, -0.0345466025f, -0.0352892801f, 0.0332630873f, 0.2958627641f, -0.2272709012f, -0.0321228467f, 0.2841289937f, -0.0629785731f, -0.0032976223f, 0.0899424329f, 0.1773935258f, 0.0556690097f, 0.1667383909f, -0.1887189746f, 0.2071729004f, 0.1655357629f, 0.0990705863f, -0.0332066081f, 0.0077858800f, -0.1678513139f, -0.3428843021f, 0.3122835159f, -0.1515172571f, 0.1935288906f, 0.0238498822f, 0.0737960041f, -0.3976252377f, -0.0704069436f, -0.1220332012f, -0.0351448953f, -0.2519390583f, -0.1678503156f, -0.1114090979f, 0.1653963774f, 0.0204922147f, -0.2533215880f, -0.2167758942f, 0.0420373157f, -0.0912790075f, -0.1232317239f, -0.0659533292f, 0.0339076482f, -0.0706884712f, -0.0630022362f, -0.2025829256f, -0.1578891575f, -0.0344134271f, -0.2459365726f, -0.0792255700f, -0.1205521002f, -0.0043296875f, -0.1141764075f, -0.2283756882f, 0.3669830561f, 0.1620348841f, -0.0929852575f, 0.4228619337f, 0.0644059256f, 0.0656180754f, 0.1024818867f, -0.1500272304f, 0.0657114014f, 0.1375223994f, -0.1378120929f, -0.4635163248f, -0.2219909430f, -0.1816932112f, 0.0872485563f, -0.3697201908f, -0.0268817861f, 0.1799595952f, 0.0541746840f, -0.1279535741f, -0.0186414924f, -0.3736287951f, 0.1293014139f, -0.0705355778f, -0.0420599654f, -0.1102029607f, 0.1014496610f, -0.0217325315f, -0.3729197681f, 0.1439612508f, 0.0808543265f, 0.1750521213f, 0.0053046076f, -0.0583468899f, -0.1026199907f, 0.0364508331f, -0.2238979936f, -0.0872366279f, -0.1850623339f, -0.0477874801f, -0.1645550430f, -0.0906752124f, 0.1339202970f, -0.2159673125f, -0.1214132532f, 0.0308514498f, -0.0762222856f, 0.0078841187f, -0.1325670928f, -0.0878532305f, -0.0892374367f, 0.4184462726f, 0.1124008968f, 0.1306918114f, 0.1521798819f, 0.2466031909f, -0.0949820653f, 0.0969178975f, 0.1715507507f, 0.1567336172f, 0.0631039068f, -0.1395694613f, 0.0029075057f, -0.1484235078f, 0.2588596940f, 0.1556645036f, 0.0056668841f, 0.0695509985f, 0.0669106245f, -0.2167418599f, 0.0133716809f, 0.0040744473f, -0.0340484828f, 0.1272321641f, -0.0891402364f, 0.3497023880f, 0.1900794953f, 0.1903794557f, 0.0083421497f, 0.1846548170f, 0.0516478270f, -0.0795240328f, 0.1937359124f, -0.0615940504f, 0.1346724629f, -0.1557888687f, 0.0111216223f, 0.2373217046f, 0.0669842735f, -0.1516136825f, 0.0639979765f, 0.2019345611f, -0.1747209132f, -0.0312438421f, 0.0578509457f, -0.1468545943f, 0.1276465058f, -0.0104001286f, 0.2823117375f, -0.0086911293f, -0.2138783485f, -0.1769779772f, -0.0892204940f, 0.0188028961f, -0.1522648335f, 0.1003850847f, -0.0256489385f, -0.2994624674f, -0.1566495597f, -0.0798744336f, 0.1921262145f, 0.2708585262f, 0.3381991386f, 0.1946157068f, -0.2431367934f, 0.1131256074f, -0.4071644247f, 0.3331946135f, -0.2475423813f, -0.2432796061f, 0.2519281209f, 0.2230005264f, -0.1588781923f, -0.2100729495f, 0.0895298496f, 0.3503424823f, -0.2041790783f, -0.0650729463f, -0.1857373714f, 0.1610751599f, 0.0246094409f, 0.0532325096f, 0.1853334755f, 0.2669906318f, 0.0036610565f, 0.1547769904f, -0.0918309763f, -0.1349844784f, -0.0636321977f, 0.0558563285f, 0.0506657027f, 0.2311523110f, 0.0833621025f, -0.0815574527f, 0.1032462120f, 0.2387294918f, -0.1319440007f, 0.2015437782f, 0.4204224646f, -0.0606825463f, -0.1345940381f, 0.0249677524f, 0.0921267420f, -0.3654989898f, 0.0422795638f, 0.3555399776f, 0.4332988858f, -0.0627528280f, -0.1774876267f, -0.2851140201f, 0.1699812859f, 0.1839658767f, -0.0952057689f, 0.0087408153f, -0.1079624072f, -0.2378394008f, -0.0826156214f, 0.1933227181f, -0.2568001151f, -0.3239898682f, 0.5222554207f, 0.3266938925f, 0.0916995704f, 0.2133318037f, 0.1117842197f, 0.3514763713f, -0.1040794402f, 0.2086846530f, 0.1304623038f, 0.1425147206f, -0.1457912028f, -0.2098927647f, -0.1229091734f, 0.3924840987f, -0.1303317100f, 0.0540050343f, -0.0855627060f, -0.0965306759f, 0.1972208619f, 0.1181121096f, -0.1832048148f, -0.0617840625f, 0.0786601529f, 0.1456638128f, -0.0290097389f, -0.2734120488f, 0.0465016402f, -0.0326252505f, 0.2545927763f, -0.3308654428f, -0.0084461691f, 0.0144436406f, 0.0775057003f, 0.1599984020f, 0.1950878948f, 0.1958615482f, 0.0968908444f, 0.0148794549f, 0.0016998977f, 0.1058253944f, -0.1163460761f, 0.0107646510f, 0.1673741341f, 0.0698867887f, -0.0145952562f, -0.2991433740f, -0.2545902133f, -0.0470526479f, -0.0382060446f, 0.0085537322f, 0.1385146379f, 0.1958681792f, 0.1148580909f, 0.0932432339f, -0.1681147516f, -0.1518163383f, 0.0341939963f, 0.1662797779f, -0.0359356217f, -0.1943139732f, -0.1599391848f, 0.3452339768f, 0.1127428710f, -0.0249827765f, -0.1412275881f, 0.2150366455f, 0.0273827016f, -0.2694532871f, -0.3924182951f, -0.1289694756f, 0.1982669681f, -0.2938942611f, -0.0846963674f, 0.3441648781f, -0.1153056100f, -0.0516868196f, -0.1060180962f, -0.3397652209f, -0.1200939640f, -0.0575366132f, 0.4201403558f, 0.0105626984f, 0.1325082630f, -0.0893850923f, 0.0310968123f, 0.2689376175f, -0.1786282361f, -0.0171092041f, -0.1221319884f, 0.0611536913f, -0.3181149364f, 0.2965336442f, -0.0688072890f, -0.4064770341f, -0.1631983966f, -0.1305470318f, 0.0684515983f, -0.3637563288f, 0.2849842906f, -0.0162883103f, 0.1579615772f, 0.0288814604f, 0.6054630876f, -0.0257190950f, 0.0759920999f, 0.0964127555f, 0.0597910658f, 0.0231980328f, -0.0756208301f, -0.1213165149f, 0.0224491786f, -0.0947360098f, 0.2917775810f, -0.2106820047f, 0.1426782459f, -0.1571276635f, 0.0199112780f, -0.0380497798f, -0.2553800642f, -0.0467513390f, -0.0343532488f, -0.1407304555f, -0.3131870329f, 0.0669662058f, -0.0709544867f, -0.0627679378f, 0.1619450897f, 0.0058035944f, 0.0506304801f, -0.0225892011f, -0.2538373470f, 0.2261611074f, 0.1849934608f, 0.1066245288f, 0.3542559147f, -0.0454454906f, -0.2690781653f, -0.0261274483f, 0.0303597301f, 0.0598611683f, -0.0500226803f, 0.0716048554f, 0.0029144324f, -0.1319496781f, -0.0582824051f, 0.2416212261f, 0.1947270781f, 0.3960856497f, 0.1929230541f, -0.2824797034f, -0.1490022242f, -0.0467720293f, 0.0739425495f, 0.0794542581f, -0.0481528118f, 0.0880516693f, 0.0710302442f, 0.0302866083f, -0.0051401509f, 0.0716385320f, 0.1701880544f, 0.3291870654f, -0.0655242130f, 0.1355116069f, -0.1134016588f, -0.2937125862f, 0.1294684559f, -0.2421565205f, -0.2476406991f, -0.0686499923f, 0.2067112923f, 0.0943740085f, 0.1470739394f, 0.2667468786f, -0.1016152203f, 0.2171544284f, -0.3153379560f, -0.3705924451f, -0.0916878954f, 0.1849205047f, 0.0958325267f, -0.2153145522f, -0.0687539801f, -0.1351283491f, -0.1028053239f, -0.1042056382f, -0.3135381639f, -0.0519443974f, -0.2502179146f, -0.0445243455f, -0.1620362401f, 0.0725879595f, -0.0880213752f, -0.1592344940f, -0.2670484483f, 0.0914535373f, 0.0193793271f, -0.2036842108f, 0.1478436738f, 0.2203568816f, 0.2021240890f, -0.0637293085f, 0.0744118392f, 0.0105193444f, 0.0112084746f, 0.2316023707f, -0.1961467117f, -0.1562789828f, 0.0969358832f, 0.0303501207f, 0.0418591015f, -0.1550601721f, 0.0938292742f, -0.0124603128f, -0.5499337912f, -0.1306627691f, -0.1002025977f, -0.3367761374f, -0.1303988397f, 0.0283016562f, -0.0147340642f, -0.1541400254f, 0.0228221286f, 0.0786542818f, 0.0296067726f, -0.3201717436f, -0.1088313833f, 0.0205552988f, -0.1269618422f, -0.4358503520f, -0.2884664237f, -0.4489547908f, -0.0382092334f, -0.0144699700f, -0.0515402704f, -0.1127564013f, 0.0872925520f, 0.1592723876f, 0.0158795174f, -0.0386698171f, 0.0022256011f, 0.1616371870f, 0.1795460731f, 0.1087943763f, 0.2837767899f, 0.0783525258f, 0.0045498395f, 0.3428432047f, -0.0900890604f, 0.1199081242f, 0.0823836476f, 0.0970857367f, -0.2386375666f, 0.0137437880f, 0.0561130382f, -0.1967318803f, 0.2736638188f, -0.0885022730f, 0.0617070682f, -0.2350378484f, 0.0570547730f, 0.0452796072f, 0.0031494452f, 0.2410720736f, -0.1949112862f, 0.2311496139f, -0.1470319182f, 0.0559732579f, -0.1105351150f, -0.1843278855f, 0.0936928317f, -0.0507805571f, -0.1235497743f, -0.0741511211f, 0.1498314589f, -0.2427935600f, -0.0878101289f, 0.2586648166f, 0.0163402166f, -0.1648408771f, 0.1388729513f, 0.1132209525f, -0.1225853860f, 0.2168894112f, 0.1127160117f, 0.2260343283f, 0.1610822678f, -0.0826119632f, -0.2168792933f, 0.0562801659f, -0.2347808182f, 0.0198023710f, -0.2371276766f, 0.0543798320f, -0.0123562757f, 0.0163202733f, -0.0786620528f, -0.0440174565f, 0.2891322970f, 0.2188855559f, -0.1645224988f, -0.2130996883f, 0.0579063185f, 0.0759551525f, 0.0789736509f, -0.1891729683f, -0.0643792450f, -0.3799246848f, 0.1344878525f, -0.0802280232f, 0.1464971304f, 0.4399091601f, -0.1716422737f, -0.2293094248f, 0.0066834930f, -0.1916448027f, -0.1118091196f, -0.1854832768f, -0.3038815260f, 0.1798457354f, -0.1400868595f, 0.0157456156f, -0.1444786191f, -0.1189970598f, -0.2049950808f, -0.1784217805f, 0.0100104259f, 0.1278747618f, -0.1388229430f, 0.1869306266f, -0.0483732224f, 0.0965301394f, -0.0436481573f, -0.0254664272f, 0.2174149454f, 0.2151988745f, 0.3780046105f, -0.1732002497f, 0.4214061797f, 0.0517348014f, -0.0344981700f, -0.0836438760f, -0.2192155719f, 0.2262188643f, -0.0567887872f, -0.1131856665f, 0.1083009914f, 0.0492023490f, -0.1601215750f, 0.0025886602f, 0.3606853783f, 0.3820335269f, 0.3077274263f, -0.1473890692f, -0.0301308073f, 0.0784752890f, -0.1211207733f, 0.2083776295f, 0.0147898691f, 0.0977417678f, -0.0833262354f, -0.3231988847f, 0.1427624226f, 0.0832493678f, -0.0859021172f, -0.1532192379f, 0.2751061916f, -0.0916570351f, 0.3175400794f, -0.0265067462f, -0.2673598528f, 0.0714088678f, 0.2822256386f, -0.2075125277f, 0.0698322728f, -0.1873439103f, 0.0284602195f, -0.0991178080f, 0.0781131387f, -0.2874797285f, 0.0515343659f, 0.1207777187f, 0.1227324978f, -0.1272487044f, 0.0901634321f, -0.1963377595f, 0.1485164613f, -0.2170851827f, 0.1222941652f, -0.2212538570f, 0.0235143956f, 0.0075307791f, -0.1302436441f, -0.1769550294f, 0.1330482513f, -0.1861006618f, 0.2301091254f, 0.1136093065f, 0.0972761512f, 0.0588548519f, -0.1535561830f, -0.2540181875f, 0.1494247913f, -0.0906964019f, 0.3451443315f, -0.2125287950f, 0.0596031621f, 0.1087706164f, -0.1443566084f, 0.0414466597f, 0.1953116506f, 0.0646547154f, -0.5546395183f, -0.3272486627f, -0.0365693197f, 0.0701929480f, -0.2042882890f, 0.0121738641f, 0.1100732535f, 0.1074355841f, -0.1512757838f, -0.2094296366f, 0.0208583362f, 0.0063840817f, -0.0287128873f, 0.0718635768f, -0.0988253281f, 0.2210406661f, 0.1180151254f, -0.0131879421f, -0.0226389468f, 0.0409034863f, 0.0387975425f, -0.0481042080f, 0.0088371960f, -0.2589683235f, 0.0219204966f, -0.1965824515f, 0.1116165668f, -0.0657641143f, 0.2529487014f, 0.1010642052f, -0.0280654579f, 0.2710520625f, 0.0856881812f, -0.1402417868f, -0.2114038020f, -0.1761317253f, -0.1128285378f, 0.1515827030f, 0.0403020345f, -0.2553972304f, -0.1007655486f, -0.0087824604f, -0.1914171875f, -0.2029235065f, 0.1052592844f, -0.0326897465f, -0.1561151743f, 0.1783320755f, -0.2783862650f, 0.3067773581f, 0.2663560212f, -0.2463643402f, 0.2802228332f, 0.0768704116f, 0.1264039278f, -0.3742654622f, -0.3075015545f, -0.2350279689f, -0.0759575516f, 0.0530784503f, 0.1258115619f, 0.0971689001f, -0.0751831308f, 0.2576603591f, 0.3284781277f, -0.3759585917f, 0.0804369673f, 0.1548187733f, 0.1285984218f, 0.1550814956f, 0.0890870020f, -0.1982419342f, -0.1396734416f, 0.1866973490f, -0.2509747744f, 0.1969952583f, -0.0898707509f, 0.0494815484f, -0.2379758209f, 0.2542535961f, -0.0427418649f, 0.1572887748f, 0.0725373849f, 0.1938065588f, -0.0650505275f, 0.1894252598f, -0.0134911183f, 0.0803293809f, -0.1084000021f, 0.0618827865f, -0.0823332071f, 0.0626858398f, -0.1361505836f, 0.0460015349f, -0.1414611638f, 0.1888837963f, 0.2437033057f, -0.0090362784f, -0.3453257680f, -0.0403723866f, 0.0095982151f, 0.0643426925f, -0.0987495780f, -0.2030910850f, -0.0755391419f, 0.2837966383f, 0.1837424785f, 0.0612971187f, -0.1544391662f, -0.1900948584f, -0.1390574723f, -0.0116737438f, 0.3337815106f, 0.2720815539f, -0.0864205956f, -0.1745681763f, -0.0524422228f, -0.2110788077f, -0.0297762584f, 0.0405507982f, 0.0640605316f, -0.2096706480f, 0.3063930869f, -0.1202172637f, -0.0609446988f, 0.0867655799f, -0.1531421542f, -0.2217084467f, -0.1193631887f, -0.3600477278f, 0.1973755360f, -0.0813512877f, 0.0563938394f, -0.1547936499f, 0.0379839428f, 0.0287510678f, 0.1347092539f, 0.1049005687f, -0.3626416028f, 0.0568709746f, 0.1306508631f, 0.0163001940f, 0.1697937548f, 0.1785426438f, 0.0172247905f, -0.0657882765f, 0.1739010513f, 0.2306906134f, -0.1151383817f, -0.1779805720f, 0.2121637017f, -0.1762979627f, 0.0208730604f, 0.0536144562f, -0.1740194708f, 0.1395147890f, -0.1197040379f, 0.0994397849f, -0.0799059793f, -0.2141809613f, 0.2541041374f, 0.1208932176f, -0.0231481977f, -0.1692507714f, 0.0031364665f, -0.3634329140f, -0.0054645981f, 0.2072130442f, 0.1260075569f, 0.1225428283f, 0.1106859967f, 0.4392798841f, 0.3074779809f, 0.1760660112f, 0.0871702656f, -0.2789503634f, -0.0831775144f, -0.2544057965f, 0.1122981310f, -0.2158087939f, 0.1008608341f, -0.0722817779f, -0.1984577626f, -0.1267481446f, 0.2988697886f, 0.0787207335f, -0.0799490735f, 0.2217983752f, -0.0775830671f, -0.1578823328f, -0.2384311557f, -0.1506729424f, 0.2010502964f, -0.0692574605f, 0.0732019544f, -0.1182760522f, 0.0333432890f, 0.1381739676f, 0.0340427570f, 0.0306098983f, 0.1862208694f, 0.1436924189f, 0.1366157234f, -0.2104353756f, -0.0627170503f, 0.0614751689f, -0.1640146375f, -0.0989762321f, 0.1601439714f, -0.1047500074f, 0.0207644273f, -0.0641543791f, -0.0532762073f, 0.0487203039f, 0.0060371170f, 0.0625942051f, -0.0778422281f, -0.2082754374f, -0.0377763063f, -0.2210831046f, -0.4441538751f, -0.2252754867f, 0.2625797987f, -0.0807728991f, -0.1149984300f, 0.1463213265f, -0.3517436683f, 0.0680454969f, 0.0375941880f, -0.1444120258f, 0.2672662139f, 0.0335588492f, -0.3298310637f, 0.1442655027f, 0.1562866569f, -0.0471485704f, 0.1439834982f, 0.2178296000f, 0.2240687758f, 0.0768537894f, 0.0750004724f, 0.3273549676f, 0.5359420776f, -0.0159389600f, -0.0879278108f, 0.2471788079f, -0.1544845402f, -0.0496542677f, -0.1470308900f, 0.0188644715f, -0.2423421890f, -0.0194128007f, 0.1018367261f, 0.1108855233f, 0.1446823627f, -0.3298321068f, -0.3086844087f, 0.1349255592f, 0.3451821804f, -0.4452285171f, 0.0948687494f, -0.1649312228f, 0.1821925044f, 0.0701373667f, -0.0384532250f, 0.0950595066f, 0.0628628954f, -0.0919136927f, -0.0075718043f, 0.1434358656f, 0.1302938312f, 0.0441017747f, 0.1053315103f, -0.1884054691f, 0.3143100739f, -0.0842404366f, -0.1414081752f, 0.0923961103f, -0.1229370460f, 0.0062152212f, -0.1573261023f, -0.1140536591f, -0.2835704982f, 0.1810668856f, 0.0757614747f, 0.3249508142f, -0.2894389927f, 0.0422919132f, 0.1937995255f, 0.2156710029f, -0.1433132738f, 0.2020591050f, 0.0485920794f, 0.1374414861f, -0.1795745045f, -0.1602658778f, -0.1122504398f, -0.3366584480f, -0.0427788161f, 0.0329789966f, -0.1272713393f, 0.2362015843f, 0.0894864500f, 0.0399552844f, 0.0936404467f, 0.1763360947f, -0.0321723707f, -0.0660392717f, -0.1420154721f, -0.1558053643f, 0.0613365099f, -0.1891606450f, 0.2490140647f, -0.1610370874f, -0.0396874212f, -0.1573241502f, -0.1184579730f, 0.1982773542f, 0.3050333261f, -0.4541204572f, 0.0338185467f, -0.0643393993f, 0.3143337667f, 0.0461074226f, -0.2294282466f, 0.1898671091f, 0.0780945271f, -0.1850999594f, 0.1477493942f, -0.1563686877f, 0.1227167100f, 0.0971559137f, -0.1494953334f, 0.0086614927f, -0.0377603360f, -0.1401993185f, 0.0334068239f, 0.0095637748f, -0.2663720250f, 0.1452144384f, -0.1768736243f, -0.1394884437f, 0.2455891222f, 0.0118613811f, -0.0302052461f, 0.1080070660f, -0.1430100501f, 0.0451945066f, -0.1280235201f, -0.1621692032f, -0.2183560282f, -0.3142485917f, 0.0547284894f, -0.1364664882f, 0.1956003159f, -0.0136551633f, 0.2337130308f, 0.3198491633f, 0.1232312322f, -0.1948763579f, 0.0737309828f, 0.0076764352f, 0.1069711074f, 0.0839515328f, -0.4246671200f, -0.2605749965f, 0.2167965323f, -0.0269641988f, -0.0629808158f, 0.0816635862f, 0.0834513009f, 0.2344961166f, -0.0674588159f, 0.1133892983f, 0.0189817548f, -0.0419498608f, -0.0244639385f, -0.0980210304f, 0.1440394372f, -0.2399692684f, -0.1735689491f, -0.0874877200f, 0.1979545057f, 0.2068068236f, -0.0394816287f, 0.0660259202f, 0.0293961652f, -0.1513368785f, 0.1768436283f, 0.0660223141f, 0.0146897500f, -0.1452615410f, -0.2114014179f, -0.3684673607f, 0.4549279809f, 0.1261040866f, 0.1431108713f, 0.0221812036f, -0.2107440531f, 0.2763638496f, 0.2867018282f, -0.1975346208f, -0.0774430335f, -0.1804376394f, -0.1132372469f, -0.3024453819f, -0.0066107330f, 0.0737764090f, 0.1785241514f, 0.0324207433f, 0.1182357520f, -0.0942829773f, -0.0326410867f, 0.1520522684f, 0.1074784026f, -0.0329261981f, 0.2963580787f, 0.1052815318f, -0.1662130505f, 0.2413085848f, 0.2802977264f, -0.0600436851f, 0.2866366208f, 0.0345782600f, -0.0086709084f, 0.0697872639f, 0.0848788098f, 0.1347845942f, 0.0483992547f, 0.1521434784f, -0.4459961057f, -0.1565550119f, 0.2191782445f, -0.1606700122f, 0.0436916091f, 0.1988905668f, -0.1289874017f, 0.1691650748f, 0.0746282712f, -0.1898519546f, -0.2983693779f, 0.0800557658f, -0.1917162240f, 0.1078160852f, -0.2868087888f, 0.2503209710f, 0.3646751344f, -0.2255469710f, 0.0314635783f, -0.1803573817f, 0.0858574584f, 0.0588210188f, 0.0348457955f, 0.2235193104f, -0.1063510105f, 0.1949336678f, 0.0250686072f, -0.3279537857f, 0.1099871472f, 0.0432445221f, 0.0392981395f, -0.0987606421f, -0.4273088276f, -0.1133660898f, -0.2599891126f, -0.0349934697f, -0.0169282202f, -0.0758142546f, 0.3092406690f, -0.0190012306f, 0.1993060112f, 0.0316762812f, -0.0638600215f, -0.1847377419f, 0.1596644521f, 0.1230591983f, -0.1042927578f, -0.1646252275f, 0.1796527058f, 0.0702283606f, 0.1173822805f, 0.2539852858f, -0.0656171441f, 0.0328490511f, -0.2662634850f, -0.0474686101f, -0.3442009389f, 0.0631265342f, 0.1323375255f, -0.1512098461f, 0.0286276415f, 0.0285084620f, 0.3113182485f, 0.1796378046f, 0.1813269407f, -0.0076776538f, -0.1530009657f, -0.1073141694f, -0.0450570360f, -0.1217684299f, -0.1448486894f, 0.1564470381f, -0.3635276258f, 0.5721924305f, -0.4992992282f, -0.2113624960f, -0.1552428901f, 0.4711102545f, -0.4535880685f, -0.6305263638f, 0.1419073492f, 0.0236800183f, -0.0152000645f, 0.4727110565f, -0.2459065616f, -0.2583332360f, 0.1747436821f, -0.0180318635f, -0.3242366910f, -0.0144224986f, 0.3750208020f, -0.2861286700f, 0.2684898674f, 0.3642526567f, -0.1348518431f, 0.5330978036f, 0.1945482343f, 0.0024733294f, -0.2055593431f, -0.2405405790f, 0.4680297673f, 0.0634150505f, 0.3720856011f, -0.1065082401f, 0.4328244925f, 0.3526156247f, -0.4911634326f, -0.1620864570f, -0.3017606735f, 0.3296480179f, 0.0104945656f, 0.1905237287f, -0.0291902497f, 0.1768298745f, -0.1674051285f, -0.0404993594f, -0.4700280130f, -0.5002446175f, 0.1197044179f, -0.2820878923f, -0.0414476730f, -0.4027409554f, 0.3538057506f, 0.2533309758f, -0.0125071397f, 0.2450215816f, -0.5142449737f, -0.2779584825f, -0.1517879367f, -0.2538205683f, -0.2527708113f, 0.3167354465f, 0.2188580632f, 0.1162440926f, 0.2669522762f, -0.0031978132f, -0.2383683324f, -0.0360438079f, 0.1095750406f, -0.1033987552f, 0.1744722277f, 0.0940844417f, -0.0517950580f, -0.2309765667f, -0.2010031790f, 0.2922100425f, -0.1081707403f, -0.1099647135f, 0.1447089911f, -0.0157987326f, 0.0046722353f, 0.0685593933f, -0.0338545516f, 0.0293537471f, -0.0353596061f, 0.0398553014f, -0.1986583173f, -0.0826104209f, 0.0098534059f, 0.0069663390f, -0.2014837265f, -0.0405250229f, -0.0236617196f, -0.0400873907f, -0.1144320592f, -0.1009602100f, -0.0342075154f, 0.0211297106f, 0.1801845133f, -0.2530332208f, 0.0782827958f, 0.2673493922f, 0.0981043503f, -0.0088576721f, 0.2287226021f, 0.2921450436f, 0.2380071431f, -0.1925091743f, -0.1182936355f, 0.2156463414f, -0.1327874064f, 0.2597141564f, -0.0333084613f, 0.0213678386f, -0.1133290306f, -0.0460307114f, 0.3606728315f, -0.2926380336f, 0.4171872735f, -0.0142686833f, -0.0427722596f, -0.0040136226f, 0.2013809830f, -0.1088723391f, -0.2244115770f, 0.5032328367f, -0.2860318720f, 0.3417907953f, -0.0604590736f, -0.0881084204f, 0.1271264851f, 0.3275796175f, 0.0480449907f, -0.1292085201f, -0.1040583402f, 0.2888789475f, -0.3344298303f, 0.0403030403f, 0.0578212962f, 0.0729079545f, 0.0227102078f, -0.2796303332f, -0.1451115906f, -0.0813378245f, -0.0819289982f, -0.2727877498f, -0.0512757115f, 0.0949673578f, -0.0168467201f, 0.1024787277f, -0.0980281010f, 0.1040579751f, -0.0025902954f, 0.4167793989f, -0.0679469407f, -0.0226183869f, 0.0517641529f, 0.0878145844f, 0.0221849196f, 0.1776467562f, -0.0519347675f, -0.0111392140f, -0.1514903456f, -0.1767787933f, -0.2402208894f, -0.2018170804f, -0.0483563133f, 0.1470701396f, -0.2470324188f, -0.0423564948f, 0.1991355568f, -0.0693624318f, 0.0031982185f, 0.0479038134f, 0.1823380291f, 0.1829737276f, -0.0734127238f, 0.1390956491f, 0.0971085578f, -0.1166576371f, -0.0276762675f, -0.2049604952f, 0.0871065333f, 0.2697471082f, 0.1321690530f, -0.1133371294f, -0.1627236009f, 0.5330019593f, 0.2728395462f, -0.1743095368f, -0.1862078309f, 0.4132935107f, -0.0985774994f, -0.1770345122f, 0.0210688543f, 0.1315514147f, 0.3810663521f, -0.1198479086f, -0.1406718493f, 0.1690094173f, 0.1804144084f, 0.0833150744f, -0.0289227646f, -0.1818722039f, 0.0163283758f, 0.0481116697f, 0.1504889727f, 0.1788447350f, 0.0697088018f, -0.1153424010f, -0.0337371863f, -0.0346737765f, -0.0818717331f, 0.0660616532f, 0.1697103083f, 0.0229449365f, -0.3268570006f, -0.0287865773f, -0.2376041561f, -0.0612715036f, -0.1865723878f, -0.1033497453f, -0.0396292880f, 0.0735550001f, 0.2411185056f, 0.0829755813f, -0.0307720117f, 0.0863383785f, -0.1785519719f, -0.1326686591f, 0.1777181774f, 0.0340908542f, 0.1064849943f, 0.4978858531f, 0.0468023010f, 0.2458074838f, -0.0687049329f, -0.1395642608f, -0.0181390829f, 0.2068185061f, -0.2390274405f, 0.0790032521f, 0.0171036795f, 0.4434555769f, -0.2704050243f, 0.1666239500f, 0.1052605733f, 0.3944422007f, -0.3124267459f, 0.1627882570f, -0.0873167440f, -0.2706771195f, -0.0100887930f, -0.0979678780f, -0.1026884094f, 0.0804247558f, 0.1069149226f, 0.4229700565f, 0.1018891037f, 0.1406629533f, -0.2623034120f, -0.1383832246f, 0.0386590771f, -0.0078782076f, 0.2347087115f, -0.2310092896f, 0.0476210639f, 0.0234716721f, -0.0897251442f, 0.0006748026f, -0.1083854139f, 0.1492461115f, 0.1193509623f, -0.2896666527f, 0.3682126105f, -0.0235621780f, -0.2391019166f, -0.1374571770f, -0.0475061648f, -0.0180884544f, -0.3416135907f, 0.0860383436f, 0.0367985852f, -0.3397788107f, 0.0466768295f, 0.1259462982f, -0.2142345011f, 0.0979514495f, 0.0464287251f, -0.1028947681f, 0.2860004008f, -0.3273770213f, -0.2019478530f, -0.0275088809f, 0.1011652797f, -0.1167399213f, 0.0315104201f, 0.0560919866f, 0.1829914153f, -0.3864878416f, 0.2888507545f, -0.1117212623f, -0.0555695482f, 0.1814330816f, -0.0166707244f, -0.1500361264f, -0.1667214781f, -0.0202899296f, -0.1141147986f, 0.2029838711f, -0.2203935981f, -0.1073122174f, -0.1272846162f, 0.0729831159f, 0.2199375629f, 0.0774139836f, 0.0849753693f, -0.0221357904f, 0.2534471452f, -0.0213682093f, 0.0223383028f, -0.1246381998f, 0.1822297275f, 0.0264958311f, -0.2595358789f, -0.0764031783f, -0.1060434207f, -0.2943607867f, -0.2470887452f, 0.3165450096f, -0.0950617567f, 0.1904836148f, 0.0964977071f, 0.1173581257f, -0.0292382408f, 0.2341832221f, -0.1928308457f, 0.1207755804f, 0.3989728689f, -0.0989592299f, 0.0784561634f, -0.1622511744f, -0.1229203343f, -0.0095677972f, -0.2285345644f, -0.0117704030f, 0.0636726171f, -0.0295175239f, 0.0539996810f, -0.0034276163f, 0.2179605067f, -0.1746260375f, -0.0090975398f, -0.0252093971f, -0.0104356976f, -0.0922823846f, -0.3860862553f, 0.0801443681f, -0.4433558583f, -0.0403357483f, 0.2663961053f, -0.0498385653f, 0.1761226952f, 0.2186101973f, -0.3053142130f, 0.2599742711f, 0.0361048989f, 0.2328702062f, -0.0914194435f, -0.2608441710f, 0.3855338693f, 0.0198565833f, -0.0414427668f, -0.1452788115f, -0.1421984285f, 0.1504423916f, -0.0744203776f, 0.0271264520f, -0.0401045270f, -0.0881818011f, -0.1718506813f, 0.0817976445f, 0.1255213469f, 0.0160124488f, -0.0889728665f, 0.1872023344f, -0.2078200728f, 0.3468446136f, -0.0155493515f, -0.0757601485f, 0.1990018934f, -0.0343402363f, -0.0071058949f, 0.1071547717f, -0.0369743966f, 0.4554161131f, -0.2288955748f, -0.1932031810f, 0.1540373862f, -0.0322714038f, -0.1760125309f, 0.1648315489f, -0.1759012789f, 0.0557978749f, 0.0856306255f, -0.0127199730f, 0.0458694510f, -0.0737026781f, 0.0145782381f, 0.2492397279f, -0.1317834258f, -0.1859713346f, -0.0740249678f, 0.1300137043f, 0.0964733064f, 0.0694077238f, 0.0342681296f, 0.1318782568f, -0.1466051787f, 0.2121009380f, 0.2519653738f, -0.0393337086f, -0.0437774286f, 0.2896594107f, 0.1479862928f, -0.0935009867f, 0.0457547531f, -0.0940264240f, 0.0672254562f, 0.3589800000f, 0.2749359608f, 0.0062063471f, 0.0544164255f, 0.1244748682f, -0.2040464133f, 0.0865529776f, -0.4065368772f, -0.0172965527f, -0.0364419706f, 0.0407982655f, -0.2130181789f, -0.2480076849f, -0.0135682318f, -0.2695870697f, 0.0337056741f, -0.0266146660f, 0.4843306839f, -0.0778887272f, -0.1020880267f, -0.0884528384f, -0.1686262786f, -0.0283455737f, 0.0808291063f, -0.0053483085f, -0.1021154374f, -0.4123431146f, 0.0213192310f, 0.2000896335f, 0.0078521445f, 0.1296337247f, 0.0377588831f, -0.1894146800f, 0.1409958303f, 0.2160840482f, 0.2380136549f, -0.0514098331f, -0.3293448985f, 0.1245572269f, 0.0770925879f, 0.1677839309f, 0.3128347397f, -0.0158445369f, 0.1424084306f, 0.1216196865f, 0.2415909171f, -0.4097728133f, 0.1031311080f, -0.0267740563f, 0.2831328511f, 0.1786178648f, -0.2524565458f, 0.0431618430f, 0.2802490592f, 0.1091004238f, -0.0521561205f, -0.2371697575f, 0.2320067734f, -0.0042699920f, 0.0691135749f, 0.1579779685f, 0.0813943371f, -0.0244935490f, -0.0195082407f, 0.1822399497f, -0.0209838878f, 0.2295696735f, -0.2920224667f, -0.0354613326f, 0.2306638956f, -0.2584285438f, 0.3175136745f, 0.2129870504f, -0.1274407506f, -0.2044149637f, -0.1004556268f, 0.0347202793f, -0.0064098677f, 0.1352986991f, 0.0950918645f, -0.0146205071f, -0.0917011499f, -0.1327980161f, 0.1828026175f, 0.0800968558f, -0.0298186764f, 0.0564691387f, -0.0135453306f, -0.0067634927f, 0.1947666407f, -0.0335479341f, 0.0114014819f, 0.1000818089f, -0.0358038358f, 0.0433460809f, -0.0196896903f, 0.0652443767f, 0.1770120114f, 0.1799241006f, -0.3651810288f, -0.1086767986f, 0.0153366039f, 0.0050722910f, 0.1419240534f, 0.2048962861f, 0.0589807145f, -0.1170396805f, -0.0699919462f, -0.0890294164f, 0.0431650020f, -0.0516376793f, -0.3313409090f, 0.1484569907f, -0.1357283443f, -0.4627575278f, -0.0693376213f, -0.4565971494f, 0.4436240494f, 0.0188683774f, -0.0427840166f, 0.0602464937f, 0.2581438720f, 0.0834763348f, -0.2312766761f, 0.2912624180f, -0.0390617289f, 0.1495252848f, -0.0175798647f, 0.0113857277f, -0.1102132872f, -0.2639558911f, -0.1338368207f, -0.1249421537f, 0.0981386602f, -0.1594881862f, -0.1980018467f, -0.2848357558f, 0.1253635287f, 0.0019823981f, -0.0056903819f, -0.1612979621f, -0.1675209552f, 0.1280423850f, 0.3125430346f, -0.0522993654f, 0.0036717018f, -0.1913209260f, -0.2351925969f, -0.0669498742f, 0.0289894436f, -0.1252066493f, 0.1363167316f, -0.1138489172f, 0.1438278258f, -0.0104358913f, -0.2014378160f, -0.0685565323f, 0.0919674486f, 0.3241835535f, 0.1092896312f, 0.0114636933f, -0.0686909780f, -0.1953545660f, -0.3039004803f, -0.0126296608f, 0.2971419990f, -0.2405070812f, 0.1215235889f, 0.0664284974f, -0.1557672471f, -0.1209575236f, -0.0089360196f, -0.0911385193f, 0.0285141002f, 0.0886571705f, -0.1286112070f, 0.1252804250f, 0.2191630304f, -0.1741701812f, 0.0139483819f, 0.1466856748f, 0.2138007432f, 0.4359049797f, 0.2438074350f, -0.4562785327f, -0.0588269196f, -0.2557259500f, -0.2274938822f, 0.1304298788f, 0.0378529727f, -0.0204423144f, 0.1416127086f, -0.3157505691f, 0.0652901158f, 0.3580287993f, -0.0782068148f, 0.0587643348f, -0.2813794613f, -0.1296537519f, 0.1979897916f, -0.0685347393f, -0.2781182230f, 0.1003144085f, -0.0043631098f, 0.1143862233f, 0.1870402545f, -0.1379277259f, -0.0024892252f, -0.1260750592f, 0.0013802677f, 0.1409749985f, 0.1628843099f, 0.2781197727f, 0.0217964463f, -0.0513290986f, 0.0569036491f, -0.2438638657f, 0.0250797812f, -0.1895935237f, 0.1159110516f, 0.1456596255f, 0.2094018608f, 0.0728589222f, 0.0448943228f, 0.2150587589f, 0.0322653651f, -0.0467240848f, -0.2145328969f, -0.0231464487f, 0.1872655749f, -0.1812819391f, -0.1351138353f, 0.2783819437f, -0.1224490851f, -0.2171519548f, -0.0047352263f, 0.3700533509f, -0.0351161808f, -0.0008761745f, 0.0253365412f, -0.2830871642f, -0.0393778868f, 0.1267161816f, 0.2464752793f, -0.0696476400f, -0.2296792269f, 0.0391410477f, 0.2993613183f, -0.0126429778f, -0.0382289477f, -0.2985414267f, -0.0912061557f, 0.1100420430f, 0.2113095224f, -0.1333560944f, -0.2144246697f, 0.1009773985f, -0.0723850727f, -0.4267087579f, -0.1269688308f, 0.2775965929f, 0.1162608266f, 0.1633903235f, 0.2841552198f, -0.0072262175f, 0.1074557155f, 0.0597322993f, -0.0304519124f, 0.1849519610f, 0.0011675195f, 0.2924200594f, -0.0132186050f, -0.0379718542f, -0.0315063857f, -0.3311272264f, -0.1008198112f, 0.1400947571f, -0.0868375301f, -0.0952531695f, 0.1709401608f, 0.0695937499f, 0.1378705949f, 0.0298366100f, -0.0935022905f, 0.2723875344f, -0.2954014540f, -0.0700901225f, 0.0795969293f, 0.1705406606f, -0.2745139599f, 0.1799716949f, -0.1600871086f, -0.2298380584f, 0.0669190586f, 0.4477313757f, -0.2697343230f, 0.1840238720f, 0.0993139893f, 0.0152973244f, -0.2952706814f, 0.0784910396f, -0.3442911208f, 0.2161056548f, 0.1647896618f, -0.4073665440f, 0.0222667828f, -0.0248085577f, -0.1756034493f, 0.0991325751f, 0.2222025841f, 0.2923686802f, 0.0066806353f, -0.0306755938f, 0.0854634866f, 0.0426117294f, 0.3532437980f, -0.1305251420f, -0.1826600134f, -0.1142848656f, -0.0217192322f, 0.0271933042f, 0.1008419096f, -0.1373105198f, 0.1702412814f, -0.1384990662f, -0.1169621125f, -0.3553167284f, -0.0404727794f, 0.0619297810f, -0.0766146630f, 0.1888813674f, 0.1567131728f, -0.0113434512f, 0.1743709594f, -0.0167931896f, 0.1040528342f, -0.0187167879f, -0.0646698102f, 0.0798149854f, -0.0425473601f, 0.3467368782f, 0.2533609569f, 0.0495363735f, 0.3666565418f, -0.0145809129f, -0.2490227222f, 0.0506693386f, 0.1508689523f, 0.1025345623f, -0.2214674503f, -0.0472273752f, 0.0491101295f, -0.1680115461f, -0.1796686351f, 0.2590500712f, -0.0364345014f, -0.0417631045f, -0.0137754092f, -0.2412905693f, 0.0685948357f, -0.0790530592f, -0.0559349954f, 0.4140911400f, 0.2398911417f, 0.2322278023f, 0.3553053439f, -0.0001084937f, -0.2628485262f, -0.1728960872f, -0.0899635553f, 0.0216969587f, -0.1097826809f, 0.1025158912f, 0.0544198826f, 0.3885493279f, 0.0340070687f, 0.2661317587f, 0.0885947347f, 0.0667134672f, 0.1162830964f, -0.0756819397f, 0.0464701056f, 0.0816216320f, 0.2402788550f, -0.0066497470f, -0.3375768363f, 0.1085970625f, -0.0092966398f, 0.0817330554f, 0.0333816074f, 0.0494163558f, 0.0406185165f, -0.3207120299f, -0.0526227802f, -0.0396993421f, 0.0786613822f, 0.1320585459f, 0.0588068329f, 0.0218060147f, -0.2147479206f, -0.0243527833f, 0.2016300708f, 0.1097674146f, -0.2233151495f, -0.4092117250f, -0.1227836907f, 0.1183460280f, -0.1543684900f, 0.2238160521f, -0.1471951455f, -0.0915545523f, 0.0967978239f, 0.3359418213f, -0.0655931234f, 0.1760384142f, -0.2794542909f, 0.3139910102f, -0.0232981797f, -0.0172659792f, 0.2768879235f, 0.0995431319f, 0.3590661287f, 0.2467390597f, 0.1093344092f, -0.1348930001f, -0.0761965364f, 0.1287592351f, -0.2518886030f, 0.0366683640f, -0.1895990968f, -0.1525477618f, -0.0304396953f, 0.0857181475f, -0.0759241730f, 0.2575180233f, 0.0126388986f, 0.1231331602f, 0.1249937862f, 0.2571640909f, 0.3625134826f, 0.2861132622f, -0.0919420049f, 0.0117016668f, -0.2559011579f, 0.0892338008f, -0.0384354703f, -0.0114856120f, 0.2112273872f, -0.0781492814f, -0.1129568517f, -0.1521412879f, -0.2383629829f, -0.0179974381f, -0.0043713469f, 0.0082560424f, 0.1232732087f, -0.0530300289f, 0.1898848563f, -0.0290501956f, 0.0403633304f, 0.0596293770f, -0.1423128396f, 0.2228108197f, 0.0584680922f, 0.0207729898f, 0.1859207302f, 0.2382345498f, 0.0997140408f, -0.0384505279f, -0.2627893388f, -0.0710707307f, -0.1121808514f, -0.2635821700f, 0.0491330363f, 0.1533589661f, 0.1316321939f, 0.0959946662f, 0.3452369273f, -0.0554714054f, 0.1295468807f, -0.0597135499f, -0.1486894786f, 0.0045799976f, 0.0479165502f, -0.2520307004f, 0.0748342872f, -0.0310108550f, -0.1545129418f, 0.0831905231f, -0.0937327594f, -0.1325423270f, -0.1517773271f, 0.0083878953f, 0.2059031874f, 0.3047014177f, 0.2366677076f, -0.1312595755f, -0.2168717831f, -0.0664503127f, 0.0543554649f, 0.0725427568f, 0.1922178864f, 0.2143684179f, 0.2511641681f, -0.1948242784f, 0.0890620500f, 0.4361114502f, -0.1023302600f, -0.2117205262f, -0.0472088829f, 0.1325230747f, 0.0991220325f, 0.1214811876f, 0.1046920270f, 0.2206536084f, -0.1380584091f, -0.3302794695f, 0.2930595875f, 0.3985154331f, 0.0205113050f, -0.1148992404f, 0.1059841514f, -0.2856166065f, -0.1644261032f, -0.2502548397f, 0.0326615013f, 0.1196008027f, -0.2445183247f, 0.1167824641f, -0.0236055665f, 0.0023066017f, 0.0019524051f, 0.1229805425f, -0.0879235640f, 0.0093273865f, -0.1351839602f, 0.3263487518f, 0.0226397645f, -0.2112276256f, -0.3376085162f, -0.0851127505f, -0.0612856746f, -0.2680096924f, -0.0881880820f, -0.1338403672f, 0.0384726226f, 0.0527756475f, -0.2667355239f, -0.0538671613f, 0.0984457210f, -0.4295203686f, -0.2400225997f, 0.0593040064f, 0.0619433932f, -0.0024778617f, -0.1757704914f, -0.1531193107f, 0.1991271079f, -0.0058876281f, -0.2101934105f, 0.1434378475f, -0.1492244899f, 0.2383186072f, -0.3105057180f, 0.1198283806f, -0.1974089295f, 0.0497319140f, 0.2387152314f, -0.2253378481f, 0.1374581158f, -0.0149910543f, 0.2313313484f, -0.1133073494f, 0.1222992241f, 0.0981046632f, 0.2150880247f, -0.0112566939f, 0.3787907362f, -0.1670807302f, -0.2843798399f, -0.1163125634f, 0.0698125660f, -0.0278458130f, -0.1532852203f, 0.1142866388f, 0.3511897027f, -0.0113072377f, 0.1394363344f, 0.3904710114f, -0.0854546279f, -0.0393893123f, 0.1340686232f, 0.3766333163f, -0.1360414624f, 0.0957593694f, -0.0265076272f, -0.1698619425f, -0.1489045769f, 0.0956842601f, 0.1700293273f, -0.1057316661f, 0.0010957018f, 0.2344058752f, 0.2578031421f, 0.0275135543f, 0.1118912473f, 0.0954491198f, 0.2921481133f, 0.2828620970f, 0.1867175996f, -0.0954013318f, 0.2745767832f, -0.2187165320f, 0.2067388147f, -0.4110178649f, 0.2733552158f, -0.1232011765f, 0.1444043368f, 0.0678031147f, 0.0413569398f, 0.0883294493f, -0.1086483002f, 0.0465380847f, -0.1633128375f, 0.0359808877f, 0.0234004185f, 0.0209249407f, -0.0574751534f, 0.1164246202f, 0.1183699593f, -0.2896914780f, 0.2357247174f, 0.0650867745f, 0.1608806700f, -0.0235633757f, 0.1478674561f, -0.2793980539f, -0.1051290110f, 0.0438419431f, -0.0923424289f, 0.1978168488f, 0.1762159616f, 0.1733504087f, -0.0898604989f, -0.0776412636f, -0.1130782440f, -0.4693010151f, -0.1916973740f, 0.0441939980f, -0.0709383041f, 0.2598617971f, 0.1620451659f, 0.0318307467f, -0.1540805995f, 0.1229467019f, -0.2036142647f, 0.0415591560f, -0.1149723902f, -0.2914134562f, -0.1304779500f, 0.0190821514f, 0.0876816809f, -0.1090210304f, -0.1865857244f, 0.0270428248f, -0.0192719568f, 0.1702083796f, -0.1242172644f, 0.0402653329f, -0.2523251474f, -0.1938119680f, -0.0854832307f, 0.0059272205f, -0.1291922331f, 0.1085733250f, -0.0027261076f, -0.0617998317f, -0.0920058563f, 0.0462704040f, 0.4499417841f, -0.0962696373f, 0.0288611539f, -0.2603857517f, -0.3949324787f, 0.3546803594f, 0.0493796282f, 0.2331875116f, -0.1774926633f, -0.0897803456f, -0.1917499602f, -0.1527122259f, -0.0819311365f, -0.1636362523f, -0.4231197238f, 0.0004245847f, 0.0853698030f, 0.0863094479f, 0.1308685690f, 0.1679861546f, -0.1821714938f, 0.1535281539f, -0.0160097405f, -0.2247435302f, 0.0318280049f, 0.1452774853f, 0.0479799174f, 0.2523517907f, -0.2069222927f, 0.1320846081f, 0.0235376954f, -0.1316251308f, 0.3850489557f, 0.3309654891f, -0.3194019198f, -0.0457453169f, 0.0188381542f, -0.0721660331f, -0.2231175750f, -0.2885078192f, -0.0705835819f, 0.1238817200f, 0.0409432910f, -0.0804180503f, -0.0849846378f, 0.0513686165f, 0.2089303434f, -0.0371774547f, -0.0016697441f, -0.1197433397f, -0.1177044511f, 0.1032720357f, 0.2418529391f, -0.1308940053f, 0.0066226181f, 0.1973256618f, -0.2258990556f, -0.0268564709f, 0.0368647054f, -0.5373251438f, -0.3253862858f, -0.0273942500f, -0.1275394559f, 0.0307812672f, 0.0150599321f, -0.0981024429f, 0.0463585407f, 0.0443489328f, -0.0605052151f, -0.4899877906f, 0.1545290947f, -0.2415128201f, -0.1484380364f, -0.3841571510f, -0.3451505303f, 0.0972517729f, 0.0436327457f, 0.1005527079f, -0.0407733582f, 0.1898946464f, -0.1166711003f, 0.0730598345f, -0.1456494778f, 0.0183055140f, 0.0122224018f, 0.1049996912f, -0.0650253594f, 0.1250221878f, -0.0228406265f, 0.2661884427f, 0.0123921866f, 0.0928653777f, -0.1683315635f, -0.1880216599f, 0.1352068484f, -0.1749721617f, 0.1362870038f, 0.3741153479f, -0.0075406455f, 0.2171848863f, 0.2221292257f, -0.2915410101f, 0.0518457070f, 0.1782462299f, 0.0857398286f, 0.0114915064f, 0.0576718301f, 0.0538623855f, -0.0560890175f, 0.7356179357f, -0.4191107154f, 0.7127278447f, -0.5526502132f, -0.0883135945f, -0.4130362570f, 0.2557083070f, -0.1975677460f, -0.4147759378f, -0.2550180852f, -0.0967882946f, -0.1517889053f, 0.2196966261f, 0.1212077439f, 0.0013618926f, -0.2398377806f, -0.0080243796f, -0.0354916528f, 0.1454578936f, 0.4126837850f, -0.2055768520f, 0.4241505861f, 0.4753998220f, -0.0344941579f, 0.4381816685f, 0.0880775154f, -0.0587719232f, 0.2048253119f, -0.1072850078f, 0.3594811261f, -0.0061620534f, 0.8127740622f, 0.5478983521f, 0.4331402183f, -0.0002764239f, -0.3062804043f, -0.1685593724f, -0.0809419304f, 0.1234958321f, -0.7150735855f, 0.2697819769f, -0.3446408212f, 0.1866689324f, -0.1362830102f, 0.1827612221f, -0.3330442011f, -0.2899990678f, 0.3576569855f, -0.3267584443f, 0.2422989607f, -0.4369203150f, 0.2822374403f, 0.0885764733f, -0.2798745036f, 0.3563216031f, -0.1865658909f, -0.5484730005f, -0.4886482060f, -0.5084713697f, -0.5388597250f, 0.3716457188f, -0.1202572882f, 0.2671156824f, 0.6614305973f, 0.1779476851f, 0.0539818630f, 0.0609813482f, 0.1241107360f, -0.2974160612f, 0.0856263041f, 0.1907772869f, -0.2392993569f, -0.2057209313f, -0.1179126427f, 0.0325339325f, 0.1527994722f, 0.3448705971f, 0.0264331382f, 0.0990569219f, -0.0246051941f, -0.0223695226f, -0.0713298544f, 0.0286392588f, 0.1493154764f, -0.0463317633f, 0.3651758432f, 0.2468236834f, -0.1217801422f, -0.0650231913f, -0.0654016063f, -0.2316701263f, -0.0185887814f, -0.0954442099f, -0.0407018252f, 0.0229647662f, 0.0014333962f, 0.4955103993f, 0.1951660216f, -0.2513763607f, 0.0448119156f, -0.1578676552f, -0.5612719059f, 0.4479885995f, -0.0462915748f, 0.1228849962f, 0.0604215115f, -0.1594850719f, -0.0081258928f, -0.1952349544f, -0.1197117865f, -0.1122286245f, 0.0021104566f, 0.0004978518f, 0.0385591388f, 0.0963760689f, 0.3255061209f, -0.2493305951f, -0.0251702722f, -0.1255399585f, 0.1652427912f, -0.0802393109f, -0.3746976256f, -0.1546234637f, 0.1687825322f, 0.0521334223f, 0.1278396249f, -0.2818495333f, 0.1190382540f, -0.2981159091f, 0.1098217666f, -0.0886485875f, 0.1895455271f, 0.4014966190f, 0.1539767385f, -0.1321146041f, -0.2216572613f, -0.2710058093f, 0.1526668072f, -0.0954535827f, 0.0495507568f, -0.1274445802f, -0.0031843511f, -0.1698809564f, -0.0543797836f, -0.0388307273f, -0.0494693518f, -0.1671762913f, -0.2719741762f, 0.0949122608f, 0.1141013056f, 0.0934633985f, -0.2816011906f, 0.1957112551f, 0.0833203495f, -0.0274655987f, 0.2512087524f, 0.3115199506f, -0.1571664512f, -0.0475983694f, 0.1142000705f, 0.2803743482f, 0.0045675742f, 0.1022086143f, -0.0007152481f, 0.2152622044f, 0.0374016687f, -0.0661041960f, 0.0335489623f, -0.0008754951f, -0.2178093344f, -0.1594635546f, -0.1487816125f, 0.3610281646f, -0.4033617079f, -0.0470331162f, -0.2476937920f, -0.1847867817f, -0.2045923769f, 0.1188442037f, 0.0401712582f, -0.1982200593f, -0.3227550685f, 0.0924129114f, -0.1071768180f, -0.1667009741f, -0.0251000877f, -0.0173895247f, 0.1479575783f, -0.0966727287f, -0.0759500489f, -0.1292942911f, -0.1498269290f, -0.1363784373f, 0.1270365864f, 0.3643742204f, 0.1245940626f, 0.1646411568f, 0.0017362321f, -0.4253799021f, 0.0438831300f, 0.0996137708f, -0.0015531481f, -0.1315584630f, 0.1887882650f, -0.1054827869f, 0.0411382690f, -0.1590128839f, -0.0104137491f, 0.1124464571f, -0.2500266731f, -0.0499793142f, 0.1627399921f, 0.0033959739f, -0.2151370049f, 0.0266507752f, -0.3336437643f, 0.0847228691f, -0.0765996054f, 0.0546121225f, -0.0742558837f, -0.0933706462f, -0.0140834628f, -0.1486334652f, 0.3251118660f, 0.0857694745f, -0.1046296358f, 0.0537305251f, 0.0074975928f, -0.1310893446f, -0.0713153481f, 0.0160187911f, 0.0977872387f, 0.2868857384f, 0.0499514565f, -0.1019735932f, 0.1945892721f, -0.2663213015f, -0.0013116704f, 0.2331118882f, 0.4330709577f, -0.3259580433f, -0.1196151748f, -0.1606665403f, -0.0938086584f, 0.0390142500f, 0.2352921665f, -0.3588156104f, 0.1333151311f, -0.0589169897f, -0.0927215815f, 0.2982770205f, -0.1357576847f, 0.0688378066f, -0.0554930568f, -0.2093636692f, -0.1502896845f, 0.0337514691f, -0.2819196880f, -0.1706022620f, -0.2212552726f, -0.1715597510f, -0.2471027821f, 0.1158158183f, -0.2943482995f, -0.0765239298f, 0.1023481339f, 0.0825515017f, -0.2944469154f, -0.1159295961f, 0.0829623118f, -0.0134149576f, 0.0485301912f, 0.0013466493f, 0.0291108061f, -0.0762524754f, -0.1504806578f, 0.3136191070f, 0.1883168519f, 0.2733459473f, -0.2913351357f, -0.1148140579f, 0.0573140234f, -0.0561166182f, -0.0823639408f, 0.0566497706f, 0.1912779212f, -0.1325081438f, -0.2725855410f, 0.0009784650f, -0.1201929674f, 0.2093282193f, -0.0449755341f, 0.4228549302f, 0.1998129189f, 0.0140751256f, -0.1013567373f, 0.0602168366f, 0.0187057219f, -0.1939736903f, -0.3244857788f, -0.3492601514f, 0.0776555091f, 0.2454429865f, 0.2055119574f, 0.0217442084f, -0.0157272965f, 0.1089160219f, -0.1044304743f, -0.0142497011f, 0.0831904784f, 0.0795307159f, 0.2748286426f, -0.0733688474f, -0.0087466547f, 0.1719334573f, -0.2682645023f, -0.1363250762f, 0.0950562879f, -0.3118936419f, 0.0881890580f, -0.0424110293f, 0.0449515246f, -0.2302260399f, 0.0785720050f, -0.0063353698f, -0.1610273421f, -0.0469732024f, -0.0131647773f, 0.1138653383f, 0.2276632488f, 0.1160771921f, -0.2376699597f, 0.3138178885f, 0.1137247905f, 0.2414148897f, -0.0042550312f, -0.3255458474f, -0.2496881336f, -0.0644690990f, -0.1072567776f, 0.1218900532f, -0.2106748521f, -0.0452908911f, 0.2095379382f, 0.2075602561f, 0.0792584941f, 0.0221908651f, 0.1007292271f, 0.0196151733f, -0.2750427127f, 0.0286182798f, -0.0188535675f, -0.0028343752f, 0.1529568881f, 0.1390715986f, -0.3242470622f, -0.1062561050f, -0.2961373329f, -0.2204401046f, -0.1689042896f, -0.0270483214f, -0.0553322546f, -0.0946791023f, -0.2044718564f, 0.0583759174f, 0.0743157193f, 0.1053231210f, -0.0689994842f, -0.0641164929f, -0.4032835364f, -0.0717973709f, -0.1819156706f, 0.1724413782f, 0.2932012081f, -0.2676750124f, 0.2499675006f, -0.0234385077f, -0.3786715567f, -0.3407446444f, -0.1074934751f, 0.0229226965f, 0.0818400830f, 0.1572431177f, -0.0821046382f, -0.0269412342f, -0.0866688415f, 0.1785844117f, -0.1144435406f, 0.1390704960f, -0.0574105941f, -0.0080890777f, -0.3054909110f, 0.1374643743f, 0.1187508926f, 0.0774235204f, 0.2094707787f, -0.0672669038f, -0.0487164967f, -0.0723832622f, 0.2026522607f, -0.0633909851f, 0.1753549576f, 0.2126904577f, -0.0416291133f, 0.3615782559f, 0.0371577516f, -0.2311425507f, 0.4791471362f, -0.2107256949f, -0.0443694778f, 0.0064687287f, -0.2201590687f, 0.0349061862f, -0.5890750289f, 0.3359129429f, 0.0423063487f, -0.0506621376f, -0.0859090984f, 0.1105525941f, -0.1105535403f, -0.0085764742f, 0.0055084205f, 0.0608279333f, 0.0218131635f, 0.2117798328f, -0.0236961227f, -0.1136489585f, -0.0033155037f, -0.1644431651f, -0.0703164861f, 0.0454093963f, 0.1738426536f, -0.1070221141f, 0.1044164076f, -0.1258620024f, -0.0405233242f, -0.1846862286f, -0.3726052046f, 0.1936394721f, -0.1544413418f, 0.0736040771f, -0.1478640288f, -0.0881668851f, -0.1756340265f, 0.2969644368f, 0.1047287583f, -0.1342359632f, -0.0491536297f, 0.1788403690f, -0.4456736147f, -0.0841773748f, 0.2053407431f, 0.4840859473f, -0.0500633679f, 0.1473699957f, 0.0347600318f, 0.1223095730f, 0.0998875052f, 0.1471377313f, 0.1498287320f, -0.0910347626f, -0.0231378097f, 0.1528496295f, 0.2781491280f, 0.0984334797f, 0.1927691847f, -0.2297699451f, -0.0280153081f, -0.1906308234f, -0.2314789891f, 0.3444919288f, -0.1521389633f, -0.0823381245f, 0.1592194736f, -0.0987835154f, 0.1025323719f, -0.2013447732f, -0.1418596357f, -0.2077945173f, -0.0472062305f, -0.1685629487f, -0.1377761066f, -0.0667502806f, -0.1446552277f, -0.4256778657f, -0.0679448023f, 0.0922058970f, -0.0274425969f, 0.3155256510f, 0.0782156438f, -0.0533584952f, -0.1166064069f, 0.1807945669f, 0.0378839672f, -0.2432957590f, 0.1654972732f, 0.0764894113f, -0.1240604967f, -0.0361375771f, 0.2138571590f, -0.0241267700f, -0.0049594338f, 0.2160665095f, 0.0712268874f, -0.3351017535f, -0.0807219371f, 0.0401355475f, -0.0498551503f, -0.0799186677f, 0.2061866671f, -0.0122807622f, 0.2331696898f, 0.0566977188f, -0.0966453999f, 0.3291496933f, -0.0923291370f, 0.2723039091f, 0.0651044995f, 0.0698771998f, 0.0911524221f, 0.0260089245f, -0.0788490772f, 0.0283485819f, 0.0218121111f, -0.1000655293f, 0.3305101395f, 0.0601560362f, -0.1250097454f, -0.0893129408f, 0.0427475795f, -0.0831807181f, -0.2237360179f, -0.2133435011f, -0.0584423617f, -0.0379084274f, 0.2274194211f, -0.0685002729f, -0.1715906113f, 0.2083248198f, 0.1822938025f, 0.1019418910f, -0.0025381695f, -0.1326453835f, 0.2551832497f, -0.0049526133f, 0.0520653985f, 0.3109904826f, -0.1807980984f, -0.0207549743f, -0.1398663372f, 0.2482064813f, 0.1822609603f, -0.1584734470f, -0.0361556858f, -0.4159668684f, -0.1438248605f, -0.3096047938f, -0.1521409303f, 0.1638013422f, -0.3672682047f, 0.3447411358f, 0.3312127590f, -0.1269773692f, 0.1067177355f, 0.2335073650f, 0.1768909246f, 0.0500401221f, 0.1050758809f, 0.0161949024f, 0.0945855826f, 0.0018713194f, 0.0086205620f, -0.0401458405f, -0.0577913709f, -0.2478591353f, -0.0412114635f, 0.3200791478f, -0.1586301178f, 0.4736023545f, -0.2512679696f, -0.2970834672f, -0.3005175591f, 0.1675893068f, -0.5657018423f, -0.3271538913f, -0.2979602516f, -0.0967551172f, -0.0302699599f, 0.4375007749f, -0.1267691255f, -0.1610042304f, 0.2550433278f, 0.1085455194f, 0.0038070204f, 0.0425996706f, -0.2130599022f, -0.4088128209f, 0.1857405603f, 0.3800767362f, 0.3423595726f, 0.5992271900f, -0.0080169449f, -0.1821471751f, -0.5081356168f, -0.2378470451f, 0.4092026055f, -0.4461191595f, 0.2972263396f, 0.3015478551f, 0.2997380793f, -0.0386793129f, -0.0687291175f, -0.2297977358f, -0.3179587126f, 0.2938919365f, -0.5057220459f, 0.4949097335f, -0.4788554311f, -0.1569545418f, -0.1738367230f, 0.1703116447f, -0.2547636628f, -0.3515556157f, -0.0293583181f, -0.3314321041f, 0.2307188511f, -0.1775256991f, -0.0786341429f, 0.4624949098f, -0.2765513361f, 0.0679497346f, -0.2082477063f, -0.6714071035f, -0.0247500744f, -0.1669204384f, -0.4185271859f, 0.3503895700f, -0.1125302911f, 0.2190392315f, 0.3977300227f, 0.0613451377f, -0.1424804479f, 0.2656641603f, 0.0234710351f, -0.1139875501f, -0.0828085616f, -0.1127725914f, 0.0188021120f, 0.0340697244f, -0.1643867791f, -0.2623732090f, 0.0052555399f, -0.1939379275f, 0.3781582713f, -0.1776991338f, 0.0509030968f, -0.2669821680f, 0.2332537323f, 0.0258674286f, 0.0399934500f, 0.0503831170f, -0.1586945653f, 0.0840793401f, -0.0565271713f, -0.2716059089f, -0.1824914515f, 0.2072098553f, -0.2664711475f, 0.0497739613f, 0.0169078596f, -0.0037005579f, -0.2310536653f, -0.1182526201f, 0.0679832697f, 0.0227634385f, 0.1375922263f, -0.1305426955f, -0.0000753397f, -0.1014835835f, 0.2045467943f, -0.2602206767f, 0.0762430951f, 0.0771002099f, -0.3703403771f, 0.0759111643f, -0.3186940253f, -0.0229127444f, 0.0518331565f, 0.1065575033f, -0.1834279895f, 0.2235810608f, 0.1565801501f, 0.1129549891f, -0.2594408691f, -0.4056476057f, -0.0092999209f, -0.0855990425f, -0.3190810978f, 0.0786894262f, 0.1639357060f, -0.1215102151f, 0.1032972187f, 0.3255776167f, -0.0029184087f, -0.0027992006f, 0.0851206779f, -0.0947992578f, 0.0135734277f, -0.1353724748f, -0.0398604833f, 0.0010010293f, 0.0142505113f, 0.1054473668f, -0.2268236876f, -0.1610487401f, -0.0898174495f, 0.1236498132f, -0.1051467136f, -0.0742913559f, 0.0900216699f, -0.0546460487f, -0.0889544860f, -0.0754109100f, -0.0495813116f, 0.3981780112f, 0.1218632981f, 0.3347541094f, -0.0437643714f, -0.0933424905f, 0.0071945074f, -0.1452136189f, 0.2578878403f, 0.5079209208f, -0.1552478224f, -0.1350243688f, 0.2940278947f, -0.4627943635f, 0.0379902348f, 0.1173461899f, 0.3576769233f, -0.1112432182f, -0.3600428700f, 0.2582413256f, 0.1029739901f, 0.0357164666f, 0.3097031713f, 0.0957808867f, 0.0652898625f, 0.2109051645f, -0.1185067296f, 0.0311764125f, 0.0868654028f, 0.1703293920f, -0.0223767497f, -0.1736244112f, -0.1222366467f, 0.2099490464f, -0.1318225414f, 0.0824411288f, 0.1178439707f, 0.0785142854f, 0.1180504933f, 0.0337623432f, -0.2401589006f, 0.0476929359f, -0.1613928378f, 0.0836458355f, 0.0492825247f, -0.0597492382f, -0.0483132489f, -0.0282466374f, 0.0962828696f, 0.1884366870f, 0.0245787483f, -0.0473483913f, 0.0541310124f, -0.1110122204f, 0.3237470090f, 0.0857022479f, 0.1432460248f, 0.0852576569f, -0.1301721483f, 0.1991733611f, -0.4121407270f, -0.2009514570f, 0.2569803596f, 0.2736144960f, 0.0369325131f, -0.0872150287f, 0.0534551330f, 0.2998119593f, 0.0739419311f, -0.0866524354f, -0.0438323729f, 0.1104178503f, -0.1035422832f, 0.1744275093f, 0.1265862733f, 0.5118850470f, -0.1554836184f, -0.1317024827f, -0.2592317760f, -0.1823801547f, 0.2572804093f, -0.1013336480f, 0.0289089233f, 0.0998933762f, -0.0901918709f, 0.2950271070f, -0.0515354015f, 0.0413639210f, -0.2298381776f, 0.0944842175f, -0.2471766621f, 0.2102895230f, 0.1095629111f, -0.0141594131f, 0.0787382126f, -0.0473913066f, -0.0625118017f, 0.1437883824f, 0.2125226706f, -0.2708813846f, 0.0862813741f, -0.0096181212f, 0.3582129180f, -0.1717789918f, -0.0226069558f, -0.2060587108f, -0.0247795116f, -0.0868765712f, -0.3558152318f, -0.0545007028f, -0.0796229690f, 0.0221578386f, -0.0725886226f, 0.0177223329f, 0.3978938460f, 0.1194546074f, -0.0192278828f, 0.2344541997f, -0.2120528519f, -0.1096739843f, -0.4909947217f, 0.0871993303f, -0.0964698642f, 0.1702942997f, 0.2329933196f, 0.0616224967f, -0.0598004498f, -0.2863714993f, -0.1944580525f, -0.1134108454f, 0.1302728504f, -0.2390933782f, -0.0457620770f, -0.0326657817f, 0.1747199148f, 0.2475946993f, -0.3640816510f, 0.1291125566f, -0.2252676785f, 0.1717420518f, 0.0983088464f, 0.2986419201f, 0.0952154994f, 0.0173891503f, -0.0940811485f, -0.1365689635f, -0.0896375254f, -0.0695780963f, -0.1548002064f, -0.0335811451f, 0.0728924200f, 0.1616262943f, -0.1786008626f, 0.2067274749f, -0.1691686213f, 0.2028458714f, 0.4083079994f, 0.0949234143f, 0.1222908124f, -0.1662072837f, 0.0851099119f, -0.0566253886f, 0.1296970844f, -0.0352640972f, -0.0617332868f, 0.0496274941f, 0.2512727380f, 0.1232878789f, 0.1579855233f, -0.3057582676f, -0.0448700152f, -0.1193402037f, 0.0453953966f, 0.3167150617f, -0.0580094308f, 0.2971065342f, -0.2714755535f, 0.0344527625f, 0.2016959786f, 0.0371238180f, -0.0356565788f, -0.5181446075f, -0.0623895451f, 0.2270979434f, -0.1975945383f, 0.1701861322f, 0.0503884926f, 0.0759157687f, 0.1788188219f, -0.1788693517f, -0.1782589555f, 0.0767791793f, 0.2204708755f, -0.1344775259f, 0.2875435054f, 0.2141581774f, -0.2402852625f, 0.1164578125f, -0.2478967756f, -0.1886051446f, -0.2530975044f, -0.2234990299f, 0.3787433803f, -0.0722498894f, -0.0526420996f, 0.1913301647f, 0.1048147306f, 0.1968941987f, -0.4116071463f, -0.3973248303f, -0.3859070837f, 0.1937152147f, -0.5461638570f, -0.0007121933f, -0.2093359679f, -0.0593092889f, 0.1048067287f, 0.1094907969f, -0.4114694297f, -0.4628905058f, 0.1300333887f, -0.0723582953f, 0.2151998281f, -0.1461525708f, 0.0380543917f, 0.0733869523f, -0.2490663826f, 0.2326464653f, -0.3205582798f, -0.2783831358f, -0.3094842434f, -0.0414712094f, -0.9593402743f, 0.1642368436f, -0.3344959617f, 0.1857953221f, 0.0449347645f};
const float b2[] = {-0.0061109974f, -0.0012288881f, 0.0079738898f, 0.0012205904f, 0.0048483042f, -0.0023175413f, -0.0042876662f, -0.0084035797f, 0.0099620931f, 0.0269594602f, 0.0085047903f, -0.0095874481f, -0.0005356928f, 0.0028282073f, -0.0024022115f, 0.0071923835f, 0.0096882926f, -0.0020074954f, -0.0034736993f, -0.0066504846f, 0.0090452218f, -0.0024648556f, -0.0077318321f, 0.0093767857f, 0.0057108435f, -0.0032400638f, 0.0061426638f, 0.0087060779f, -0.0018403959f, 0.0055104606f, -0.0015546898f, -0.0000065384f, -0.0060926061f, 0.0010065732f, -0.0121906511f, -0.0028448964f, -0.0022048962f, 0.0000896953f, -0.0071777171f, -0.0024520210f, -0.0144277671f, -0.0006934414f, 0.0075681661f, 0.0001846369f, 0.0028159148f, -0.0065084645f, -0.0108349705f, -0.0029293145f, -0.0039849938f, -0.0031481599f, 0.0043079872f, 0.0036402871f, 0.0127227558f, 0.0028067306f, -0.0017036935f, 0.0028774459f, 0.0099865822f, -0.0106148859f, -0.0011248346f, 0.0100229373f, 0.0146644143f, 0.0035316949f, 0.0018098280f, 0.0035783283f};
const float W3[] = {-0.0024743350f, -0.0008051790f, 0.0103328880f, 0.0001784755f, -0.0068543968f, -0.0049158935f, 0.0013631114f, -0.0071651055f, 0.0013872153f, 0.0375352316f, -0.0063585150f, -0.0074521764f, -0.0099102231f, -0.0036235724f, -0.0031277388f, 0.0290617570f, 0.0033258146f, -0.0212933738f, 0.0030857315f, -0.0352485701f, 0.0335788243f, -0.0001423286f, 0.0051190867f, 0.0060144714f, 0.0200672541f, 0.0001145122f, -0.0300945397f, 0.0110714287f, -0.0037780467f, 0.0064560375f, 0.1357770860f, -0.0043363441f, -0.0088247536f, -0.0052349605f, 0.0045497506f, -0.0285253692f, -0.0168087445f, -0.0157288928f, -0.0031555684f, 0.0008149088f, 0.0273916628f, -0.0013521453f, 0.0159215406f, 0.0047631380f, 0.0055377968f, -0.0081327753f, -0.0019833273f, -0.0500910692f, -0.0326195955f, 0.1788367629f, 0.0117002502f, 0.0189984776f, 0.0202233102f, 0.0000479441f, 0.0010730281f, -0.0016404311f, -0.0062994668f, -0.0025289105f, 0.1345788687f, 0.0283251405f, 0.0061840904f, 0.0493541658f, -0.0013290073f, 0.0945915803f};
const float b3[] = {0.0093570044f};

#endif