#ifndef PARAMETERS_H
#define PARAMETERS_H

const float W1[] = {-0.1075216681f, -0.1438071728f, -0.0492597446f, 0.1856195182f, -0.0677795857f, 0.0851313993f, 0.0665711835f, -0.1692201644f, -0.1274637878f, 1.5892170668f, 0.1637433469f, 0.0926889852f, 0.3002821207f, -0.0742600411f, -0.0969378874f, -0.2283664197f, -0.2793360651f, 0.0013817156f, -0.0893326998f, -0.1005956605f, -0.0312636867f, -0.0445443168f, -0.0686794668f, -0.1973371655f, -0.1044716462f, -0.1576154530f, -0.0876066461f, -0.3199428618f, 0.0589534044f, 0.1206651255f, 0.0550697260f, -0.1058426127f, 0.1269949973f, 0.0553840660f, 0.2659396827f, 0.0037605392f, 0.6549552679f, -0.1627522409f, 0.1763374060f, -0.1392933428f, 0.2659660280f, 0.0805749074f, 0.4700245261f, -0.0083853165f, -0.1470108032f, -1.2618286610f, 0.1559246629f, 0.0314883105f, -0.0324767306f, 0.0311549902f, -0.1507961005f, -0.0477906801f, -0.0983163640f, 0.2693109810f, 1.2161490917f, -0.0488709621f, -0.0924720466f, -0.0615980327f, -0.0574175678f, -0.2496355325f, -0.0197259560f, 0.1374021620f, 0.2486767918f, -1.1818903685f, -0.0103463372f, -0.1041959375f, -0.1763278246f, -0.5909575224f, -0.0248748958f, 0.1269483119f, -0.3066948056f, -0.2769560516f, 1.3281519413f, 0.0013410160f, 0.0089721261f, 0.0974323675f, -0.1002621576f, -0.0652214810f, 0.0514560230f, 0.1905478835f, 0.1190846115f, 1.0572484732f, -0.1589725465f, 0.0130087007f, 0.2142096907f, -0.1153103411f, -0.0980631858f, -0.1139324307f, -0.0480017401f, 0.1226675138f, 0.7295002341f, -0.0288580805f, -0.0919245929f, -0.1542742103f, 0.1269418299f, -0.3715944290f, 0.1819053292f, -0.1157483533f, -0.0426356383f, 0.7756984830f, 0.0004419237f, -0.0617767908f, -0.0147624481f, -0.1263374388f, 0.2214100957f, -0.0603378341f, 0.0130211003f, -0.0663047060f, 1.0772199631f, 0.0626541749f, -0.1353043914f, 0.2998003364f, 0.0366847143f, 0.0338407382f, -0.0000095727f, -0.2405839413f, 0.0062317145f, -1.6780660152f, -0.1768768281f, 0.0095550753f, -0.2176425308f, 0.0705468878f, -0.0274695735f, -0.2124279290f, -0.0117364274f, 0.2146202475f, 0.1343411058f, 0.1401185840f, 0.1328381449f, 0.0484463684f, -0.3065716326f, 0.1985188574f, 0.0214653220f, 0.1425131261f, 0.1546414196f, -0.3650819957f, 0.0780845359f, -0.0003374970f, 0.0511074886f, 0.0074121980f, 0.0293526128f, -0.2785809040f, 0.2544258833f, 0.0891376436f, 0.0478855483f, 0.0345707610f, 0.0818698108f, 0.0569594465f, -0.0495327711f, -0.0296439119f, -0.2355199307f, -0.1136739030f, -0.1630289257f, 0.8404365182f, 0.3111509383f, 0.0295906924f, 0.1491374969f, 0.0346859060f, 0.4322012961f, 0.1198621020f, -0.3188386559f, 0.2376322150f, -0.3705537021f, 0.0065824590f, 0.1123755872f, -0.1649722904f, 0.1823851764f, 0.3721358180f, -0.1998207122f, -0.0777309462f, -0.1570847332f, -0.2539118528f, 0.0060261972f, 0.0611800291f, -0.1629959941f, 0.1113952994f, -0.3884363770f, -0.0581743233f, -0.0461939685f, 0.2959288955f, -1.0494036674f, -0.1757904440f, -0.0328043289f, 0.0118443957f, -0.0721601769f, 0.0175503138f, -0.0424514227f, -0.1466282159f, -0.1644622535f, 0.0564119332f, 0.1987230331f, -0.0708665699f, 0.2443189919f, -0.0471016690f, -0.1604983211f, -0.2003731132f, 0.2587595582f, -0.3975534737f, -0.1381106377f, -0.0328022279f, -0.0326064527f, 0.1629704386f, 0.2108662277f, 0.1198772714f, -0.2189607173f, -0.0215547495f, 0.0928615406f, 0.2213489115f, -0.2180206329f, -0.2767375112f, -0.2529093921f, 0.4331559241f, 0.2661309242f, -0.0920656621f, 0.0950359777f, -0.1092765555f, -0.2256266326f, -0.2717819214f, 0.0458279215f, 0.1415036619f, 0.1525820345f, 0.1059375256f, -0.1635954082f, -0.0237914640f, 0.1020016745f, 0.6898972392f, 0.1254214346f, 0.1618648916f, -0.1355363578f, -0.2044988871f, -0.0272117611f, -0.2351645082f, 0.0375142768f, 0.1017003208f, 0.5867882371f, -0.0313777998f, -0.6192620397f, -0.3040386140f, -0.1897747964f, 0.1162374765f, 0.0897909403f, -0.1637176871f, -0.0639834702f, 1.2265127897f, 0.0647755936f, 0.0819537938f, 0.1590438485f, 0.0368175991f, -0.2517356277f, 0.0332814232f, -0.2011416405f, -0.1991272718f, -0.4914202690f, 0.3241420090f, 0.0876674429f, 0.0544196144f, -0.0149206351f, 0.1216525659f, 0.0653661489f, 0.2125982493f, 0.1664696336f, 1.8430353403f, 0.2401797622f, -0.0809179321f, -0.1401400864f, 0.2096401453f, -0.0505448021f, 0.1997535676f, 0.0735894293f, 0.2584237754f, -2.0797495842f, -0.4736072421f, -0.0260081477f, 0.0448554307f, -0.2041264176f, -0.1089179069f, 0.2424724847f, -0.1214287803f, 0.0761733651f, 1.6248080730f, 0.4029913247f, -0.0298712049f, 0.0267791711f, 0.0028813321f, 0.0872735903f, -0.0240876433f, -0.1003797129f, -0.0729872659f, 0.0051082615f, -0.1666792780f, 0.0096537350f, 0.0704551339f, -0.0153102335f, 0.1627770066f, 0.1225483641f, 0.6105462909f, -0.1097994521f, -0.4399222434f, -0.1176547706f, 0.0225799661f, -0.2020928115f, -0.0586299039f, 0.0272371527f, -0.3234509826f, -0.0329521075f, 0.1695182770f, -0.3747596145f, 0.2162353098f, -0.2634462118f, -0.0683826730f, -0.0301678013f, -0.3059036434f, -0.0390134789f, 0.1081665531f, -0.2682766020f, 0.0939509720f, -0.2636875212f, -0.1064319238f, -0.3025087416f, 0.0335660167f, -0.1764957458f, -0.2021250725f, 0.0304694735f, -0.1312234402f, -1.2754185200f, 0.0039132396f, -0.2087893635f, 0.1819287688f, -0.1333234608f, 0.0779381692f, -0.2196830213f, -0.1800260097f, -0.0792638212f, -0.9997227192f, -0.1146074980f, 0.7023705244f, 0.0009933390f, 0.1935685873f, -0.1089861095f, 0.2784784734f, 0.0207340699f, -0.2914278507f, 0.3651843369f, 0.0645862222f, 0.0061607719f, -0.1839271337f, -0.0988421366f, 0.0439743511f, 0.0698703527f, 0.0364579521f, -0.0917258188f, -0.1724256277f, -0.0052829436f, 0.0878619701f, -0.1261975318f, 0.1331043243f, -0.1624506563f, -0.0634016469f, -0.0443036035f, -0.0137842111f, 0.0273862910f, -0.1673503220f, -0.0690075979f, 0.0490798131f, 0.0384989008f, -0.1938176900f, 0.1323125958f, 0.1373881698f, -0.2189546376f, -1.2278866768f, -0.1435587555f, 0.3462601006f, 0.2313308418f, -0.3427291512f, 0.3091967702f, -0.0663668588f, 0.0428656898f, 0.0508872047f, 0.5799743533f, -0.0682085082f, 0.1708395630f, 0.1793293953f, 0.0378103666f, 0.1478151828f, 0.3359097540f, 0.0138148675f, 0.2384637445f, -0.6807089448f, 0.1509077400f, -0.1922011226f, -0.0327982940f, 0.0375776328f, -0.0444186665f, 0.0512984358f, 0.1940244883f, 0.1055006757f, -0.1071264446f, 0.0893660933f, 0.0491486415f, 0.1390936673f, 0.2221240252f, 0.1986167878f, 0.0165449791f, -0.0196185205f, -0.0794601068f, 0.0173527803f, -0.0897051319f, -0.0065385113f, -0.0987677872f, -0.0392531492f, -0.1342474669f, 0.1182865649f, -0.0155150304f, 0.1476225406f, 0.7465714812f, -0.3112376928f, -0.0089821778f, 0.3298076987f, -0.1355423331f, -0.0753674656f, 0.3572085202f, -0.0232416391f, 0.1066167951f, -1.1164211035f, -0.0895961970f, -0.0942885056f, 0.0738383755f, 0.0621146746f, 0.3739550412f, 0.0988094509f, 0.0170962326f, -0.0888675898f, 0.0358920433f, 0.0000603483f, -0.0530480444f, -0.1598216742f, -0.0130111175f, 0.0837793425f, 0.3343477845f, -0.4111858308f, -0.1186307445f, 0.4452379942f, -0.1399352252f, -0.5109481812f, -0.1551888138f, 0.1994364560f, 0.0859895200f, -0.0179958511f, -0.2033275664f, -0.0386503711f, -1.2664395571f, -0.1763783842f, 0.0226647332f, 0.1386762708f, 0.0170893315f, -0.2457816601f, 0.1267703027f, -0.0683827475f, 0.1750234067f, -1.5075436831f, -0.1438432932f, 0.0876590982f, -0.1364481896f, -0.0753223523f, -0.1588965952f, -0.1166128144f, -0.2341633737f, 0.4795864820f, -1.9174766541f, -0.3590672910f, 0.0372415744f, 0.2694149911f, 0.1620574147f, 0.0061273053f, 0.0089550037f, -0.0033915832f, 0.0922842771f, 1.1843103170f, 0.2483244091f, -0.0757358745f, -0.1764390618f, 0.2009793669f, -0.1550521404f, 0.0552256778f, 0.2832450271f, 0.0392358676f, 0.4788417220f, 0.1382331699f, -0.0150534194f, -0.2183569372f, -0.1437498331f, 0.1429021657f, 0.3239918053f, 0.0166559760f, -0.0112524880f, 0.0411710478f, -0.1826978177f, 0.0296218395f, -0.1626584530f, -0.0959165543f, -0.0283846948f, -0.2001862675f, -0.0052465308f, 0.0582607873f, 0.6530942321f, 0.2143171281f, -0.3527849019f, 0.0750589445f, -0.3349151015f, -0.0360369682f, -0.0230431277f, 0.0246708766f, 0.1750622094f, -1.3292555809f, -0.2316086441f, -0.0839125887f, 0.3467581570f, 0.0400945321f, -0.0801569372f, 0.0889200792f, -0.0422637165f, 0.0660300031f, 1.3348339796f, 0.2918280065f, -0.0776069686f, -0.1870567650f, -0.1566656679f, -0.0475730486f, 0.2448239177f, 0.1413249075f, 0.0574176088f, 0.6244720817f, 0.0874412060f, 0.2294244021f, 0.1770998985f, -0.1103949025f, -0.0861291364f, -0.2336540371f, 0.3275049329f, -0.3028387427f, -0.2272640467f, 0.0304138158f, 0.6494237185f, -0.3333162069f, -0.4275493324f, 0.0388149358f, 0.0584794506f, 0.0615792535f, -0.3033210039f, -1.6042479277f, -0.0341798365f, -0.0645853505f, -0.3319968879f, -0.2378258258f, 0.3288235068f, -0.1642814875f, 0.1061701402f, 0.2768858969f, 0.9642491341f, 0.0867429003f, 0.1508030295f, -0.0696786717f, 0.2120463550f, 0.0478151776f, -0.2803315222f, -0.3687238097f, -0.2713665664f, -0.3972090483f, 0.0540361851f, 0.4102052152f, -0.2031301409f, 0.2370439470f, 0.2146135122f, 0.0146057988f, -0.0271305759f, 0.0331004970f};
const float b1[] = {0.0252623893f, -0.0333894081f, 0.0160322133f, 0.0305243693f, 0.0022924778f, 0.0212720651f, 0.0003853809f, 0.0009457193f, -0.0156999286f, -0.0495245904f, 0.0026209787f, -0.0173137318f, -0.0271757655f, 0.0046343640f, -0.0453772619f, -0.0340215117f, 0.0028711965f, -0.0400517546f, 0.0319498815f, 0.0099591864f, 0.0292070359f, -0.0402329266f, -0.0233009942f, 0.0678668544f, 0.0602777936f, -0.0465064533f, 0.0737412795f, -0.0138398390f, -0.0136899771f, -0.0143553661f, -0.0015020068f, -0.0076304306f, 0.0074166721f, 0.0209240336f, -0.0956558138f, 0.0251210053f, -0.0218312666f, -0.1088684201f, -0.0092028538f, 0.0107092699f, 0.0253479276f, -0.0580666326f, -0.0286771152f, 0.0208458416f, 0.0237676427f, 0.0024621112f, 0.0144068282f, 0.0089065256f, -0.0009941104f, 0.0548195913f, 0.0253938809f, -0.0072813034f, 0.0086863004f, 0.0247322954f, -0.0129284663f, 0.0343204178f, 0.0853692070f, 0.0424267799f, -0.0010082385f, -0.0273968037f, -0.1077723205f, 0.0190243628f, -0.0280954018f, -0.0542426929f};
const float W2[] = {0.0183641203f, -0.1524562985f, 0.1260885894f, -0.0522887185f, -0.3926529288f, 0.1221516728f, -0.0876784846f, 0.1367347389f, 0.2369453907f, -0.2515903115f, 0.2756388187f, 0.0585449934f, -0.1915832460f, -0.2101901323f, -0.0327866562f, 0.1411207020f, 0.0847064480f, -0.0413896851f, -0.1187475622f, -0.1493800282f, 0.1149640754f, -0.0738577545f, 0.0887395963f, 0.1279903948f, 0.1490903199f, 0.0965428576f, 0.0500602536f, -0.0318625309f, -0.5865522623f, 0.0656194314f, 0.0093903299f, 0.1093703508f, 0.0081723360f, 0.1652727276f, -0.2224906832f, -0.1941552758f, -0.2198247463f, -0.1861177683f, 0.0427698977f, 0.0280577131f, 0.0918572173f, 0.1299521029f, -0.0510919020f, 0.1629038751f, 0.1952921599f, 0.1908042282f, 0.2294860482f, 0.0607701279f, 0.2500259280f, 0.0449200198f, 0.1256594807f, 0.1704700738f, -0.1624221653f, -0.1634071469f, -0.1309581995f, 0.3492551744f, 0.0755742118f, 0.3653117120f, -0.1101643145f, -0.1327281594f, 0.0042854990f, 0.2393765599f, 0.1627809256f, -0.2591373026f, 0.1038284451f, 0.4645971060f, 0.0384002589f, -0.5061734319f, -0.2158038616f, -0.4707126021f, 0.4951227903f, -0.4045407176f, 0.5301536322f, 0.2266125232f, 0.1470025331f, 0.1406496912f, 0.6482349634f, -0.7331550717f, -0.4028979242f, -0.0268014818f, -0.2549112439f, 0.0276283659f, -0.2672269642f, -0.2247353941f, -0.3311407268f, 0.1363862157f, 0.1488427818f, -0.0179325547f, -0.1187792644f, 0.0731565878f, 0.0245703626f, 0.1914084405f, -0.1848633587f, 0.6556398869f, -0.8694857359f, 0.5327923894f, -0.0749065429f, -0.1922592223f, 0.4111978412f, 0.2723807693f, -0.0673885718f, -0.3372694254f, 0.0236627683f, -0.2260324806f, 0.3756463528f, -0.2186033875f, 0.0531506129f, 0.1628458500f, -0.0254460778f, 0.0766224340f, -0.0047437530f, -0.2679812610f, 0.2529214025f, 0.1095578223f, -0.2478216141f, -0.6896587610f, -0.7783982754f, 0.2587810159f, 0.2794843316f, 0.0328927152f, 0.1538543105f, -0.3600577712f, 0.4834221303f, 0.1440680027f, -0.0187479407f, -0.7816148996f, -0.2723141313f, -0.2157854885f, 0.1950342506f, 0.3354420066f, 0.0021160217f, 0.0344164819f, -0.1463336796f, -0.3659093082f, -0.3991671801f, 0.1343892813f, -0.0150425117f, -0.1337622255f, -0.1368242353f, -0.0322304927f, 0.2279699445f, 0.0287890863f, -0.1542723477f, 0.0481577516f, -0.2685188055f, 0.1667961776f, 0.2231144011f, 0.0626154616f, 0.3286023736f, 0.1019370109f, -0.1209550649f, 0.2614867687f, -0.0950148180f, 0.0218342971f, -0.1656613797f, 0.1238173395f, -0.1632546484f, -0.3029465079f, -0.0261394419f, 0.1659609675f, -0.1098147780f, 0.0006693064f, 0.0457525589f, -0.0643982291f, -0.3235715628f, -0.0030224153f, 0.1611729264f, 0.1939491928f, -0.0923388526f, -0.0933570042f, 0.0630694106f, 0.2751133740f, -0.3053364456f, 0.1145125479f, 0.1162646040f, 0.2830469012f, 0.0237519089f, -0.0622080937f, 0.1443555206f, -0.1462308913f, 0.1596604139f, 0.0416049957f, -0.0467223972f, -0.2161835432f, -0.0239200480f, -0.1445744932f, -0.1717383713f, 0.2377492487f, -0.0562181249f, -0.0705374330f, 0.1202121601f, -0.2008189559f, -0.3657318950f, 0.0500843413f, 0.0314960741f, -0.1148187518f, 0.1144931912f, -0.1708311886f, 0.1183849648f, -0.0733481348f, 0.2587198615f, 0.1426639557f, 0.1980421543f, 0.1798212528f, 0.1605428457f, -0.3186696172f, 0.1109783575f, -0.0627698377f, -0.0460115522f, 0.5332904458f, 0.3250537217f, -0.1357226372f, -0.1083281636f, -0.3189132214f, 0.2271097153f, 0.0648532137f, -0.2275419086f, 0.1896875948f, 0.2207169682f, -0.0318298154f, 0.1035025120f, 0.4524282217f, -0.6449573040f, 0.1600534916f, -0.1465286165f, -0.1613944322f, -0.0883388296f, -0.0644778609f, -0.2700850070f, -0.4141483903f, 0.0362376012f, -0.0659159571f, -0.0839530528f, -0.1925811619f, 0.4073166251f, -0.1773484647f, -0.1033896804f, -0.1620055139f, -0.1357347369f, 0.0537562817f, 0.1004884541f, -0.2154840380f, -0.5869551301f, -0.5407733321f, -0.4062602222f, 0.3520891666f, 0.2159799486f, -0.2201514691f, 0.0668680817f, -0.0832187459f, 0.5174196362f, 0.0825504214f, 0.1096704826f, -0.6977609992f, 0.4417610168f, -0.1354271621f, -0.1292536557f, -0.2871914506f, -0.3231315911f, -0.4500730336f, -0.0765135735f, 0.0879178941f, -0.0806631297f, 0.2410497069f, 0.1415487826f, -0.1187852845f, -0.0610766076f, 0.1256214827f, -0.1021670550f, 0.0233078841f, -0.0908108950f, 0.1034038067f, -0.0769464299f, 0.0923994854f, -0.1122597158f, -0.1151581481f, 0.3638580739f, 0.2212866992f, 0.3275356293f, 0.0809932873f, -0.4983552098f, -0.0063817687f, 0.1758179516f, -0.2790871561f, 0.1389567703f, -0.0929272249f, 0.1774395853f, -0.2738670111f, -0.0932091177f, -0.4648584723f, 0.2983001173f, -0.2169405371f, 0.0950004831f, 0.0569255725f, -0.0624562725f, 0.1223732010f, -0.1196472570f, -0.1681886762f, -0.2771151066f, 0.1720394045f, 0.0302674454f, -0.0153313084f, 0.0413193554f, -0.3240669966f, 0.2063064426f, -0.1014752537f, 0.1891739815f, -0.1915138662f, -0.0755806938f, 0.3936302066f, 0.0206558872f, -0.1705272198f, 0.0748265237f, 0.0375380702f, -0.0876489654f, -0.0501966700f, -0.0797760114f, 0.2573997974f, -0.1560582072f, 0.1787814349f, 0.0242120624f, 0.2028405666f, 0.3706595004f, 0.0489071310f, 0.1893793643f, 0.0247015320f, -0.1112949699f, -0.1585823894f, -0.0884518549f, -0.1049719155f, 0.0068870909f, 0.4585037231f, -0.0540042967f, -0.2560069263f, 0.0674102455f, -0.1444274485f, 0.1652021557f, -0.0235298742f, 0.0449526310f, -0.2541983128f, -0.0885605142f, 0.2239902169f, 0.2611875236f, 0.0902320594f, -0.0040687728f, 0.1324110329f, 0.0001988892f, -0.1299307942f, -0.0725863874f, -0.1057545766f, -0.1219832674f, -0.0701692030f, 0.0267456174f, -0.1290280372f, 0.2621955574f, -0.3157073557f, 0.0636249781f, 0.1495025903f, 0.1118690521f, 0.1434139609f, -0.1092781499f, -0.1097938046f, -0.4149823785f, 0.0356797911f, -0.0573251136f, -0.0293854233f, -0.1396980286f, 0.1047787294f, -0.1060968637f, -0.1693142056f, 0.1070840061f, 0.0538366251f, 0.1004945561f, -0.3129874468f, -0.0415556990f, -0.3873266578f, 0.2779984772f, 0.2094506025f, 0.2628681362f, -0.1377356648f, 0.3736093938f, 0.1121962517f, -0.2933017612f, -0.0806017965f, 0.3460555375f, -0.1431775838f, -0.2495401502f, 0.1217902452f, 0.1435567141f, 0.2637157142f, 0.0548345298f, -0.2392673045f, 0.2311432660f, 0.0560596548f, -0.0932915956f, -0.1000847369f, 0.1172571406f, 0.0128625492f, -0.0386115722f, 0.0259582121f, 0.0597659871f, 0.3437590897f, -0.1708327681f, -0.1139031351f, 0.2564347982f, 0.0094838068f, -0.0083946651f, 0.1248768270f, -0.1742402911f, 0.0363658778f, 0.0204193760f, -0.0076954528f, -0.4529365003f, -0.1209782809f, 0.1618203819f, -0.0167252105f, 0.1849756539f, 0.0763834268f, -0.0392418765f, -0.0772100762f, 0.1353562474f, 0.0315159857f, 0.0715305433f, -0.0289089587f, -0.1903330982f, -0.1896513551f, -0.1941740215f, 0.0504940040f, -0.0007364976f, 0.1654520482f, -0.0905668139f, -0.2171015143f, -0.2223702818f, 0.0362646692f, -0.5123193860f, 0.0012640954f, 0.1597970128f, -0.0045844642f, 0.1765489727f, -0.0699969009f, 0.1258460730f, 0.2533885241f, -0.0099751754f, 0.1856435239f, 0.0644591376f, -0.2230374366f, -0.0310720950f, 0.2174340487f, 0.1277297139f, -0.0269213095f, -0.0521481633f, -0.0577895269f, -0.1605655849f, -0.1387506425f, -0.0920944810f, -0.2246958762f, -0.0214144234f, -0.2990368009f, 0.1362792104f, -0.1630919576f, -0.2757004201f, -0.0706212595f, 0.2791917324f, 0.1546643674f, -0.0112605756f, 0.0560299046f, -0.3919128180f, -0.1261414289f, 0.1950727254f, -0.1107148677f, 0.0430299640f, 0.2690829039f, 0.4119187593f, -0.0616385527f, 0.1391012073f, 0.1158474386f, 0.0799495280f, 0.0979469121f, 0.1519312412f, 0.1062576026f, 0.0643853992f, -0.1518601477f, 0.0582056902f, 0.0562723689f, -0.0469645634f, 0.0430290848f, -0.1447299272f, -0.0730231106f, -0.1294272393f, -0.4169676900f, 0.1040364578f, 0.0911148414f, -0.0212614406f, -0.3823650479f, -0.2176940143f, 0.1646169871f, -0.0077732555f, -0.2216947377f, 0.1742849946f, -0.0930147171f, -0.0523684546f, -0.3193201125f, 0.2426954061f, 0.1640629768f, -0.0175454579f, -0.1378417313f, -0.1098366305f, -0.1657742709f, 0.0499297418f, -0.2992858589f, 0.1417060643f, 0.2309385836f, 0.3420275152f, -0.3836958706f, 0.1770890802f, -0.1129396856f, -0.1861278415f, 0.1887489408f, 0.0425458625f, 0.0753102228f, -0.0968770459f, -0.0214252528f, -0.1512717605f, 0.0450773165f, -0.1167082414f, 0.0037611844f, 0.0884348899f, 0.0149362767f, -0.0246778671f, 0.0746144354f, 0.1122425050f, -0.1880990565f, 0.0491425805f, 0.5191439986f, -0.1962465793f, 0.3437537551f, -0.0044613993f, 0.1812830716f, -0.0774357468f, -0.0545655377f, 0.0637862459f, 0.3655423820f, -0.1282622218f, -0.1142088622f, -0.1221386492f, 0.1207243204f, -0.0707541257f, -0.0820046812f, 0.2070631236f, 0.2140826732f, 0.1012758538f, 0.1805980206f, 0.0488164276f, -0.1187672988f, 0.1827762574f, -0.1940926313f, -0.0452157669f, -0.0331362300f, -0.1994625777f, -0.1567749530f, 0.0272512846f, -0.0150075611f, 0.0527062081f, 0.3424651921f, 0.2031329274f, 0.1776898652f, -0.1158239543f, -0.0107125146f, -0.1495628059f, -0.1399844289f, 0.0139144976f, 0.2862114310f, -0.1396478862f, -0.2988872528f, -0.0830675736f, -0.2319317460f, -0.1558990628f, 0.2409240901f, -0.3129117489f, -0.0140196579f, 0.1161387563f, 0.5496443510f, -0.2869665027f, 0.1754641384f, 0.1323904395f, -0.0217060335f, -0.2822952569f, -0.3650016487f, -0.0468849614f, -0.1226338819f, -0.2175014615f, -0.1321765780f, -0.0269326735f, 0.1988605857f, 0.2713897228f, 0.1714722812f, -0.0526511334f, 0.0360676162f, -0.2448928505f, -0.2857360244f, 0.1068489775f, 0.3136528730f, -0.4850317836f, 0.0620824806f, -0.0044944244f, -0.4636045992f, -0.1273819953f, -0.0105662839f, -0.1872778088f, -0.0551267937f, -0.3043157160f, 0.0441117585f, -0.2235849649f, 0.3864386082f, -0.1530691534f, 0.0629675761f, 0.0367933922f, 0.2819690108f, 0.2903961241f, -0.6355642676f, 0.1435422450f, -0.4307202995f, -0.3385705650f, -0.0608620830f, 0.1240086854f, -0.6445443630f, 0.0983781219f, 0.3475430906f, -0.1290317625f, -0.1879112720f, 0.1646826416f, 0.0664989352f, -0.3641731441f, -0.1067966372f, -0.1302997023f, 0.5225269794f, 0.6001892090f, 0.2017515898f, 0.2703159750f, 0.4088130891f, 0.4022361338f, -0.1048283428f, 0.2873597741f, -0.1849131435f, 0.0493851416f, -0.0704512149f, 0.2011411935f, 0.3658548892f, 0.2163368464f, -0.1188497841f, -0.0127313063f, -0.1427916884f, 0.1341311038f, 0.0838859081f, -0.2233313620f, -0.1538661867f, -0.1455701292f, 0.0702460036f, 0.2144354582f, 0.0335875489f, 0.2603954673f, -0.2492816299f, -0.1492568105f, 0.4356880784f, 0.1592787206f, -0.3063735366f, -0.0362304859f, -0.0011129774f, 0.1815920472f, 0.0085295383f, -0.1536386311f, -0.0963092297f, 0.0298588108f, 0.3396844864f, -0.1538248211f, 0.2017238587f, 0.1184842885f, -0.3107864559f, -0.0878687501f, -0.3155488968f, 0.1017809138f, -0.4942108393f, -0.4812440872f, 0.1416501254f, -0.0513204783f, -0.0265676919f, 0.1767381281f, -0.0755704194f, 0.0549761578f, 0.2990980148f, 0.1512289941f, 0.0212227851f, -0.1056714356f, -0.1750345975f, -0.1740776747f, 0.0239263773f, 0.0893218741f, 0.2793119848f, 0.2405287772f, -0.7870006561f, -0.2096148729f, 0.0556539483f, -0.2450153530f, -0.1614618599f, -0.0638002157f, 0.2088461667f, 0.0332234427f, -0.1083100140f, -0.1588906199f, -0.2151301801f, 0.0482757203f, -0.3343215585f, 0.3076457381f, -0.1175065786f, -0.1030630991f, -0.1902620792f, -0.1501684338f, -0.0725796148f, -0.1746906787f, -0.1104120463f, -0.0184438676f, 0.1227721795f, 0.1772606820f, -0.2243520468f, -0.1792853624f, 0.1617148370f, 0.2225445509f, -0.1442894489f, -0.2076115161f, -0.1386383623f, 0.0092218649f, 0.1518353969f, -0.0913709626f, 0.1332035810f, -0.2560616136f, -0.3531578481f, 0.1905210763f, 0.0198830776f, -0.1438141316f, 0.0949889049f, 0.2200300694f, 0.1268935502f, -0.1874560267f, 0.1092780977f, 0.0209029447f, -0.1136131287f, 0.0481734276f, 0.1320018470f, 0.2480079383f, -0.1872895062f, -0.0530025177f, 0.3933532834f, -0.2070003301f, 0.2679812610f, -0.0819380209f, 0.0117603671f, 0.1806059331f, 0.0716387480f, 0.0976777002f, -0.2783452272f, -0.2140181363f, 0.0626817271f, -0.2761602104f, 0.0434505865f, -0.0813407451f, 0.2135357708f, 0.1625292003f, 0.1077277362f, -0.0524777435f, 0.1323413849f, 0.3915434182f, 0.0845303982f, -0.1493807584f, 0.2487201840f, -0.0369544104f, 0.1845578849f, 0.0041167294f, -0.2330659330f, -0.0393233970f, -0.1163711324f, 0.1641575098f, -0.1306508929f, 0.1240698993f, -0.1007308811f, -0.0536426827f, -0.1103102714f, -0.3044239283f, 0.2946198881f, -0.1709951758f, 0.1040618792f, -0.0344910398f, -0.0091380514f, -0.3372685611f, 0.0695985705f, -0.0683898851f, -0.0788768008f, -0.1391691715f, 0.0352171175f, 0.2455488592f, -0.3709632754f, 0.2234600782f, 0.2748204768f, 0.0148276296f, -0.1350130141f, -0.0360239781f, -0.0739328489f, -0.2990235984f, 0.0735886022f, 0.0132162562f, -0.1043154150f, 0.0795427486f, 0.1705793887f, 0.0137326792f, 0.0670954660f, 0.0547808520f, -0.0301014502f, 0.0805764347f, -0.2261689901f, -0.2285418659f, -0.0846392885f, -0.0111063663f, 0.1785617620f, -0.1558131576f, -0.1903651655f, 0.1688633710f, -0.4745315611f, -0.1599013209f, -0.3024902046f, 0.0903691351f, -0.2044445872f, 0.0192611404f, 0.1466967463f, 0.0027683985f, 0.5870898962f, 0.2567551434f, 0.1327063292f, 0.1302669048f, -0.2747634053f, 0.0795833766f, -0.1087958664f, -0.0709192827f, 0.2302536815f, -0.0936556831f, -0.1930719465f, 0.0874870494f, -0.2138769180f, -0.0986619815f, 0.0179227889f, -0.2422356457f, 0.2549072206f, -0.2834621370f, 0.0073143723f, 0.0743439496f, -0.1399585158f, 0.1625903249f, -0.2314108163f, -0.4565488696f, -0.0239783097f, -0.0868966132f, 0.1226671264f, 0.2891861498f, 0.4792007506f, -0.4189537764f, 0.3769018650f, -0.0775044039f, -0.0128920199f, -0.0293249246f, -0.2302152365f, 0.0524234623f, -0.0616709478f, 0.1320621818f, 0.1428156346f, -0.1663052142f, -0.3548140824f, -0.0075638415f, -0.0478573814f, 0.2340750098f, -0.1936120540f, -0.1264735013f, -0.2165854722f, 0.0535166003f, 0.0265423786f, -0.2961061597f, 0.0648032352f, -0.7558836937f, 0.1772659719f, 0.2766219079f, 0.3368980587f, 0.2729854584f, -0.0099063078f, 0.1649913341f, 0.3337374926f, 0.0518121459f, -0.2691838145f, 0.3016786873f, -0.2406788021f, 0.0038193897f, -0.2292353660f, -0.1009072065f, 0.0642881989f, 0.0762366354f, -0.1282492131f, -0.0107453465f, 0.2783133984f, 0.0438962802f, -0.1163242459f, 0.0625895113f, -0.0286903102f, 0.0159523617f, -0.0426272340f, -0.1098410115f, 0.1214014068f, -0.1446663439f, -0.1002486125f, -0.3484064043f, -0.2424665093f, -0.0039649322f, -0.0568151772f, 0.1089891046f, -0.1273436695f, 0.1547543108f, 0.0631987005f, -0.3531218171f, -0.0065451637f, 0.2976381183f, 0.1464909464f, -0.1620592773f, -0.2066432983f, 0.1745910197f, -0.0168801844f, -0.0613540672f, 0.0970338657f, -0.2878574729f, -0.2597646415f, -0.0606042594f, 0.1974630207f, -0.0581559464f, 0.0655194744f, 0.1736071259f, 0.0781136304f, -0.3251219988f, 0.0419125706f, -0.1133441180f, 0.1714055538f, 0.1851145178f, 0.3220482171f, -0.2500535250f, 0.1990910321f, -0.0585934520f, -0.1242814660f, 0.1137984321f, -0.2122250199f, 0.1148345619f, 0.1047191471f, 0.1721553653f, 0.2502841949f, -0.0071859681f, 0.1240346581f, -0.2309230268f, 0.3131489158f, 0.0532423034f, -0.0628319010f, 0.2000220716f, -0.0286740195f, 0.1792114079f, 0.0811804086f, -0.3003837466f, 0.1529062986f, 0.1144225672f, 0.0455054529f, 0.2069296241f, -0.0707673207f, -0.0405566059f, 0.1255989671f, -0.1030342057f, -0.0163843073f, -0.3550373912f, -0.2845613956f, 0.0714793503f, -0.1090372428f, -0.2488884926f, -0.2451241165f, 0.1664247513f, 0.3481815159f, -0.1274606735f, -0.1378996372f, 0.1581902355f, 0.0541914329f, -0.1253609061f, 0.4321034253f, 0.0010134148f, 0.2484232932f, -0.1411157846f, 0.0086538913f, 0.1711131930f, -0.0733001828f, 0.0153036453f, 0.3922258615f, 0.0976262912f, 0.0504666530f, 0.0089428918f, -0.1879016608f, -0.1276649982f, -0.2449277490f, 0.1610771716f, 0.1728921682f, -0.0502658077f, 0.1056192666f, 0.1928710788f, 0.1002761200f, 0.0327344313f, -0.2809370458f, -0.0080400873f, 0.1380372792f, 0.1161950603f, -0.0951201841f, -0.1015578508f, -0.1261279434f, 0.1883465946f, 0.0799475014f, 0.0627047047f, 0.1478423029f, 0.1775832176f, 0.3044420481f, 0.0916149467f, -0.0161997769f, 0.0376814455f, -0.2483855933f, 0.1260803491f, -0.0476305895f, 0.0871098787f, -0.0088163707f, -0.0573580638f, 0.1558949947f, 0.1374948174f, -0.2389326543f, -0.2379224598f, 0.1487733871f, 0.1848795116f, 0.1569522619f, 0.1140995473f, -0.0813787133f, 0.0250663608f, 0.2900208533f, -0.0750096887f, 0.3990209103f, 0.1984097213f, 0.3467215300f, 0.0049458193f, -0.0619691201f, 0.0678563416f, 0.1482257694f, 0.0569319539f, -0.3708710670f, -0.1771711856f, 0.1414716989f, -0.1573397964f, 0.0070856349f, -0.2231548578f, -0.0920375362f, 0.1138705611f, 0.2432782948f, -0.2814578414f, 0.1109027565f, 0.1079042181f, 0.1056754068f, 0.0739658400f, 0.1672763377f, -0.2080969065f, -0.3043453693f, 0.2850306630f, 0.1168269739f, 0.2706351280f, 0.1334168017f, -0.4672779143f, -0.1211080253f, -0.2306533903f, -0.0246797465f, -0.0383826084f, 0.0226671752f, 0.1010590270f, 0.1182102710f, 0.0312112160f, 0.0125726750f, 0.1228278056f, 0.0306481458f, -0.0580356009f, -0.1529063880f, -0.0434174649f, 0.1729065627f, -0.0439391099f, -0.2093806714f, -0.0790073425f, -0.0057649254f, 0.0174508039f, 0.2942681611f, -0.0801956356f, -0.2245445251f, 0.2389024496f, 0.0623239949f, -0.3925904632f, -0.0205441769f, -0.0475792028f, -0.1889673024f, -0.0362187438f, 0.2444011420f, 0.0211632699f, -0.2010877877f, -0.0125725176f, -0.0435694568f, -0.2284945846f, -0.3781438470f, -0.0566809215f, 0.1986727864f, 0.0307743680f, 0.1734853536f, -0.1473122239f, -0.2928712964f, 0.0899943188f, -0.1272420585f, -0.0769905671f, -0.1108780056f, 0.0554331839f, 0.1330785304f, 0.2776960731f, 0.4755727053f, 0.0234450288f, 0.2647554278f, 0.0798060447f, -0.0864550397f, 0.2586433589f, -0.2378918827f, -0.1248490661f, 0.2471831888f, -0.2237909287f, -0.2184814066f, 0.0953836143f, 0.1096874550f, -0.2731673419f, -0.0989553854f, 0.1539537311f, -0.1283572018f, 0.1978560239f, -0.1042410657f, 0.4211201072f, -0.2660773993f, 0.0187657271f, -0.1525093168f, -0.1938367635f, 0.1243427992f, -0.0504820310f, -0.1253742576f, -0.2949542701f, -0.1551492363f, 0.0465123430f, 0.2221878171f, -0.0599851683f, -0.2842623889f, 0.0214412566f, -0.1556881070f, 0.1606649309f, -0.3448328674f, -0.1501708031f, 0.0413677879f, -0.0730153248f, 0.0244266391f, 0.1089253351f, -0.1748068631f, -0.2991955876f, -0.0099025695f, 0.0752528012f, -0.1716760546f, -0.0042625982f, 0.4748344719f, 0.0467019565f, -0.0604043826f, 0.0749347806f, -0.1673996300f, 0.0110433409f, -0.0000598779f, -0.0175964329f, -0.2360419482f, 0.0551204830f, -0.0018427272f, -0.0588354617f, 0.3125290573f, 0.1944845766f, 0.2544576526f, 0.3451787829f, -0.1889123321f, 0.1230808496f, -0.2377849668f, -0.2839789093f, 0.0058072750f, -0.0401193947f, -0.1831446737f, -0.1992300004f, 0.1598676294f, 0.1422439665f, -0.2127937227f, 0.1816180646f, -0.0908271819f, -0.1033451408f, -0.0327932425f, -0.0721715912f, 0.0479918756f, -0.0051794229f, 0.1524422914f, -0.0013878924f, 0.0216171797f, 0.0705502182f, 0.0444756970f, 0.2164839208f, 0.1332419068f, 0.3199371099f, 0.1024196446f, 0.2169715762f, -0.0961627886f, -0.0036702312f, -0.1935264319f, -0.0076418887f, -0.0831401497f, 0.0522922724f, 0.0093439631f, 0.2435884476f, -0.1940251589f, -0.1890331209f, -0.0020555158f, -0.1205042303f, -0.2777336240f, 0.1924790889f, -0.1421991736f, -0.2267291248f, -0.0604364388f, 0.0020989301f, 0.2743969858f, -0.2007532567f, -0.1303030401f, -0.2518127561f, -0.1716098636f, -0.0488478355f, -0.0459679812f, 0.1761934161f, -0.1640330702f, 0.2056451142f, 0.0778444856f, 0.1945424974f, 0.0506119840f, 0.0344754979f, 0.0058260746f, -0.0677230284f, -0.0134093249f, 0.1494151652f, 0.1246735081f, -0.0546900555f, -0.0993347242f, 0.3558089733f, 0.0890827924f, -0.0470708385f, -0.0039581689f, -0.2136158496f, 0.1371427923f, -0.0855970755f, 0.0890487805f, -0.0888721347f, -0.0263225008f, 0.1637014002f, -0.1764387339f, -0.2438180447f, -0.1637666374f, -0.2155061364f, -0.2611614466f, 0.3372873962f, 0.4569958746f, -0.1347486526f, 0.4306563437f, -0.0014559213f, -0.2253540456f, 0.2260650992f, 0.0239385702f, 0.2523451447f, -0.2789523005f, -0.2236037850f, 0.3414576650f, 0.1395520270f, 0.0307236742f, 0.1590507179f, -0.0417413637f, -0.1077793092f, 0.0868486017f, -0.1546482295f, 0.0709856525f, -0.1775272638f, 0.1866594255f, 0.1568815410f, -0.0600403510f, -0.1075334772f, -0.1548810005f, -0.2316580564f, 0.1838475764f, 0.1394237429f, -0.1270113140f, -0.0025056957f, -0.0943263397f, -0.1004120559f, -0.0171065927f, -0.0875591263f, 0.2358693928f, -0.2510063648f, 0.1279826015f, -0.4617404342f, -0.1980671883f, -0.1375252157f, -0.1758193523f, -0.0027376299f, 0.3687422872f, -0.0829016194f, -0.0824793205f, 0.2142969817f, 0.0030191946f, 0.0930690318f, -0.2525428832f, 0.0314552858f, 0.2359011918f, 0.0211883280f, -0.0755871758f, -0.0322122574f, -0.0359306633f, 0.0338123180f, -0.0060102069f, 0.1648186892f, -0.2700774074f, -0.1009469777f, -0.1072163507f, -0.2982186377f, -0.0599152930f, -0.0277075861f, -0.1228213906f, 0.0327854343f, -0.0729727596f, 0.3207255304f, 0.2067551911f, 0.1505271941f, -0.3182921410f, -0.1126442254f, 0.0753890797f, -0.3794203699f, 0.1554583162f, -0.0640589073f, -0.1169232279f, -0.2341288030f, 0.0014761917f, -0.1287427843f, -0.0498895124f, 0.3048139811f, -0.2429024577f, -0.0017485019f, 0.1324160844f, 0.1023654342f, -0.1587486565f, 0.0734693035f, 0.1965903044f, 0.1136437431f, 0.0496170595f, -0.5655519366f, 0.1308273226f, -0.0744612217f, 0.1765817106f, -0.1025504544f, -0.0127849262f, -0.3825367987f, -0.2481807619f, -0.0796741247f, 0.0580165870f, -0.0502169095f, -0.2307615429f, 0.1278869063f, -0.3153423369f, 0.0949187875f, 0.1867282242f, 0.1129893064f, 0.0742457807f, -0.1146591678f, 0.0358544737f, -0.1998394281f, -0.0302149933f, -0.2094052732f, -0.0524278358f, 0.1499251276f, -0.0361953527f, 0.2405918688f, -0.0357513279f, 0.1230867282f, -0.0088236323f, 0.1175629646f, 0.0275571570f, 0.1333981305f, -0.1760935932f, -0.1049840674f, 0.2014188021f, 0.3296383917f, 0.0337744877f, 0.1015123501f, 0.1219838411f, -0.1881254017f, -0.3033248484f, 0.0601811558f, -0.0991703048f, -0.0419687480f, 0.3051567078f, -0.0982703567f, 0.4075078666f, -0.0496880077f, -0.2649417818f, 0.0662228614f, 0.1175049469f, -0.0393818766f, 0.0478182063f, 0.0390939377f, 0.1543376446f, -0.0004731179f, -0.1066345721f, 0.3791083395f, -0.0378430635f, -0.0476193614f, 0.1078069136f, 0.0527074710f, -0.3228658140f, 0.2139478922f, -0.1151980385f, -0.3979562521f, 0.0968399048f, 0.0840288475f, -0.3132498562f, 0.0815333202f, 0.0938706174f, 0.0111405412f, 0.1900958121f, -0.1307016462f, -0.1318103075f, -0.1165523678f, 0.1531833410f, 0.0274212845f, -0.0587704070f, -0.0935519487f, -0.0262488220f, 0.0087206513f, 0.0575359091f, 0.2891955972f, 0.1230707690f, -0.2317976952f, -0.1079376116f, 0.0665551051f, -0.1789033115f, -0.0315962397f, 0.1090614349f, 0.3332636058f, -0.0031174116f, -0.1492996216f, -0.2238557935f, -0.1146428660f, 0.2800976932f, -0.0567586012f, 0.2221420705f, -0.1222497076f, 0.2017091215f, -0.2605652511f, -0.0429214314f, 0.0871275887f, -0.1303724200f, -0.4627595544f, 0.1379473507f, 0.0903689340f, 0.5836305022f, -0.1711385101f, -0.2251081765f, 0.0154839428f, -0.3028079271f, 0.1372807622f, -0.2720150352f, 0.4327141345f, 0.3134909272f, 0.2139129788f, 0.1314219981f, 0.1800227016f, -0.9523655772f, 0.3514405787f, 0.0640609488f, 0.1760776490f, 0.3316892684f, -0.0001495278f, 0.0582704470f, -0.1581060439f, 0.2159368098f, -0.1726923585f, 0.0818985403f, -0.4354825318f, -0.2888899744f, 0.1286744922f, 0.2214657366f, 0.1148554608f, 0.6789534092f, -1.0108571053f, 0.7074638009f, 0.0769103691f, -0.3375654817f, 0.1081879288f, -0.0176615100f, -0.3998278975f, -0.3587059677f, 0.0156228039f, -0.1945079714f, -0.0658590049f, -0.2092322409f, 0.0129350163f, -0.3717899024f, -0.1543412060f, 0.1640572250f, -0.1362311393f, -0.1701443493f, -0.1426232159f, 0.2506334782f, -0.5407009125f, -0.1873712093f, -0.8302008510f, 0.0788075179f, -0.0696838871f, -0.0377998352f, 0.0926124230f, -0.6833605766f, 0.2668610215f, 0.0858290270f, -0.0568007752f, -0.1980283856f, 0.3931683898f, 0.1179792210f, 0.1227317452f, 0.0400546305f, 0.2275760174f, 0.0208261628f, -0.0862152353f, 0.2890375555f, 0.0042484319f, -0.1413344294f, -0.1229154542f, 0.0233685467f, -0.1555580795f, 0.2956384420f, 0.0641546771f, 0.0085533913f, 0.0606864691f, 0.0809752867f, -0.1571627259f, 0.5499842167f, -0.0211366657f, 0.3411731720f, -0.4364879429f, -0.1639101207f, -0.0026551434f, 0.0326677375f, 0.3575875759f, -0.1971591115f, -0.0537216663f, -0.1934181005f, -0.1401113421f, -0.0107769435f, 0.0004314995f, -0.0434701294f, -0.2769692540f, -0.0306738615f, 0.0476039350f, 0.1848863214f, 0.0200873278f, 0.0302610863f, -0.0184821673f, 0.3788366914f, -0.1304019392f, 0.0408356674f, -0.0750214458f, 0.2264390141f, -0.2050114423f, 0.0176294353f, -0.0514483303f, -0.2298604399f, 0.1486808211f, 0.1546978056f, -0.0760525763f, -0.0821549445f, -0.0664812624f, -0.0287856739f, 0.1527477801f, 0.0272892360f, -0.2243649513f, 0.0530933887f, -0.1632185578f, 0.0359563641f, -0.1379135400f, 0.2313047647f, 0.0475383811f, 0.2303611934f, -0.2506171763f, -0.1577602327f, 0.0475976877f, -0.1150778234f, -0.2444812357f, -0.2024101317f, -0.3075890243f, -0.1151890382f, -0.0102161299f, 0.0654624477f, -0.0241717435f, 0.1942969412f, -0.1941784322f, -0.1153354049f, -0.0329956971f, -0.2336204350f, -0.0588064305f, 0.0244467147f, 0.0324016437f, 0.3100561202f, -0.0021020693f, 0.1758079678f, 0.2549260855f, -0.1351819187f, -0.1179029867f, -0.1578556150f, -0.0115789957f, -0.0090993177f, 0.0384147316f, -0.0652764440f, 0.1487475485f, -0.0039444687f, -0.0033262284f, 0.1362604648f, -0.2209058106f, 0.2169375569f, -0.4379928112f, 0.1609554440f, -0.0314741284f, 0.0491261072f, 0.2635078132f, -0.1439193487f, -0.3317029476f, 0.0885816216f, -0.0884941816f, -0.0924264491f, -0.4980839491f, -0.1148259267f, -0.2141941041f, 0.0231627375f, -0.2035373449f, 0.0606827661f, 0.2110394239f, 0.1442953348f, 0.0218554288f, 0.3805991113f, 0.0689546764f, -0.0771453083f, 0.3250975311f, 0.0586798191f, -0.1073080599f, -0.0842865929f, -0.0475817472f, -0.0486283638f, 0.1794547290f, 0.0666077062f, 0.2175311297f, -0.0252008568f, -0.0731537193f, -0.0862222463f, -0.1220828965f, 0.1148427799f, -0.1850106865f, 0.1300073713f, 0.0987481624f, 0.0852010697f, -0.3337138295f, -0.2250688225f, -0.0340217352f, 0.3842282593f, -0.1300753504f, -0.1156180575f, -0.0375196561f, -0.1753910184f, 0.0370907113f, -0.1661330312f, -0.2314259261f, 0.0943647772f, 0.0194338970f, 0.3113438189f, -0.1212351993f, -0.0131942397f, 0.0807602629f, -0.1128755659f, -0.1386841238f, -0.0145144332f, -0.2655737400f, 0.0510166287f, 0.2729162276f, 0.4596760869f, -0.0495190732f, -0.2987014949f, -0.1526774168f, -0.0499976352f, 0.2209632546f, 0.0233995114f, -0.2104524970f, 0.0453602150f, 0.2635058463f, -0.1524509639f, 0.4607774317f, -0.0568661951f, -0.4954838455f, -0.0451653786f, -0.1661908478f, 0.0554410331f, 0.0427936204f, 0.1742138863f, -0.0471836925f, 0.0169577263f, -0.0598599724f, 0.1313316375f, 0.0457335673f, 0.0785751268f, 0.0707577914f, -0.0488694608f, 0.1806298345f, 0.2322776020f, -0.0010518046f, -0.2510368228f, -0.0240023099f, 0.0608201958f, -0.0550449304f, -0.0587440059f, -0.1154577434f, -0.3078634441f, -0.1757633090f, 0.0067062802f, 0.4406987429f, 0.0360280387f, 0.1811942905f, 0.0618315823f, -0.1895816773f, -0.1288866401f, -0.3329357803f, -0.1355320066f, -0.1421170533f, -0.0167319253f, 0.0631301925f, -0.1181366071f, 0.0066848467f, -0.0084221121f, 0.0407275669f, 0.0507890210f, -0.2706546187f, 0.1811895669f, -0.0356477872f, -0.3214128613f, -0.1383089721f, 0.1087313220f, 0.0093750590f, -0.0545177497f, 0.0010287480f, -0.3597167134f, 0.1004357412f, 0.0063236821f, 0.0762820542f, -0.0354107283f, 0.0957422107f, 0.0924690068f, -0.1500112116f, -0.1889671534f, 0.0670219138f, -0.1664313823f, -0.2264841348f, -0.1830596924f, -0.0523662530f, -0.0261517856f, -0.2373575717f, -0.1521273106f, -0.0604673773f, -0.0293575879f, -0.4336894751f, -0.2180525064f, -0.0976758301f, 0.1019098014f, -0.1997104734f, -0.1141891479f, -0.4135048389f, -0.0798026547f, 0.1034095287f, 0.1390150785f, 0.1225354373f, 0.2434025109f, -0.2314860225f, 0.1145742610f, 0.0508588515f, 0.2418071330f, -0.0149337780f, 0.2520642281f, -0.4076739252f, -0.3051907420f, 0.0082515916f, 0.1060215011f, -0.0463518836f, -0.0156354662f, -0.1268975735f, 0.0625986382f, -0.0524429642f, -0.0137068480f, 0.2778682709f, -0.0559981987f, 0.2121986300f, 0.0630602613f, 0.2193062901f, -0.2090075761f, 0.0275024883f, -0.1548600644f, 0.1780628264f, 0.1066161543f, -0.0903435573f, 0.3822571337f, -0.0183923300f, 0.2116121352f, 0.1451467127f, 0.3080168664f, -0.0068053915f, 0.0205001421f, -0.1570371985f, 0.0799140632f, -0.0811396316f, -0.3129042387f, 0.0994555652f, 0.1089454368f, 0.0657611713f, 0.2468561828f, 0.0296295360f, -0.3534563482f, 0.3138928413f, -0.3469438851f, -0.0225755442f, 0.2066489756f, -0.0209398866f, -0.2296557724f, 0.1642600149f, -0.3085330129f, -0.1284871250f, -0.0389697924f, -0.1375571787f, 0.1465381533f, 0.0838306546f, 0.0392702483f, 0.0248601083f, -0.1355028152f, 0.0463321730f, 0.0973959938f, -0.2421257645f, -0.2235292792f, 0.1528452784f, 0.1707350314f, -0.0586717837f, -0.1210612953f, 0.0397481844f, 0.1684295982f, 0.1028106585f, -0.3456841409f, -0.1949292123f, -0.1527384073f, 0.0046203011f, -0.1499747336f, -0.0788196847f, -0.1268357784f, 0.1560334116f, -0.0600829944f, 0.1045258790f, 0.2088172436f, -0.0913341865f, -0.1394206285f, -0.0967610031f, 0.3629491627f, -0.1081254855f, 0.2033506483f, 0.0203439277f, 0.0723894387f, 0.1111520082f, 0.0234941430f, -0.1358262002f, 0.0711926967f, 0.2774056792f, -0.0989347175f, 0.3188931346f, 0.0606047921f, -0.0965537652f, 0.2639466524f, 0.4904989302f, -0.0288066082f, -0.0436398163f, 0.0049133287f, 0.1831308603f, 0.1445347369f, -0.0502809696f, -0.0868373886f, 0.1347090900f, -0.0609085895f, -0.2721570134f, -0.0462749973f, -0.2980015278f, -0.0721082315f, -0.1716426760f, -0.2119356841f, 0.0755612925f, 0.2502788305f, -0.1550317854f, 0.1119299531f, -0.1494839191f, 0.0164787695f, -0.1985167414f, 0.1573685855f, -0.2645023465f, 0.0359612480f, 0.0686505809f, 0.0265350286f, 0.0026265972f, -0.0595937185f, -0.0619356446f, -0.1043430939f, 0.0879726559f, -0.3415560424f, -0.3263549209f, 0.2658051252f, -0.0232232139f, -0.1571679264f, -0.3450093269f, 0.2178895921f, -0.0891028568f, -0.0609450415f, -0.0483764336f, 0.2253106982f, 0.1359669864f, -0.0299180597f, -0.0827016458f, 0.0721689835f, 0.0966614932f, 0.2089484036f, -0.0382216014f, 0.2119233459f, -0.0320757069f, -0.2477004826f, -0.1556881815f, -0.0337223522f, -0.0013697936f, -0.2188169807f, 0.1685466468f, 0.3729369044f, 0.2855688632f, -0.2157418579f, -0.2435477376f, -0.0446485616f, 0.1494626850f, -0.3188261986f, 0.2822271883f, 0.0502453260f, 0.2053096294f, -0.1279956698f, -0.1684178859f, -0.0018918785f, -0.0855775401f, -0.0838463232f, 0.0079842005f, 0.0447332375f, 0.1955204755f, -0.0604766123f, -0.2924239933f, 0.0329564363f, 0.1727146804f, -0.0867511332f, 0.2932878435f, -0.1419439018f, -0.0707192048f, 0.0030630289f, 0.0095943660f, 0.2184317857f, -0.0796260387f, 0.2319471836f, 0.1991945654f, 0.0051959888f, -0.1478506774f, -0.0156996511f, 0.2962784171f, -0.1265087575f, -0.0343144871f, 0.1223803833f, -0.0317976214f, 0.1649992764f, -0.2022580802f, -0.1947080642f, -0.1524514705f, -0.5258589983f, -0.0505219549f, 0.4013349116f, -0.0755113065f, -0.1560435891f, 0.2563855350f, -0.0984420925f, -0.2570455372f, -0.1023895666f, -0.0515689589f, -0.0208897851f, -0.0062496522f, -0.2582156956f, -0.2243724763f, 0.1091480479f, -0.2866777480f, -0.0438924804f, 0.2585143745f, -0.1541710347f, 0.0489877425f, 0.0951988772f, 0.2683733106f, -0.1519837379f, 0.0234064348f, -0.1004044563f, -0.1178255305f, -0.0446326695f, -0.2183523923f, -0.0050824010f, 0.2313414663f, 0.1324621290f, -0.0523051471f, -0.0852724537f, -0.4117673635f, -0.0178604648f, 0.1018278599f, -0.2021982968f, -0.1187306643f, -0.0540736914f, -0.0818344504f, 0.0642922372f, -0.1668229699f, 0.1737308204f, -0.1224500611f, 0.0683840662f, 0.3249695003f, -0.0426236838f, -0.1479108483f, 0.0763275847f, 0.0462324731f, -0.2024274021f, -0.3213376403f, 0.4593980014f, -0.1128079966f, 0.1003667265f, 0.2278721780f, -0.5866796970f, 0.1953747571f, -0.5333285928f, 0.6498689055f, 0.3145036995f, 0.0122466451f, -0.1045304090f, 0.3220828772f, -0.9934980869f, 0.0625466183f, 0.0694061667f, -0.0708550736f, 0.2921588123f, 0.0928196907f, 0.0774267092f, -0.1946785301f, -0.0466458015f, -0.0927349105f, 0.1622835994f, 0.2359256744f, 0.3894753158f, 0.2676589191f, 0.6263028383f, 0.0700535774f, 0.7875130177f, -0.7511109710f, 0.3469238877f, -0.0094530499f, 0.0501189306f, -0.2202435881f, -0.1520331502f, -0.2002193928f, -0.3043788671f, 0.0207773279f, 0.3241940141f, 0.0897950605f, -0.2454214841f, -0.0055650752f, -0.0179178938f, 0.1018543541f, -0.2125761062f, 0.1950801760f, -0.6194590330f, 0.1500133127f, 0.1271397173f, -0.2881296873f, -0.3207040727f, -0.6200339198f, 0.1990662217f, 0.0586087853f, -0.1103068292f, 0.4499691427f, -0.6246978641f, 0.4973685443f, 0.2869549692f, -0.1983356923f, -0.3359724283f, 0.4103092253f, -0.0297154672f, -0.3634474576f, 0.1942942441f, 0.2386720628f, 0.0707262605f, -0.1123219207f, 0.0304350909f, 0.2109748274f, -0.2236835063f, -0.0979416370f, -0.0662452355f, -0.3136475384f, -0.2544003129f, 0.0089383200f, -0.0695944130f, -0.0862833858f, 0.4665673375f, 0.0714464858f, 0.0346083269f, -0.2523722053f, -0.1032848284f, 0.0234618094f, -0.0076872907f, -0.0287825987f, 0.2294741273f, -0.3608405590f, -0.0343957841f, -0.0352872089f, -0.1538454443f, 0.0090551330f, -0.0030912238f, 0.0995725095f, 0.0448847078f, -0.1647849977f, -0.1284515113f, -0.2005523592f, 0.2577282786f, -0.2224331051f, 0.0436703674f, 0.0835568383f, 0.0829407275f, 0.0109654004f, 0.0088068284f, 0.0974506885f, -0.4332802296f, -0.0346781090f, -0.0509196371f, -0.1680408418f, -0.2085926682f, 0.1022026166f, 0.1192147136f, 0.0715466589f, -0.2942283750f, 0.2381574661f, -0.1796393543f, -0.2183120251f, -0.1765440702f, 0.0516397804f, 0.2591052055f, 0.0274817068f, -0.1544444859f, -0.0241498630f, -0.0351894759f, 0.0298179351f, -0.0942077637f, -0.0297694337f, 0.2819122076f, -0.0098737301f, -0.2018396556f, -0.0460283570f, 0.1466890574f, -0.0775200501f, -0.1000749171f, 0.0480513200f, -0.0693544298f, -0.0426851511f, -0.0282301120f, -0.0907677114f, 0.1154182330f, -0.0397720896f, -0.1571924686f, 0.2482483387f, -0.1749613136f, -0.0471528471f, 0.2632785141f, 0.0496521071f, -0.0374745466f, -0.0108086253f, 0.1087670922f, 0.0250694212f, 0.1265488267f, -0.0794718415f, 0.2730802298f, 0.1004052386f, 0.2017148733f, -0.0988921225f, -0.3564608693f, -0.5432505608f, 0.0515025929f, 0.0723569393f, -0.2022998780f, 0.1164047271f, -0.2185873091f, 0.0987355337f, -0.2737405002f, -0.0733457804f, -0.0626253709f, 0.0922075063f, 0.0804753602f, 0.1014956683f, 0.2669909894f, -0.1858488470f, 0.1423062384f, 0.0883617401f, -0.0918469205f, -0.2806870043f, -0.1835982203f, 0.3278002739f, -0.1273005158f, -0.1571432501f, 0.2980283797f, 0.1358563453f, 0.1800013632f, -0.0003139226f, 0.2220102251f, -0.0058710948f, 0.0985215455f, -0.0583756529f, 0.2353369594f, 0.1334481984f, 0.1437692344f, -0.1546262801f, 0.0865034908f, -0.3050103486f, 0.1240730062f, 0.3112414777f, -0.0879108161f, 0.1078550741f, 0.0266412497f, -0.3594954312f, 0.0541561507f, 0.0218502041f, 0.2409231216f, -0.0032510960f, -0.3586059511f, -0.1612550765f, -0.4540905356f, 0.0926096812f, -0.2139282972f, 0.0091206990f, -0.0891202316f, -0.1685094982f, 0.1753103733f, 0.0435359627f, -0.0349182822f, -0.0587246381f, -0.1770646721f, -0.0208103824f, 0.0305070374f, -0.0547359847f, 0.2135704607f, -0.1202725247f, -0.1259964854f, 0.0881923959f, -0.1182074398f, -0.3696857691f, 0.1173648685f, -0.3654679656f, 0.1353054196f, -0.2462430447f, 0.1314745992f, 0.1015342101f, 0.0367912501f, -0.1038193703f, -0.2045727819f, 0.0441234037f, -0.0775805861f, -0.0340683125f, -0.0260106176f, -0.1483740956f, 0.1611261070f, 0.1546126306f, 0.0754207000f, 0.0433670692f, 0.0479582697f, 0.3381037712f, 0.1151792333f, 0.1488466412f, -0.1394623667f, -0.1189094782f, 0.1272674203f, 0.2184725702f, 0.0949239731f, 0.4090680182f, -0.1016354263f, -0.0377757847f, -0.2937313914f, -0.0566250756f, -0.3209282160f, 0.2316153646f, 0.0173477363f, -0.1861657053f, -0.1171930283f, -0.1364055574f, 0.2312472910f, 0.0147257112f, 0.0474164821f, 0.0087782275f, 0.0416119918f, -0.1958514154f, 0.3206588626f, -0.0797491819f, 0.1793109924f, -0.0449232794f, -0.0604802519f, 0.0844404697f, -0.0070950207f, -0.0747681186f, 0.1666769534f, -0.0212060902f, 0.0764540881f, 0.1368073821f, 0.2206928432f, -0.1158822700f, 0.1035203412f, 0.4080638587f, 0.0832255483f, -0.0509350970f, -0.0027355314f, -0.0662243515f, -0.1682260931f, -0.0896213576f, 0.0170282982f, -0.1644639820f, 0.2686679959f, -0.1181178465f, -0.2431485802f, 0.2992277443f, -0.0378277563f, 0.0324673355f, 0.1642187685f, 0.1555492133f, -0.3779937029f, -0.0310242753f, -0.2627648711f, 0.3002133071f, 0.0078071570f, -0.0239065513f, 0.1660218239f, 0.0540724136f, 0.0881607458f, -0.0610158555f, -0.0839962736f, -0.0669430345f, 0.3112200797f, -0.0608330965f, -0.1053290814f, -0.0977735147f, -0.1647068262f, 0.0092162872f, 0.0969673172f, 0.0615825392f, 0.1902513057f, 0.0209574215f, -0.1834519804f, -0.0526534617f, -0.1176606268f, -0.1028792262f, 0.4154282510f, 0.1572154760f, 0.1114706248f, 0.2485873252f, 0.1202423573f, -0.2018894851f, -0.0775572434f, 0.3821572959f, 0.0490606651f, -0.0461852364f, 0.1442885399f, -0.0722389594f, 0.0920753255f, -0.5093960762f, 0.1572065055f, -0.1588072181f, 0.4188993573f, -0.0353385061f, -0.1605783105f, 0.1705954820f, 0.0057422072f, 0.1235601157f, -0.1945507973f, 0.0391174406f, -0.0015431541f, 0.1865406483f, -0.0786649138f, -0.2036410123f, 0.2454455048f, 0.3333774805f, -0.0569267422f, 0.2461292446f, 0.0437901691f, 0.0954564288f, 0.0636312589f, -0.1656787395f, 0.1162525564f, 0.0603623427f, 0.0740132555f, 0.0952956825f, 0.1266413927f, -0.1073465347f, -0.1634877175f, 0.3310965002f, 0.2207845300f, 0.1179513112f, 0.1213033348f, 0.0302389357f, -0.1818128824f, -0.0613134168f, -0.0563230515f, 0.0762896538f, 0.2270168215f, 0.0111029940f, 0.0278584231f, -0.0170517284f, 0.1676727384f, 0.1501366049f, 0.1113029569f, -0.0279764291f, 0.1009118780f, 0.2016879767f, 0.0191816278f, -0.0368551649f, 0.1564059854f, -0.0575118065f, 0.1833333075f, -0.1361378878f, 0.0554031692f, -0.2501696944f, 0.1761566997f, -0.2349126041f, -0.0643164515f, -0.0363076515f, 0.1483158022f, 0.1049572080f, 0.1717105508f, -0.1792409420f, -0.2950433195f, 0.2004090548f, 0.2185948193f, -0.0685451329f, -0.0550835133f, 0.1543802023f, -0.0253324322f, -0.1944213063f, 0.0122201499f, -0.1730239540f, 0.1053283364f, -0.0791831091f, -0.0485472754f, -0.0855926350f, -0.0578864180f, 0.0013175718f, 0.2122548074f, 0.0292907748f, -0.2267631590f, 0.1151178181f, -0.0961019844f, 0.2481103837f, 0.1729778498f, -0.2001480311f, -0.4276525080f, 0.0083201407f, 0.0171762258f, -0.1676998585f, -0.3471121788f, -0.0341375768f, -0.0878613144f, 0.0539504811f, -0.2414536923f, 0.3090777099f, 0.2888843119f, -0.2789847553f, 0.0699149445f, -0.3991855085f, 0.0818784013f, -0.0033600298f, 0.0220145304f, 0.0557584874f, 0.0933350995f, 0.4078582525f, 0.0650082827f, -0.0868594944f, 0.1846098304f, -0.0266433582f, -0.0447604991f, -0.2129806876f, -0.2679769695f, -0.0281629674f, -0.0575346723f, 0.3925994337f, -0.1478639990f, 0.0782382637f, -0.0916153789f, -0.2117615491f, -0.0125630563f, -0.0252746381f, -0.1168792918f, 0.2069162875f, 0.0787911937f, -0.0454109870f, 0.2377627790f, 0.1439412981f, -0.0742252171f, -0.1083514616f, -0.3846067488f, -0.2729613483f, 0.3173758388f, 0.2018377036f, 0.1403226256f, 0.1088337973f, 0.1661167890f, 0.0435432978f, -0.0323401354f, -0.1586072147f, -0.0898313895f, 0.2256206125f, 0.0820491239f, -0.1695504785f, 0.0093898289f, 0.0116719427f, 0.0598498471f, -0.1346430480f, -0.0440700427f, 0.3447945416f, -0.0283059236f, 0.0841152519f, 0.1645754427f, 0.5189336538f, 0.0626579449f, 0.1525205821f, 0.0072123595f, -0.0699580014f, -0.0057893218f, -0.0728740767f, 0.1770440936f, -0.2231644839f, 0.0775810555f, 0.0403226875f, 0.0400956832f, -0.1753582060f, 0.2380942255f, -0.0031310848f, 0.0808636546f, -0.2634786069f, -0.0166711453f, 0.1001654789f, 0.1170543954f, 0.0025417530f, 0.1093006656f, -0.1535930037f, 0.3518123031f, -0.1955402195f, 0.0247732252f, -0.0647299737f, 0.2112780511f, 0.0461480543f, -0.1588336229f, -0.0647983775f, 0.5270783901f, 0.2281934768f, 0.0770027190f, -0.0716771930f, 0.0272198413f, 0.2016987801f, 0.0652181506f, -0.2327806503f, 0.0552751943f, -0.1068000793f, -0.0714984238f, 0.0555448569f, -0.1897254735f, 0.2623481452f, -0.2235922217f, 0.1067967415f, -0.1695108563f, 0.1813681573f, 0.0766815245f, -0.0116649717f, -0.2843952775f, -0.0211609695f, -0.1457321346f, -0.1348842084f, -0.2897427678f, -0.0145025514f, 0.0036986524f, 0.0366787277f, 0.0302636493f, 0.2772210836f, 0.1291217357f, -0.0036161155f, 0.0581101142f, 0.0697367713f, -0.0015823608f, 0.3750420809f, -0.2890907228f, -0.1963906735f, 0.0057975776f, 0.2367254049f, 0.1948366165f, -0.2198208570f, -0.1033845693f, 0.1873567700f, -0.0175379012f, 0.1990821511f, 0.2098637670f, 0.1189637110f, -0.1493034661f, 0.1843521595f, 0.3215007484f, -0.1184686199f, -0.0943254381f, 0.0752374679f, -0.2669704258f, -0.2202329785f, -0.1120917723f, -0.1862201691f, 0.1820039451f, 0.0558496825f, -0.0189320594f, -0.0707438514f, -0.0206156094f, 0.0910095200f, -0.0456125885f, 0.1825253069f, 0.0058203530f, 0.1358297318f, -0.0071858182f, 0.2019504160f, 0.1074064299f, -0.1010362878f, 0.1191712543f, -0.0582359768f, 0.0577722080f, 0.2282974422f, -0.0321788080f, 0.2122912407f, -0.2723361850f, -0.0027524601f, 0.2450087070f, -0.0353147201f, -0.0930862576f, 0.4762573838f, 0.0506174006f, -0.0539631061f, 0.4804686904f, -0.2495084554f, -0.0725790709f, 0.0573366508f, -0.1396165490f, -0.0448501520f, 0.2678949237f, 0.0473970063f, 0.2284194678f, -0.0998589769f, -0.0572017841f, -0.2422025502f, 0.3546371162f, -0.1754201502f, 0.0730793625f, 0.1947827339f, -0.1384926438f, 0.1607989371f, -0.1601186842f, 0.0044447910f, -0.2205323875f, 0.0333420970f, 0.0344434902f, -0.0632251427f, -0.1684553027f, 0.1455738842f, -0.0588666722f, -0.0242001899f, -0.0932957232f, -0.1251695007f, 0.0843228698f, -0.2501783073f, 0.0874200836f, -0.1684884578f, 0.0116317347f, 0.0996445715f, -0.1048413590f, -0.0227911584f, -0.3539379537f, 0.1715825051f, 0.3217202425f, -0.1394564360f, -0.1333049238f, -0.2861705720f, 0.0636601076f, -0.1691903919f, -0.0089987209f, -0.2379706055f, 0.2031579167f, -0.1669411510f, 0.2664852142f, -0.1577841938f, 0.0110411122f, 0.4744634628f, 0.2037499249f, -0.1096745133f, -0.4075253904f, -0.2557610571f, -0.1812167913f, 0.1697194725f, -0.0706221014f, 0.0200165436f, -0.3562941551f, 0.0400326140f, -0.1268825829f, 0.0690994188f, 0.0745994076f, -0.2831226587f, -0.2771212757f, 0.0611704811f, 0.0594552383f, 0.0883548632f, 0.2380127311f, 0.1197832748f, 0.0239295308f, 0.1999491900f, 0.1885163784f, -0.0620267242f, -0.0170989055f, 0.0675842762f, -0.0455876365f, 0.0970886573f, 0.0822414085f, 0.1410818100f, 0.1968605816f, -0.0663857684f, 0.2347937524f, 0.1300009936f, -0.3803358376f, -0.0801094994f, 0.0974606052f, 0.1215513796f, -0.0390525423f, 0.1755570322f, -0.0948636532f, -0.4177170396f, -0.3303903937f, -0.1181302592f, 0.0305929109f, 0.0141505329f, -0.1418564320f, -0.4497255981f, -0.0258436929f, 0.3070551157f, -0.3127017617f, 0.0428966619f, 0.0091247493f, 0.1449243277f, -0.1486813575f, -0.3448683023f, 0.0641717687f, -0.0126324194f, -0.0427878760f, 0.2430994511f, -0.2089015543f, -0.2066632807f, 0.1659446955f, -0.0380321778f, 0.1128002107f, -0.2455237657f, 0.3635123372f, -0.0513636656f, 0.2192029953f, 0.0217335615f, -0.1664484143f, -0.1763937771f, -0.0144549366f, -0.1043349132f, -0.0985909775f, -0.6066905260f, 0.0331118926f, -0.0176801775f, -0.1677497476f, 0.0906094015f, 0.5125645399f, 0.1344971806f, 0.1075696871f, -0.1144030467f, -0.1682681888f, -0.3162968159f, -0.0158541370f, 0.1380118132f, -0.0021737036f, -0.0009697393f, -0.0912308767f, -0.0585162751f, -0.1202091947f, -0.2359129488f, -0.0037178360f, -0.0684689507f, -0.1880546510f, -0.1852271557f, -0.1050074473f, 0.1804255843f, -0.2361180335f, -0.0896932706f, 0.3411755264f, 0.1180834100f, -0.0209179819f, -0.1031477749f, 0.0053481823f, -0.1973419189f, 0.0330015309f, 0.0026147361f, 0.1516272873f, 0.1011651978f, -0.1992055327f, 0.1325770766f, 0.1650685668f, -0.1714238971f, -0.5109850168f, -0.2462166697f, -0.0048939027f, -0.0370381102f, -0.0390704088f, 0.0424157195f, -0.1910843700f, -0.0613373406f, 0.3708696961f, 0.2270752788f, -0.2424193770f, 0.1648547947f, -0.3129719794f, 0.2399300635f, -0.1258196533f, 0.2613689005f, -0.2811933160f, -0.2271376997f, 0.1556641608f, -0.0464217216f, -0.0032938223f, 0.2042039484f, -0.1427170932f, -0.2506503761f, 0.0372546464f, -0.0551513508f, 0.1425702572f, 0.1501054168f, -0.0448512957f, 0.0214248132f, -0.0771996230f, -0.1275927275f, -0.1686611325f, -0.0150069799f, -0.0358452536f, 0.0173038412f, -0.0087245032f, -0.1600221545f, -0.0814706981f, 0.0344749019f, 0.2836783826f, -0.1351196766f, 0.0404197313f, 0.3268569112f, -0.3565355539f, 0.1402045190f, -0.6455875039f, 0.1391185522f, -0.0110255405f, -0.1602469534f, 0.5063128471f, -0.1682551652f, 0.0342797264f, -0.8511105776f, -0.4919779003f, 0.0395611860f, -0.1977507770f, 0.0473457985f, 0.5019042492f, -0.0694183335f, 0.0475399978f, -0.0159003772f, -0.3521706760f, 0.2286535203f, -0.0439594314f, 0.6553786993f, -0.2447217107f, -0.0664993674f, 0.2082048804f, 0.1432665586f, -0.5098371506f, -0.2411372364f, -0.6043210626f, 0.1218807399f, -0.6702756882f, 0.9688860178f, -0.7187712193f, 0.1053566188f, -0.1367800385f, -0.1649106145f, 0.0654464960f, 0.4983329475f, 0.3360677958f, 0.0862363353f, -0.0529569946f, 0.3215503097f, 0.5152069330f, -0.0724207386f, 0.2886639237f, 0.1374368519f, 0.1665548682f, 0.0563237667f, 0.2200885713f, 0.1119591594f, -0.2511087656f, 0.2010948807f, 0.4454302490f, 0.9585309625f, -0.3551517427f, 0.0565459505f, 0.0021395332f, -0.0079215579f, 0.1157437339f, -0.1519604772f, 0.0545645766f, 0.3096106052f, 0.8536286950f, -0.1901138127f, 0.0580271930f, -0.0006394920f, -0.1988594383f, 0.3862720728f, 0.0086301975f, -0.2054772079f, 0.1336708814f, 0.3286814392f, 0.0165726151f, -0.1110014021f, 0.2839263976f, 0.1440563351f, -0.3619700670f, 0.0100652315f, -0.2537981868f, 0.2714170218f, -0.0365500413f, -0.3257173598f, -0.0001960200f, 0.1836204380f, 0.0104614655f, 0.2994701564f, 0.0521288067f, -0.0741414800f, -0.3612897396f, -0.0524159633f, 0.1023128405f, 0.1814086884f, 0.0092415167f, -0.1530038267f, -0.1061687842f, -0.2208776623f, -0.1139901504f, -0.0145478798f, -0.0738363117f, -0.0428615957f, -0.0514135845f, -0.0993844867f, 0.1317669898f, 0.0181854144f, -0.0205198154f, -0.4319666028f, 0.0590168871f, -0.1543881446f, 0.0786406174f, -0.0105364826f, 0.0383303054f, 0.1593799144f, 0.2511231899f, -0.0108252019f, 0.0887395218f, 0.2432454675f, -0.2542294562f, 0.0283427555f, -0.1443777382f, -0.0441439599f, 0.2020437568f, -0.0552465543f, 0.0231825206f, 0.2661909461f, 0.0955774933f, -0.1700185686f, -0.0718085542f, -0.1864276677f, 0.2856446803f, -0.0008776230f, 0.2463671565f, -0.0761462376f, -0.1435934156f, 0.1493126452f, 0.2226092517f, 0.0361269228f, -0.2887090743f, 0.0161661003f, -0.1657234281f, 0.1884404719f, 0.1654777974f, 0.2686287761f, -0.0252735186f, 0.1690442860f, 0.2941933870f, -0.2430558801f, -0.1356272995f, 0.1253236979f, -0.0933878273f, -0.0668024197f, -0.1050649583f, 0.1766110659f, -0.1917504370f, -0.0419129580f, 0.2990300953f, 0.0438329726f, -0.1259374768f, 0.0753885284f, 0.0820245817f, 0.0338525139f, -0.1407454610f, -0.0039858175f, -0.0173915066f, -0.0866106078f, 0.1241498068f, -0.0099133551f, 0.1942461282f, 0.1356520653f, -0.2159419060f, -0.0371188931f, -0.4245418012f, -0.0378759950f, -0.1289990097f, -0.4972481132f, -0.1779309511f, 0.2263687998f, 0.1109927893f, 0.0966449529f, -0.2305894643f, -0.1257301867f, 0.2390616685f, 0.0576020256f, 0.1390045583f, -0.1673753411f, 0.1954894215f, -0.0025547391f, 0.0053053652f, -0.1731876284f, 0.0536154099f, -0.2299787700f, 0.2214215994f, -0.0992736444f, -0.1201580316f, -0.2812140584f, 0.0344586447f, 0.1998349130f, -0.1655665785f, 0.4561295807f, 0.0221173670f, 0.3160835803f, -0.1307451427f, 0.1157350466f, -0.2591145337f, 0.2925163805f, 0.0322650187f, -0.0760483369f, 0.0632528588f, 0.2465537041f, -0.2550342381f, -0.0267454367f, 0.2131767869f, 0.0446118526f, 0.0756449327f, 0.3277564347f, 0.0902235210f, 0.0167264156f, 0.0697413087f, 0.0076188128f, 0.0569113605f, -0.4738278091f, -0.1381925046f, -0.0716288760f, 0.1359083503f, 0.3309310973f, 0.1369267851f, -0.1912095845f, -0.0016266671f, 0.2944029868f, 0.0656926706f, -0.1366284639f, 0.0095447926f, -0.3425738215f, -0.0588847063f, -0.0621050596f, -0.0291768871f, 0.1119582802f, 0.1242510378f, 0.2292418778f, 0.0145472707f, -0.1503850818f, -0.0089985095f, -0.1379026622f, 0.1600687355f, 0.0897757486f, -0.0471021906f, -0.0436783247f, 0.0561333261f, -0.0529956073f, -0.1507162005f, -0.0594021380f, -0.0272352304f, -0.0803784579f, 0.2386160195f, -0.1952401549f, 0.1466675401f, -0.1109732613f, -0.2234006971f, 0.1098686159f, -0.2607081234f, 0.1602500081f, 0.0255903564f, -0.1563603431f, 0.1868641227f, 0.1494100541f, 0.2255802453f, -0.4655689001f, -0.1318900138f, 0.2101088166f, -0.1412273049f, 0.1310358942f, 0.1885359585f, -0.3311710656f, -0.0113555463f, -0.0143059110f, -0.3296356499f, 0.1068396196f, 0.1926631033f, 0.2166875899f, 0.1356845945f, -0.0935750529f, 0.3454606235f, 0.4971444309f, -0.4240331650f, 0.5142856836f, -0.0272785686f, -0.1427301466f, -0.1480592489f, 0.3083548248f, 0.0088603571f, 0.4550581872f, 0.0342997350f, 0.2028135508f, 0.2829984426f, 0.1443961561f, -0.4185013771f, -0.1962526143f, 0.2284076065f, 0.0335568376f, -0.5439696312f, -0.1487277448f, 0.0402365960f, 0.0793179944f, 0.1386883855f, 0.0202749390f, 0.2499614507f, -0.1795512736f, 0.1942539513f, 0.1221561953f, -0.1412045062f, 0.1941216886f, 0.2815945745f, -0.3782086372f, 0.0334909223f, 0.3178345859f, 0.5495494604f, -0.0965985432f, -0.1380735338f, 0.0792843625f, 0.3429874778f, -0.4956958592f, -0.2048798054f, -0.1447775513f, 0.1966318786f, -0.4768154323f, -0.0502764173f, -0.2246507704f, 0.2783199847f, 0.4349716008f, 0.1143426895f, -0.2021867335f, -0.0003834465f, 0.2403647304f, -0.0841197222f, -0.0301068611f, -0.2221370786f, 0.1217308342f, -0.1410309523f, -0.0017269602f, 0.0923973024f, -0.1634086668f, -0.0241872370f, -0.0816941708f, 0.0255055465f, 0.2208224833f, 0.3092848957f, -0.2116695046f, 0.0641915500f, -0.2408264726f, 0.1757236719f, 0.1812265366f, -0.0495065339f, 0.2194780409f, 0.0916297585f, -0.0561628900f, 0.3354960978f, -0.0615261011f, 0.0180703234f, 0.2143231034f, 0.0845525339f, 0.3175886571f, 0.2547811568f, 0.0422345363f, 0.0160591919f, -0.1827713102f, 0.1238834634f, -0.1995020807f, 0.2140285373f, -0.0899702460f, 0.2276892215f, -0.2143855840f, -0.1327038705f, 0.2169070840f, -0.0648904517f, 0.0192703716f, 0.2196324170f, 0.1360597610f, -0.1524968445f, -0.1042495891f, 0.1069137678f, 0.2638633847f, -0.0921868533f, -0.0224509165f, 0.0810808539f, 0.1022462547f, 0.0736328959f, -0.2794109583f, -0.4538106918f, -0.0589678586f, -0.4261019230f, -0.0996866003f, 0.1328264624f, -0.2418364882f, 0.4044330716f, -0.4259447157f, 0.2180266082f, -0.1120934933f, -0.0546630584f, 0.2303548604f, 0.6120483875f, -0.0069677914f, -0.1796723306f, -0.0991759971f, -0.0990761742f, -0.1121571660f, 0.0550366826f, 0.4338096082f, 0.0467647575f, 0.0099502550f, 0.0985144973f, 0.0775172487f, 0.0349224657f, 0.0690707192f, -0.1508692056f, -0.2434902787f, -0.1348752379f, 0.7771428823f, -0.5072950125f, 0.0296493508f, 0.1414554566f, 0.5042623878f, 0.2092862874f, 0.4458971918f, 0.1602548063f, -0.1664929241f, 0.3091424704f, 0.0748635530f, 0.4329250753f, -0.2190451026f, -0.0170812588f, -0.3427568078f, -0.0838642865f, -0.0987841263f, 0.3574793935f, -0.0678521916f, 0.0866876245f, 0.1211669892f, 0.4581754506f, 0.5726912022f, -0.6439098716f, -0.2735168040f, 0.1005723327f, -0.1027721167f, 0.3087825179f, -0.3549988270f, -0.2266945094f, 0.2153494060f, 0.3885687888f, 0.0131709678f, -0.0479809232f, 0.2289317101f, -0.0833686069f, 0.1918870360f, 0.2125147879f, -0.1131623611f, 0.0421042852f, -0.0937807634f, 0.1720205992f, -0.0324010551f, 0.1921548694f, 0.1452830881f, -0.2281043530f, 0.1116250977f, -0.1459687799f, 0.1289766729f, -0.1166804731f, 0.1403912306f, -0.1885949820f, 0.2528136969f, -0.0372494832f, 0.0105355913f, 0.2159900218f, 0.3574281931f, -0.0615893267f, 0.0319184884f, 0.0155817466f, -0.1651189178f, 0.2691269219f, 0.0574980117f, 0.2619055808f, 0.1891310811f, -0.0919696316f, -0.1672403514f, -0.1923854053f, -0.0739915520f, 0.2272301465f, -0.1082339808f, -0.1563087702f, -0.0221463367f, -0.0977912620f, -0.0746434480f, 0.1637113839f, -0.1813525707f, -0.1739310473f, -0.1654830426f, 0.0227586217f, -0.1053333655f, -0.2408251911f, -0.0562166125f, -0.2477353364f, -0.0704878122f, -0.1954277903f, -0.0816343576f, -0.0542789698f, 0.5172739029f, -0.2358078957f, 0.1256544590f, 0.1459608376f, -0.4489397407f, -0.0435311012f, -0.1436913460f, 0.0916883498f, 0.0468792357f, -0.1618694961f, 0.0539891534f, -0.2687118649f, 0.1119162515f, 0.0884681046f, -0.2312001735f, 0.2586967051f, 0.0857490003f, 0.0190979131f, 0.2968015075f, -0.0953900069f, 0.4507469833f, 0.1237953454f, 0.2339038253f, 0.1539983898f, -0.0727574155f, 0.3701340258f, -0.1150176451f, 0.2618486583f, -0.1892930269f, -0.0243062750f, -0.1182867885f, 0.1844857335f, -0.0849723965f, 0.0361041501f, -0.3161862791f, -0.0419354625f, 0.1453799456f, 0.1415053159f, 0.2958761156f, -0.1347093284f, 0.2496169358f, -0.0759102330f, -0.0428034365f, 0.1077936515f, 0.4828787744f, -0.0488658734f, -0.0379924439f, 0.2618994415f, 0.1182932854f, -0.3799859285f, -0.1797326952f, 0.1147693470f, -0.1772773117f, 0.1640672386f, 0.0789293945f, -0.1773201078f, -0.3045704961f, 0.1838254929f, 0.1296321750f, 0.2690448761f, 0.0413947441f, 0.0051577119f, 0.3329407573f, 0.2564440072f, 0.1932526529f, -0.2550276816f, 0.3707003891f, 0.0032937829f, 0.0987462699f, -0.0267483834f, 0.1949486732f, 0.2418075949f, 0.0105006574f, -0.2986338735f, -0.2031206787f, -0.0809788927f, 0.2500362396f, -0.1292475015f, -0.0321954228f, 0.1163605973f, -0.0187470987f, 0.0470703021f, 0.1115074530f, 0.0738251135f, 0.0037243245f, 0.2184714824f, -0.2071350664f, 0.0635286942f, -0.1640582979f, 0.1741795689f, 0.3026939034f, -0.0898689628f, 0.0459749177f, -0.0755081549f, 0.1296018809f, -0.3031657636f, -0.0016455045f, 0.0431692563f, -0.0231812224f, -0.3644662797f, -0.2566085458f, 0.2158504426f, -0.1195702031f, 0.0730490386f, -0.3738619089f, 0.2387735993f, 0.1954078525f, 0.2371628881f, -0.0587109551f, 0.1175287291f, 0.3449393511f, -0.1268926561f, -0.0810095817f, 0.0473379940f, -0.2172375768f, 0.1350323111f, 0.0110199181f, 0.0519466437f, -0.3616085947f, -0.2364867628f, 0.0195566956f, -0.0824293122f, -0.0818259493f, -0.1694725901f, 0.2958533764f, -0.1222836077f, 0.0549592488f, 0.1467031538f, -0.1234844550f, 0.1310653090f, 0.3523847163f, -0.0861009210f, -0.2011688948f, 0.1832360625f, -0.1151304990f, -0.0735602677f, -0.0524308085f, 0.1143760905f, -0.0154369613f, -0.2076670527f, -0.1215827987f, -0.1910938174f, 0.0420530625f, -0.1402652115f, 0.2344753593f, -0.0202247445f, -0.0404788516f, -0.1597253531f, -0.1018573865f, -0.1286390275f, -0.1724620461f, -0.1575704962f, 0.1496353745f, 0.0217773002f, -0.1868130416f, -0.1299465895f, 0.0988442451f, 0.2676670849f, -0.1402599216f, -0.2916229367f, 0.1364515722f, -0.1491035819f, 0.0378235951f, -0.3895662427f, -0.0904562622f, 0.1900076717f, -0.2165203393f, 0.0129728252f, -0.0712532699f, 0.1077477634f, -0.2857759297f, 0.1107788235f, 0.1261296123f, -0.2409315556f, -0.2322763652f, -0.2684212923f, 0.2934956849f, 0.1563723236f, 0.0124275824f, -0.1454501748f, -0.0467994399f, -0.3334061503f, 0.0936303139f, -0.2160385251f, 0.4336003959f, -0.0031170654f, -0.0399556160f, 0.1210249886f, -0.0398774520f, 0.3334170580f, 0.2479950339f, -0.0101782829f, 0.1395657361f, -0.1133029014f, 0.1133877486f, -0.0754769444f, -0.2291462421f, -0.0677560121f, 0.1779353172f, -0.2735059857f, -0.2206484675f, -0.0631990880f, -0.0483311899f, -0.0405828282f, -0.0417766608f, -0.4164099395f, -0.1097310185f, -0.0479408018f, -0.2305301875f, -0.1202522293f, -0.0360114314f, 0.3237618208f, -0.1014073938f, 0.0683849007f, 0.1395151615f, 0.1991953552f, 0.3160865903f, 0.0421117842f, 0.2269645929f, -0.1669874191f, 0.1128194779f, -0.1268106103f, -0.0106322542f, -0.0114625460f, -0.2253615260f, -0.1324130893f, -0.0265550707f, -0.0795677006f, -0.0694662184f, 0.0245296992f, 0.0005510376f, -0.0648062676f, 0.1798005104f, 0.1690727174f, 0.0603790134f, 0.3265959322f, -0.0903426781f, 0.3544891775f, -0.1367213577f, 0.0200012028f, 0.3539632857f, 0.0361406580f, -0.1795597225f, -0.2405320853f, 0.0869878531f, 0.2057316750f, 0.4100182056f, -0.0182189494f, 0.0404134430f, -0.0219253767f, 0.2976280749f, -0.1438983828f, -0.0983442068f, 0.0098758982f, -0.1145559028f, -0.1486671269f, 0.0197032783f, -0.3383339345f, 0.1057535559f, 0.1124302894f, 0.0212973058f, 0.0415700227f, -0.1550991386f, 0.0244927369f, -0.1031875536f, 0.1306392550f, 0.4453066587f, -0.0460618064f, 0.1736721396f, 0.1646761298f, -0.1372848898f, -0.1953216344f, -0.0429789685f, -0.1820793599f, -0.0017249149f, -0.2496209741f, 0.1104105860f, -0.2198832780f, 0.1763753891f, 0.0153474314f, -0.0496560372f, -0.0850884467f, 0.5674257874f, 0.0642745197f, -0.0163228083f, 0.1784588397f, 0.2116499543f, -0.0962754264f, 0.1042796075f, -0.2636814713f, -0.0097265365f, -0.1832077503f, 0.0593925007f, 0.1530088335f, -0.0640737265f, 0.1017592400f, -0.0555899478f, 0.0296158995f, -0.0935367569f, 0.1289980114f, 0.3715495765f, 0.1718127280f, -0.0709439367f, -0.0343117155f, -0.0647235438f, 0.2472412586f, 0.2233109176f, 0.0070879082f, 0.1385063678f, -0.2221567631f, -0.0920460224f, -0.1200694963f, 0.2390551120f, 0.0159928594f, 0.1754164249f, -0.1573439240f, 0.1490267217f, 0.1727260351f, -0.1438060552f, 0.1605695188f, -0.2349848449f, -0.0437967516f, -0.1809724122f, 0.2977569997f, 0.4443211854f, -0.0895378441f, -0.2032921612f, 0.0250665713f, 0.0643696859f, 0.2178634256f, -0.1943558455f, 0.0630216822f, -0.0225446615f, -0.2087585032f, 0.1611966789f, 0.2123860568f, -0.4552226067f, -0.2870627940f, -0.0630895793f, 0.0494142547f, 0.1004342735f, -0.0846278667f, -0.1437759995f, -0.0541002154f, 0.0646810085f, -0.2867653668f, -0.2782617211f, -0.0028351857f, -0.3507117331f, 0.1364583224f, 0.0201418456f, 0.1333096027f, -0.4896304011f, 0.0003618869f, -0.1461213082f, -0.0960165188f, 0.0829997957f, 0.0806052014f, -0.0625335276f, 0.1775479466f, -0.0787400901f, -0.1318269223f, 0.1317585260f, -0.0825354904f, 0.0047626379f, -0.0419655405f, 0.0765857473f, 0.0799745768f, 0.0091031557f, -0.0316415727f, -0.0766811371f, 0.2467319965f, 0.2066744715f, 0.0998186171f, -0.2259123176f, -0.0562647432f, 0.0943808481f, -0.1005475223f, -0.1295643151f, -0.2184719443f, 0.0277947355f, 0.0842077211f, 0.1302379519f, 0.2136632204f, 0.4057871103f, -0.1970069110f, -0.1127773598f, 0.3021974564f, 0.1893119514f, -0.2383899540f, -0.0639612675f, 0.1411458254f, -0.0953482315f, -0.2573998272f, -0.0644119754f, 0.1471824348f, 0.1690701246f, -0.2432210892f, 0.2956575155f, -0.2572982311f, 0.4327433109f, 0.2183566093f, -0.2169835120f, -0.1628197283f, 0.3081179857f, 0.1727527082f, 0.1464840919f, 0.1355886608f, -0.1109699681f, -0.0483636633f, 0.0279680993f, -0.0401294790f, -0.0980652496f, -0.0016633937f, -0.1847570091f, 0.1980107278f, -0.1200431883f, 0.1510808021f, -0.1344088614f, -0.1126301363f, 0.3202611208f, 0.1283124089f, -0.1752272844f, -0.1352320313f, -0.0327298939f, -0.4009819031f, -0.0212879553f, -0.2042665184f, -0.0787687674f, 0.0674005523f, -0.1825622767f, 0.0983714536f, 0.2706099153f, -0.0791507885f, -0.1263778508f, 0.1555258036f, -0.0310245343f, 0.2628208697f, 0.0180683266f, -0.0418644361f, -0.3128271997f, -0.2018434703f, 0.0204371344f, -0.1406419575f, 0.1282797307f, 0.3639297485f, 0.0259108692f, 0.0973366499f, 0.0856080726f, -0.0961566642f, 0.0672127157f, 0.0876109451f, -0.0988138840f, 0.1281132400f, -0.1040924042f, -0.1463752985f, 0.3220385909f, 0.2584866285f, -0.1495854855f, -0.0662663877f, -0.0748674348f, -0.1639454961f, -0.2572299540f, -0.1498256028f, -0.1337309331f, 0.0908946395f, -0.2421653718f, -0.3429926634f, -0.2246825248f, -0.1071707979f, 0.3527592123f, 0.2298781872f, 0.3963427246f, 0.2533132434f, -0.0002966355f, 0.0876983330f, -0.0272361990f, -0.0492471755f, -0.0414363854f, -0.2209906429f, 0.1656147093f, 0.0852911770f, 0.0908003077f, 0.0614795499f, 0.0386864357f, 0.2182892412f, -0.2764248550f, -0.0145378616f, -0.1343471110f, -0.1443190724f, -0.1224683970f, -0.0238013919f, -0.0457662418f, -0.0556650758f, 0.1113732159f, 0.3431582153f, -0.3069620430f, -0.3100428879f, -0.1122853681f, 0.1258208454f, -0.1305637509f, -0.0493624769f, 0.0534499884f, 0.2539737523f, -0.1945520341f, -0.0676183477f, -0.4017176926f, 0.0639709011f, 0.0390401594f, 0.1319827884f, -0.2592086792f, 0.2843298018f, 0.0431696326f, -0.1844389737f, 0.1272649169f, 0.0541013218f, 0.1699199975f, 0.0198675357f, 0.0710343793f, 0.1333276480f, -0.2075196505f, -0.0968727842f, -0.2780096829f, -0.1450785547f, -0.0214606691f, 0.0837976113f, 0.1822553426f, 0.0899101645f, 0.1088302061f, 0.1382217258f, 0.0353502370f, 0.1396035850f, -0.2126400024f, -0.1935315579f, 0.0547250584f, 0.0936600640f, -0.1372572333f, 0.2644571662f, -0.0299825612f, 0.3082766533f, 0.0019318050f, 0.0076800133f, 0.0414901860f, 0.3754598200f, -0.0668962970f, -0.2213770002f, 0.2346288413f, -0.1662004888f, -0.1583414376f, -0.0800923184f, -0.1012674272f, 0.2029891759f, -0.1060792878f, 0.1891649812f, -0.1215873137f, -0.2201157659f, 0.1329133511f, -0.1230888665f, -0.0002895784f, 0.2454686016f, 0.1127289906f, -0.1166749522f, 0.4258807003f, -0.0888484791f, -0.0677923858f, 0.1887077540f, -0.0075468495f, 0.1782868505f, -0.0132757695f, 0.3226124346f, -0.0800853148f, -0.3876631558f, -0.0978740156f, 0.0929796994f, 0.1643214524f, 0.0983910412f, 0.0362993442f, -0.0226689130f, 0.3340106905f, 0.0651097000f, -0.0509772226f, -0.3190373778f, -0.2156377733f, 0.0269476138f, 0.1623423994f, 0.1687235534f, 0.1167225540f, 0.0786527246f, 0.0842005312f, -0.0930032283f, 0.0294176359f, -0.1690286547f, 0.0905820876f, 0.1457995325f, 0.2160313725f, -0.1882121563f, 0.1640957594f, -0.1921416074f, 0.1004675329f, 0.5088276863f, 0.1951385736f, 0.2468081862f, 0.1210623682f, -0.2142340094f, 0.0460391343f, -0.0240685418f, -0.1066777185f, 0.0979991257f, -0.2901116014f, -0.1936111450f, -0.0149332928f, 0.0233884118f, -0.0934618786f, -0.2709397972f, -0.2317140400f, 0.0652718470f, 0.0570465364f, 0.0399814956f, 0.0503658243f, 0.0514495075f, -0.1391800940f, -0.2723157406f, 0.0830377191f, -0.3221529722f, 0.1577012539f, 0.2479569316f, 0.2429267764f, -0.0335006081f, -0.2303728312f, -0.0432600938f, -0.2096964866f, -0.2547859251f, -0.0853716135f, -0.1223624796f, -0.3093036413f, -0.0660813674f, 0.0107751014f, -0.3504374921f, 0.1102415025f, -0.1053406447f, 0.2171519846f, 0.1294112653f, -0.2039784789f, -0.0595228337f, 0.2508789897f, 0.1040063873f, 0.0752921775f, 0.2125368565f, 0.0149000483f, 0.0182888322f, 0.0937806442f, -0.0905852318f, -0.0467497371f, -0.1575927138f, 0.2936076820f, 0.0798326135f, -0.2393690646f, 0.1057341322f, -0.1146862060f, -0.0935183689f, -0.1026371792f, 0.2241466641f, 0.4118069708f, -0.2333783209f, 0.0823663995f, -0.0195245445f, 0.0991745740f, -0.0361419506f, -0.2760306597f, -0.0422721989f, 0.0386128165f, 0.2969862521f, 0.0786194578f, -0.0056552202f, 0.1207620278f, -0.0971171036f, -0.1478774250f, -0.1279497147f, 0.1338730156f, -0.2387499362f, -0.1113367081f, -0.2792828977f, -0.1422629058f, 0.1964103878f, -0.0157259461f, -0.1485081911f, -0.0471835881f, 0.1904996336f, 0.1096129492f, 0.0513724722f, -0.0631708279f, -0.0219907686f, 0.2724125385f, -0.2451072931f, 0.1712995023f, -0.0817879885f, 0.1099942699f, 0.0812681541f, -0.2481471449f, 0.3150022328f, 0.2141236365f, -0.3889704347f, 0.0723277181f, 0.0879784450f, 0.2487215698f, 0.2379408628f, 0.2711302638f, 0.0529857278f, -0.0255415402f, -0.0897117108f, -0.1304189265f, 0.0211294331f, 0.2472520769f, 0.0612528175f};
const float b2[] = {0.0391182080f, -0.0387043804f, -0.0061293487f, -0.0293963905f, 0.0255358331f, 0.0187975951f, 0.0116116060f, -0.0134222759f, -0.0009664407f, -0.0870955586f, 0.0727634951f, 0.0223467350f, 0.0160322376f, -0.0269081239f, -0.0145976935f, 0.0242295675f, -0.0078715449f, 0.0260152780f, 0.0182356257f, -0.0173118860f, -0.0244539045f, -0.0028090104f, -0.0125911124f, -0.0210852511f, 0.0092082592f, -0.0478013605f, 0.0073679122f, -0.0131237516f, -0.0195486043f, 0.0082801636f, 0.0113424538f, 0.0270175766f, 0.0257262848f, -0.0057453406f, -0.0121866139f, -0.0530608036f, 0.0008343288f, 0.0160373878f, -0.0063950052f, -0.0122470688f, 0.0443408303f, -0.0341535807f, 0.0248606801f, 0.0345682129f, 0.0333870612f, 0.0177032258f, -0.0012266597f, 0.0005778995f, 0.0048633050f, 0.1083757281f, 0.0071473215f, -0.1533316225f, -0.0062095765f, 0.0208903383f, -0.0437352471f, -0.0271542985f, 0.0046193209f, 0.0011021759f, 0.0037327497f, 0.0074646142f, 0.0077267601f, 0.0167450048f, -0.0007089169f, -0.0120279090f};
const float W3[] = {0.0059732096f, 0.2322380394f, 0.0040350128f, 0.0970344916f, -0.0668330118f, -0.0037889278f, 0.0046937899f, 0.0033609583f, -0.0063536987f, -0.1421370506f, 0.0832254812f, -0.0023006015f, -0.0007041039f, 0.0515782014f, -0.0014237055f, 0.0026128779f, 0.0036403118f, -0.0062641748f, -0.0015794926f, 0.0001931743f, 0.0078565180f, 0.0005459422f, 0.0062165698f, 0.2153703272f, -0.0051257908f, -0.0010783946f, 0.0072831563f, -0.0039653918f, -0.0017817692f, -0.0016065866f, 0.0005402808f, -0.0025269024f, 0.2454465181f, -0.0007896836f, -0.0042091906f, 0.0022420911f, 0.0037246493f, -0.0083898716f, -0.0009541974f, -0.0044286828f, -0.0015211436f, -0.0047663688f, -0.0029097742f, 0.0412247665f, -0.0029428017f, -0.2717424631f, -0.0017130054f, 0.0027420227f, -0.0013976634f, 0.1148671955f, -0.0042187995f, -0.1705176085f, -0.0019922885f, -0.1299165338f, 0.0071036946f, 0.0046569998f, 0.0005468496f, 0.0039486787f, -0.0077678678f, 0.0019706707f, -0.0060273777f, -0.0013324233f, -0.0010082341f, 0.0013237749f};
const float b3[] = {-0.0597232133f};

#endif