#ifndef PARAMETERS_H
#define PARAMETERS_H

const float W1[] = {0.2191999406f, 0.1453138739f, 0.1163281500f, 0.0036088503f, -0.1754860133f, -0.1474756151f, -0.0843981132f, 0.2063759565f, 0.0391711816f, 0.0565141328f, -0.1410255134f, 0.0122888898f, -0.2504109442f, 0.0712387934f, -0.0363416858f, -0.0548714101f, 0.2763372660f, -0.0638801903f, -0.2132889628f, -0.0039202785f, -0.0661980957f, 0.3659494519f, 0.0729789659f, -0.0804715604f, 0.1648084968f, 0.4095131755f, 0.1612853706f, -0.0444980972f, -0.0009583455f, -0.3312742412f, -0.3481442928f, 0.1825767010f, 0.1671660990f, 0.1642189622f, -0.4046597779f, -0.5763606429f, -0.3780365586f, -0.1082775146f, -0.0743336827f, -0.1252703518f, -0.0632156208f, 0.0463556498f, -0.7812168598f, 0.6361870170f, 0.1427138448f, 0.2803452313f, 0.1364105046f, -0.0303422846f, 0.1334026754f, 0.1258997023f, -0.3073239625f, 0.1153867021f, 0.1524881721f, -0.2286757678f, -0.3430221081f, 0.4356367588f, 0.1668257415f, 0.2208412737f, -0.0124722291f, -0.0173058007f, 0.3465145230f, 0.0912368968f, 0.0076455320f, 0.2130514979f, -0.0706284121f, -0.0469796360f, 0.0540200360f, -0.2194148302f, 0.2224257141f, 0.3282459676f, -0.2467506826f, 0.4280996621f, 0.3680387139f, 0.1674875170f, -0.2177322805f, 0.1487192810f, 0.1124968454f, -0.0363802761f, 0.1049447507f, -0.1193066835f, -0.0518777221f, 0.1192043871f, -0.3562670052f, 0.1399134994f, 0.3060580194f, -0.5246877670f, -0.0109055396f, 0.8271505237f, -1.3224154711f, -0.2563809156f, 0.0036723216f, 0.0223710723f, -0.0128334053f, 0.0684917495f, 0.0779624581f, -0.0760950297f, -0.0143430363f, -0.0502368622f, 0.2578007877f, -0.2504949570f, -0.5000804663f, -0.0876535103f, 0.1439417601f, -0.2170987576f, 0.1201859936f, -0.2619550824f, -0.1010981947f, 0.2424520403f, -0.5534169078f, 0.0990892276f, -0.0327843763f, -0.3912082016f, 0.2781390548f, 0.1582817733f, -0.6456051469f, 0.1149957404f, 0.1537984759f, -0.2284902930f, 0.0927031860f, -0.2286778688f, -0.1301433891f, -0.0872109979f, -0.2721498907f, -0.1574696600f, 0.1405473202f, 0.0010393399f, -0.3030776381f, 0.2646882236f, -0.2777178586f, -0.7690491676f, 0.5521680713f, 0.1615869403f, -1.1653209925f, 0.6812344790f, -0.0831211209f, -0.1937545538f, -0.5740905404f, -0.1288101375f, -0.6785286665f, -0.1652265042f, 0.1097301468f, -0.0164447259f, -0.1851453632f, 0.2687616050f, 0.0548469983f, 0.0285524055f, 0.1704070866f, 0.0553358793f, -0.0829545632f, -0.3779742420f, -0.3428654969f, 0.0475522876f, 0.1704402715f, -0.0968970880f, -0.2805312276f, -0.0335343517f, 0.6517186761f, -0.2408555299f, -0.1673389375f, -0.2187748998f, 0.1294263750f, 0.0882570371f, -0.1512860358f, -0.0080789318f, -0.0393325724f, -0.6380606294f, 0.1308834851f, 0.3402394354f, -0.0533219576f, -0.0375451595f, 0.1445534974f, -0.0437497199f, 0.2863340378f, -0.3172479272f, -0.4052079618f, 0.0864910409f, 0.2083248347f, -0.5020924807f, 0.4861176610f, -0.0137692327f, -0.6267379522f, -0.2125511765f, 0.1174516901f, -0.7603177428f, -0.1448413432f, 0.2181156576f, -0.2579367459f, -0.4939779639f, -0.0503821708f, -0.2938387096f, -0.3502098918f, -0.3359177411f, -0.2669144571f, -0.0832108855f, 0.0262745097f, -0.3149675429f, 0.1198602915f, 0.0629202202f, -0.5479546189f, 0.2428068817f, 0.4938477874f, -0.5133627653f, -0.0238474291f, 0.2138237953f, -0.5343485475f, 0.3075709939f, 0.0004371270f, -0.6914917827f, 0.1030819044f, -0.0638584048f, -0.3999701440f, 0.2464135289f, -0.0693312734f, -0.4515023828f, -0.1430151165f, -0.3785767555f, -0.5368110538f, 0.2461795062f, -0.2265949398f, -0.9458839893f, 0.8304561377f, -0.0008328692f, -1.3813056946f, 1.4883579016f, 0.3854231536f, -0.3959324956f, -0.0270097908f, 0.1680523902f, -0.2207813859f, 0.2463732213f, -0.2378708571f, -0.2384788096f, 0.1799451858f, 0.2045049369f, -0.0120760910f, -0.1867457330f, -0.1093976796f, 0.3753816187f, -0.1238010526f, -0.2622170448f, -0.2320397347f, 0.0171213411f, -0.2433673739f, -0.1323766410f, -0.2191582322f, 0.3774594665f, -0.3043124974f, -0.1576604843f, 0.1450619549f, -0.0011667141f, -0.0901680291f, -0.0161833744f, -0.0229032915f, -0.3588295579f, -0.0065367124f, -0.1319554597f, 0.0745874867f, -0.1601968110f, -0.3664592505f, -0.2085455656f, -0.1178194210f, 0.2135884166f, -0.1615196764f, 0.1485817432f, -0.1600740552f, 0.3242311776f, -0.2865566611f, 0.0487531200f, -0.1905069500f, -0.3581917584f, -0.1053117886f, -0.1013577878f, -0.0673365295f, 0.0072183274f, 0.1228216514f, -0.1054718941f, -0.0881714970f, -0.1686399430f, -0.1241271943f, 0.0459003001f, 0.0997896045f, 0.2613958716f, -0.4547510445f, -0.0180784892f, -0.0738972500f, 0.0515069626f, -0.0797187537f, -0.1686891466f, 0.1822079867f, 0.0012481064f, -0.0320344269f, 0.3957475126f, -0.1843038052f, -0.3901906013f, -0.2209195644f, -0.1536258459f, -0.2522189021f, -0.0035837935f, -0.0195640754f, -0.0962476507f, -0.3248203099f, -0.0172296800f, -0.0682324991f, -0.0874935016f, -0.1841004789f, 0.5275954604f, 0.1973165274f, -0.1638431400f, 0.5826995969f, 0.4402377903f, 0.0602635443f, -0.1261944324f, 0.6921901107f, -0.7112283111f, 0.1552911699f, 0.2237039804f, -0.6097888350f, -0.0096778935f, 0.1202986389f, -0.0716893747f, -0.1569701433f, -0.2739793658f, -0.3333270252f, -0.0286811907f, 0.5161014199f, -0.3980545998f, 0.0639273524f, 0.3170794249f, -0.3328563869f, 0.2878272235f, 0.1141797230f, -0.2510090172f, -0.0228813197f, -0.4324643314f, -0.1390351504f, 0.1523952335f, 0.0557000116f, -0.5176888108f, -0.0938033685f, 0.3418976068f, -0.4662644267f, 0.2135665119f, -0.0479569696f, -0.2723730206f, 0.0350933820f, 0.1302816570f, -0.0667774230f, 0.1399891824f, -0.1144782975f, 0.2974874079f, -0.1819812208f, -0.1293129772f, -0.1399139166f, -0.2911822796f, -0.4539309740f, 0.1512950212f, -0.1032706499f, -0.6293975115f, 0.4706906080f, 0.1467099041f, 0.2962002158f, 0.0590332374f, 0.0270735901f, -0.4207834601f, -0.1862972528f, -0.4192770720f, 0.3242469728f, -0.0883695781f, 0.0949028581f, 0.0530040301f, 0.1302245557f, 0.1617483795f, 0.0194676332f, 0.0643815547f, -0.1659469157f, 0.0395429544f, 0.2396755069f, 0.3216034472f, 0.0934671611f, -0.0089514880f, -0.1740190536f, 0.1749044508f, 0.0828175843f, 0.2575085163f, 0.2443124652f, -0.0267662555f, -0.0184078515f, 0.1755590886f, 0.4306761622f, -0.3310378790f, 0.3048996627f, 0.0884709060f, -0.0827581137f, 0.0728993192f, 0.0311455540f, 0.0608138107f, 0.4207295179f, -0.4647600055f, -0.0877169594f, 0.7582511306f, -0.3291279972f, -0.0025707062f, 1.1527253389f, -0.5069319010f, 0.2228926420f, 0.2901596427f, -0.8895431757f, 0.1261952221f, 0.3052100539f, -0.4590692222f, -0.0089653675f, -0.0097798472f, -0.2590414882f, 0.0790968463f, 0.4134439230f, -0.5665383935f, 0.1374415159f, 0.0566573367f, -0.3133512437f, -0.1343801022f, 0.0734437630f, -0.1284539104f, -0.3863515258f, 0.3626295030f, 0.2403098643f, -0.0368628316f, 0.1578451544f, -0.3138727546f, 0.2513026893f, -0.2372085303f, -0.1789962053f, 0.0832461566f, 0.0567672104f, -0.1254491508f, 0.1287241578f, -0.0605605841f, -0.3529855013f, 0.0706762671f, -0.0628969073f, 0.0895434469f, -0.0529926978f, 0.1504760832f, 0.1020801589f, -0.0808363929f, -0.2957954407f, 0.0415577404f, -0.2042445689f, -0.9882069230f, 0.3623766303f, 0.1394643337f, 0.0929737985f, -0.2235282958f, 0.1724159867f, 0.3933902383f, -0.3105526865f, 0.0928131714f, 0.2974943221f, 0.1032378972f, 0.0167818628f, 0.1771691740f, 0.0870488361f, -0.0964666903f, 0.0599828288f, -0.1081440896f, 0.0341868140f, 0.4808612466f, -0.1371432394f, 0.0253422819f, 0.4994449914f, -0.3959801197f, 0.1217752174f, 0.1075763702f, -0.3353751898f, 0.0781224221f, 0.4844075441f, -0.3399131298f, 0.2054519355f, 0.3605346680f, -0.3439571261f, -0.1304989606f, 0.1519870311f, -0.4248233736f, -0.1136308759f, 0.2543950975f, -0.5535932779f, 0.2563029528f, 0.2893722355f, -0.4870576560f, 0.0715406463f, 0.8540270329f, -1.1800091267f, -0.0062145633f, 1.2315981388f, -2.0490014553f, 0.0588572398f, 0.0744383037f, 0.1810759008f, -0.1319555044f, 0.1934532821f, -0.0418561138f, 0.0178295504f, -0.0412078872f, -0.2447256744f, 0.1238399372f, 0.2208240032f, -0.0380424820f, 0.0254663900f, 0.1412758380f, 0.1597505659f, -0.1412479132f, 0.6563647985f, 0.2399638593f, 0.3010479510f, 0.1787383258f, 0.0132649923f, -0.0020060306f, 0.0255240407f, 0.3350040913f, 0.1285609156f, -0.4534968138f, -0.2041354179f, 0.1541254967f, -0.2159844190f, -0.0430723242f, -0.0387433954f, -0.0679980218f, -0.1873371005f, -0.0152836908f, 0.0265040938f, 0.3917224705f, -0.0866253451f, -0.3923272491f, 0.2352658063f, 0.2446451932f, 0.1603646874f, 0.1409746855f, 0.0201521218f, -0.2390546799f, -0.1530076414f, 0.1273987144f, -0.0405002646f, 0.1030453444f, -0.2304748297f, 0.0268123280f, 0.3312441707f, 0.0876294300f, 0.0436996222f, 0.0156016201f, 0.0271651465f, 0.3378421664f, 0.2889501154f, 0.3034448028f, 0.2374263257f, 0.1676268578f, 0.0399178304f, 0.1928299963f, 0.4674759507f, -0.2600789964f, -0.3341670036f, 0.5859890580f, -0.0232397392f, -0.0666111261f, 0.1886426061f, -0.4214867949f, -0.1844645888f, 0.4202628136f, 0.1548696160f, -0.0307553709f, 0.1534954906f, 0.1921652108f, 0.0058462019f, 0.4176647961f, 0.0034526468f, -0.4594819844f, 0.0214037057f, 0.0152256014f, -0.1791372150f, 0.1094573960f, -0.2432190180f, -0.0385145880f, 0.6069480181f, 0.0947195068f, -0.5242487788f, 0.3538488746f, 0.1502970159f, 0.0983383656f, -0.1113385111f, -0.2086541802f, -0.1566844434f, 0.4292010665f, 0.0639496669f, -0.1029826924f, -0.0958442315f, 0.3304334879f, 0.1205326170f, 0.2901513875f, 0.0320493579f, -0.2857256830f, 0.0388335623f, -0.4046038389f, 0.4467398226f, -0.0445822924f, -0.3194587231f, 0.1067776829f, 0.1277677864f, 0.1202322394f, -0.1094749942f, 0.0791677162f, 0.0292802714f, 0.4082852006f, -0.1255627722f, 0.1964084208f, 0.1316742599f, 0.3296316564f, 0.1399826705f, 0.0504093021f, -0.0905394480f, 0.1909096390f, -0.0280556791f, 0.0280383956f, -0.1585261524f, -0.0253228191f, -0.1020160764f, 0.4453632236f, 0.7560800314f, -0.7818008661f, 0.1922003776f, 1.1517341137f, -0.6165454984f, 0.3277765214f, 0.3951347768f, 0.0196557138f, -0.4556977153f, -0.0231419858f, -0.2305395156f, 0.1315819919f, -0.0436878018f, -0.1331452727f, -0.0833863020f, 0.2274473906f, -0.1337094605f, -0.0948474184f, 0.0856007412f, -0.4437695146f, -0.3454860747f, 0.0727323741f, -0.2595132589f, 0.3823345602f, 0.5298341513f, -0.2942517698f, 0.2795153260f, -0.2137605399f, -0.1027028859f, 0.0061732950f, -0.0187106114f, -0.2598811984f, 0.0156192081f, 0.2636495233f, -0.2671887577f, -0.2030162066f, -0.2489220351f, 0.1173717380f, -0.0566787608f, 0.2041654140f, -0.0845894665f, 0.3497759700f, 0.0078162709f, 0.1319757700f, -0.3419739604f, 0.1436808854f, -0.1199602261f, -0.1160220057f, 0.6014347076f, -0.3590756655f, 0.3534128070f, 0.1788388640f, 0.4944754243f, 0.0885731354f, 0.7105411291f, 0.1036451459f, -0.1712631881f, 0.2031431347f, -0.2491807789f, 0.1143730730f, -0.2718403339f, 0.1336538792f, -0.2522903681f, -0.0870266706f, 0.2304801941f, 0.0297385678f, 0.5885792375f, -0.1812727451f, -0.1010542437f, 0.2472746372f, -0.1586729735f, 0.1167981103f, 0.2287155390f, -0.2426985800f, -0.0457771160f, 0.2683053911f, -0.0311489515f, 0.1408356279f, 0.5640252829f, -0.1499637514f, -0.0275908355f, 0.1912759840f, -0.0494870767f, -0.1406963617f, 0.0402730741f, 0.2311345935f, 0.0710555613f, 0.2652170658f, -0.2413673550f, -0.0637498274f, 0.4362572432f, -0.8433973193f, 0.0543904230f, 0.9967691302f, -1.6809056997f, -0.0478293002f, -0.0866539553f, 0.1434722394f, 0.0385406949f, -0.5457675457f, -0.3026320636f, 0.2929155827f, -0.1934121698f, -0.1767691076f, -0.1102356464f, -0.0636515245f, 0.1597731411f, 0.2860372066f, -0.3406358063f, 0.1815049648f, 0.2265610546f, 0.1203868985f, -0.0546742193f, -0.4586118460f, -0.2296113074f, -0.0007627630f, 0.0038384255f, -0.1020735800f, 0.0163863413f, -0.0260881018f, -0.1882716417f, -0.2182913870f, -0.3192646503f, -0.3533622026f, 0.4292227030f, 0.3862688839f, -0.2705377340f, 0.0392004661f, 0.1180821136f, -0.1937381625f, 0.1676624566f, -0.0055589788f, -0.1557204276f, 0.0666726679f, -0.3360047638f, -0.2922101021f, 0.1531363726f, 0.0942080989f, -0.6294064522f, -0.2660200596f, -0.1744344085f, -0.3371067941f, 0.0169549845f, -0.0627082810f, -0.5421165824f, -0.1701474339f, 0.0049702758f, -0.4274787009f, -0.2252536863f, -0.3519920707f, 0.2625443637f, -0.1193118915f, 0.0648887083f, -0.2484741509f, -0.5587647557f, 0.1952255666f, -0.0707397312f, -0.0908421576f, 0.0260256361f, -0.3443419933f, 0.1382539719f, 0.2819013000f, -0.1288938224f, -0.0486652292f, -0.0473152027f, -0.1025057435f, 0.1011252999f, -0.0708105788f, -0.2208835036f, 0.1420489103f, -0.2817966044f, -0.3495400846f, -0.4816865325f, -0.0539689325f, -0.0592818484f, 0.0587363243f, -0.2435860187f, -0.2516793013f, 0.2757192254f, 0.0589465648f, -0.6751350164f, 0.6640198231f, 0.0897297412f, -0.6170622110f, 0.9203057289f, -0.1327167153f, 0.5078401566f, 0.0135404551f, 0.1116193086f, 0.2033445239f, 0.3355787694f, -0.6415869594f, 0.1900094748f, 0.0561221652f, -0.1508578360f, 0.0712713525f, 0.1829595417f, 0.2172823548f, -0.3534859419f, 0.0901721120f, 0.0423198231f, 0.4178304374f, -0.4955486655f, -0.1218292415f, 0.2879363596f, 0.0406924300f, -0.2043984830f, 0.1270563900f, 0.1438811421f, 0.1238953248f, 0.5647838712f, -0.1250903010f, 0.0369044244f, 0.2841418087f, -0.1983083189f, 0.0223229863f, 0.0220209807f, -0.0931392089f, 0.3213087022f, -0.1437705457f, -0.2703824937f, -0.0171513353f, 0.0761369541f, -0.0530566722f, 0.0002284152f, 0.7486455441f, -0.3898166716f, 0.3163003623f, 1.4216299057f, -1.5776355267f, 0.2632396519f, 0.1732560396f, 0.3133038878f, -0.2481954843f, 0.4243010879f, -0.0930962488f, 0.0072838487f, 0.4415348470f, 0.2298119664f, 0.0047249286f, 0.2458121181f, 0.2120103687f, -0.1472081095f, 0.1047279984f, 0.0619961843f, -0.0696543306f, 0.0370509662f, 0.3103128076f, -0.5941942930f, 0.2856284976f, 0.2187957913f, 0.1162467450f, 0.3764799833f, 0.2480772734f, -0.1010587364f, 0.1408116519f, -0.0610969737f, 0.1008595377f, 0.4642621577f, 0.4133655727f, -0.2207712531f, 0.4965198040f, 0.0146854371f, 0.1230260208f, 0.2343239039f, 0.0459436253f, -0.1662755311f, 0.3747953773f, 0.3443482220f, 0.0090836175f, 1.0907788277f, -0.4427638948f, -0.0779182166f, 1.4544278383f, -0.9899649024f, -0.0493105128f, -0.0006779481f, -0.1576404423f, -0.2650071383f, -0.2946707904f, -0.4444177151f, 0.0856030956f, 0.2185179591f, 0.2373527139f, 0.0495321080f, 0.1718045771f, 0.4436130524f, -0.0603326075f, -0.6276651025f, 0.1638298780f, 0.1718259305f, 0.0607626252f, 0.4614215195f, -0.2126735896f, -0.3435529172f, 0.1159081683f, 0.2654289603f, 0.1470593363f, 0.1407211870f, -0.4486283958f, -0.0249402542f, 0.1857617348f, -0.0652810484f, 0.4577515125f, -0.1008162722f, 0.0409625880f, 0.0600280389f, 0.1047934592f, 0.1832502782f, 0.0941868573f, 0.0488911718f, 0.1596018970f, 0.3529830575f, 0.0609063767f, 0.4858916998f, 0.3114491999f, -0.0853357539f, 0.1673095822f, 0.9069174528f, -0.0741118640f, 0.0793944523f, -0.2141328901f, 0.1798648536f, -0.1456322819f, 0.0843653083f, -0.1409774274f, -0.1201096550f, -0.1453547478f, -0.0516351610f, 0.1413263679f, -0.0022580267f, -0.2453203052f, 0.0343773626f, 0.1676267236f, -0.2749873102f, 0.1449453682f, -0.0666131377f, -0.3635117710f, 0.0130091691f, -0.4983237386f, 0.1680148542f, -0.1863668561f, 0.1991308331f, -0.0876355544f, -0.0950075313f, -0.0694993362f, 0.2759731710f, 0.1182715297f, -0.0126272803f, 0.1129302904f, 0.4272798896f, 0.1361595541f, -0.4508565068f, -0.1168490872f, -0.2198415250f, -0.3132127523f, 0.0025804739f, -0.2526278198f, -0.2931787074f, 0.0804851577f, -0.3079520762f, 0.2144605517f, -0.0567895100f, -0.1911406070f, 1.0146794319f, 0.0370928198f, 0.1113429666f, 0.4615892470f, 0.0742419213f, -0.2036450058f, -0.0915082619f, -0.3036914468f, -0.2792167068f, 0.2622008622f, -0.1415309459f, 0.0864241496f, 0.0983589441f, -0.1899052113f, -0.1460618675f, -0.3044141829f, 0.0105015859f, 0.0331610367f, 0.0951496884f, 0.2797417939f, 0.0086473580f, -0.3324666023f, 0.1429678202f, 0.0738736093f, -0.0997982174f, 0.1856222302f, -0.2755277753f, -0.2868623137f, -0.1965562701f, -0.2484612018f, -0.0971064344f, 0.1746111661f, -0.1857145876f, 0.0681974590f, -0.1392042488f, -0.0074746259f, 0.5128135085f, -0.1288103461f, -0.0709999204f, -0.0970265493f, 0.0476211570f, -0.3777760565f, 0.0097284419f, 0.0752844661f, -0.3106305599f, -0.0540367924f, -0.0655011386f, 0.3290399909f, -0.0464751497f, 0.0577278584f, 0.2355478406f, 0.2281277776f, 0.2039434612f, 0.3207034469f, -0.2820206583f, 0.1542640328f, 0.1671668589f, -0.0288645811f, -0.0038508684f, 0.2425782979f, -0.1454792172f, -0.0000878578f, 0.2060039490f, -0.0830133259f, -0.1794939041f, 0.1100031510f, 0.0761951730f, -0.1625947654f, 0.4912438393f, -0.1533741951f, 0.0602153726f, -0.0472297445f, 0.1150474176f, -0.4389525056f, -0.1132863089f, 0.1105397493f, 0.2048643082f, -0.1591117084f, -0.1867122203f, -0.2174416482f, 0.2131396830f, 0.1495233625f, 0.3739832044f, 0.2561024129f, 0.0911674425f, 0.0296350438f, 0.2172770351f, -0.3359935284f, 0.0636601150f, 0.4272829294f, -0.8987562060f, -0.2757191956f, 0.1698773205f, 0.4316520095f, -0.1502914429f, -0.2659345567f, -0.0644995123f, -0.1520384103f, 0.2834185660f, 0.1959970146f, -0.0543849468f, 0.0416616313f, -0.2860052884f, 0.2125539184f, -0.0167769138f, 0.1056981683f, -0.4493823349f, 0.1134245545f, -0.0075778803f, 0.0013332247f, -0.2233527303f, -0.3249267042f, 0.2353113443f, 0.1088523641f, -0.0160423759f, -0.0747515410f, 0.5369356871f, -0.2006729692f, 0.2451817244f, -0.0212627649f, 0.0758328810f, 0.0967204124f, 0.1004249752f, -0.4955808520f, 0.2772213221f, 0.0740256160f, -0.4642618597f, -0.0690991580f, 0.5449007750f, -0.4643971622f, -0.0150598874f, 0.8211097121f, -0.5116557479f, 0.2266387790f, 0.7765218616f, -0.3652352095f, -0.1049738452f, -0.4775222540f, -0.0887857378f, -0.0680968165f, -0.2739544511f, -0.1036354378f, 0.0758997723f, 0.1716088504f, -0.0670079887f, -0.0296788830f, 0.1579820365f, 0.0194728244f, 0.2136483639f, -0.2284755558f, -0.0662272498f, 0.0227302350f, -0.0847531930f, 0.2011687458f, 0.1951977164f, 0.0749299899f, 0.0882955119f, -0.3434539437f, 0.0740041435f, -0.0938985646f, -0.1677620709f, 0.2109574080f, 0.3253495097f, 0.2393242866f, -0.0760755166f, 0.3439512849f, 0.2553147376f, -0.3011636138f, 0.0401478335f, -0.1611294746f, 0.1159422472f, 0.2995143533f, -0.3393458426f, -0.0325978883f, 0.1762933582f, -0.1099940836f, 0.1030905694f, -0.1659296900f, 0.2824818790f, 0.7202914953f, -0.5616898537f, -0.2717020214f, 0.4627771676f, 0.4047306776f, 0.2318414152f, 0.3280359507f, 0.0602491312f, -0.2245250642f, -0.3878369033f, -0.2844310999f, -0.0149030108f, 0.4017555118f, -0.1429349035f, 0.3318763971f, 0.0145248612f, 0.3938841820f, -0.0862970203f, 0.1634176224f, 0.0856279880f, -0.2863473594f, -0.1616520584f, -0.0033494942f, 0.0782146156f, -0.1957900822f, 0.3436584175f, 0.1583039761f, -0.2385454029f, 0.2217336446f, -0.0141115598f, 0.1005345210f, -0.0584326759f, -0.0680813268f, 0.0493842065f, -0.1363907456f, -0.2492279112f, 0.4369260073f, 0.2730834186f, 0.1824661195f, -0.3756652176f, 0.4288456142f, -0.0186430756f, -0.2173757404f, -0.1331580579f, 0.0402976908f, -0.3777697384f, 0.1779101640f, -0.0964325443f, -0.0026465966f, 0.0101745641f, -0.0725890994f, 0.2649811506f, 0.2664873302f, -0.0053426605f, 0.1487450451f, -0.2684596777f, -0.2400375009f, -0.2537055314f, 0.0706021860f, 0.1679600924f, -0.1978431791f, 0.1701501459f, 0.0265331361f, 0.3248415589f, -0.0570522584f, -0.1141821593f, 0.0156439655f, -0.1049563065f, 0.0645751804f, -0.1169047728f, 0.0413271226f, 0.1781971157f, -0.1666236073f, 0.5109819174f, -0.0604947582f, 0.3115026355f, -0.0545354225f, 0.1423855275f, 0.2002619952f, -0.1400029957f, 0.0235086568f, -0.1528078616f, 0.2267492414f, -0.1086046621f, 0.5026280880f, -0.1710106730f, -0.1420463175f, 0.3084789217f, -0.4179956019f, 0.1864618361f, 0.3306038380f, -0.6231157780f, -0.0009232671f, 0.3236490488f, -0.1335834265f, 0.1196238995f, 0.1828399450f, 0.2218600065f, 0.0727074519f, 0.2068912238f, 0.0813453868f, 0.1238335893f, -0.0512943119f, 0.2579291165f, 0.0291583668f, 0.0531856082f, 0.3645783961f, 0.1100450605f, 0.2516123652f, 0.0011962089f, -0.3121395409f, 0.3299681246f, -0.3453536034f, -0.1315433532f, 0.1716047972f, -0.1252190918f, -0.1049536169f, -0.1335747838f, -0.2875054181f, 0.0117832590f, -0.0608143508f, -0.1297491938f, -0.0874196142f, -0.1060510725f, -0.5733023882f, -0.0088739973f, -0.1677273810f, 0.0908930674f, 0.1206207350f, 0.2521140575f, 0.0512748174f, -0.0327009261f, 0.0443884507f, -0.0830127373f, 0.0412725247f, 0.1133137122f, -0.5547085404f, -0.1119648665f, -0.0756043121f, 0.1317803115f, -0.1470015347f, 0.4133906364f, -0.0875871927f, 0.1944703460f, 0.6377881169f, -0.2268458605f, -0.1139890850f, 0.3393558562f, -0.5691372156f, 0.2944388390f, -0.1548565477f, -0.1590889543f, 0.3609828055f, 0.3539264202f, -0.1622366756f, -0.2482061833f, -0.0622749552f, -0.1494372487f, -0.0905653909f, -0.0877190828f, -0.4304401278f, 0.2404082865f, -0.0384892300f, -0.5451616645f, -0.0462872162f, -0.0980425403f, -0.2079500258f, 0.0438998081f, 0.1883221567f, 0.1383735389f, -0.4276958704f, -0.0288970824f, -0.1804693788f, 0.3007351756f, 0.1426120102f, 0.1339286566f, 0.0451493561f, -0.0834195092f, -0.0010635435f, 0.0645450205f, -0.2808541059f, 0.7160844803f, -0.2096528709f, -0.1365328282f, -0.2076775879f, -0.2785342932f, -0.3409729600f, -0.1054135561f, 0.1438248903f, -0.1545656919f, -0.3638012707f, 0.0411692671f, 0.0285133664f, -0.5982208252f, -0.0117506925f, 0.3835237324f, -0.0480589271f, 0.3127366006f, -0.3172737658f, -0.1794370860f, -0.2930867076f, 0.0064448938f, 0.0260620788f, 0.0228518192f, 0.2459382862f, -0.2013458163f, -0.0402857363f, 0.0624582954f, 0.1770766526f, -0.0769075155f, -0.1095196903f, -0.0414458662f, -0.3742721975f, -0.0782957971f, -0.0368325152f, 0.1789522469f, 0.1947023273f, -0.0659426302f, -0.0948227495f, -0.2991290390f, 0.0465486646f, 0.0210132264f, -0.6219195724f, 0.3622828126f, -0.3123579621f, -0.7611041665f, 0.9635379314f, 0.3525233865f, 0.3249658644f, 0.0163094979f, -0.0246722251f, 0.2141475379f, 0.2586761713f, 0.0230661351f, 0.3926810324f, -0.0042863516f, -0.0771211758f, 0.2145988494f, -0.1936408877f, -0.1334517300f, 0.2968347371f, -0.1518673450f, -0.1346137375f, 0.7500385046f, 0.0853974447f, -0.2526031137f, 0.3108237684f, 0.0470724627f, 0.2735292614f, -0.0445099697f, -0.2518153489f, -0.4294592440f, -0.2330015153f, 0.1504720896f, -0.2389427722f, 0.4290599525f, -0.1394771636f, -0.0772252604f, -0.2378558666f, 0.1178207099f, 0.2504870296f, 0.2747545838f, 0.3858363032f, 0.1360861957f, 0.1724456996f, 0.1050541401f, -0.3770330548f, 0.0946755931f, 0.1482120603f, 0.0292339791f, 0.1369991750f, 0.1040332094f, 0.1084172279f, -0.3063172698f, 0.0822188556f, -0.1097366437f, 0.1992082298f, 0.3505021334f, -0.2312708944f, -0.1812525094f, -0.0029808644f, -0.0668879673f, -0.0393534228f, -0.2559811473f, 0.1693284512f, 0.1365201622f, -0.1232265383f, -0.3045343161f, -0.0308120791f, -0.0572546571f, -0.0196062345f, 0.0275916327f, -0.3574539423f, -0.2811161876f, -0.3845944703f, -0.0758971199f, -0.2207080871f, -0.3952314556f, 0.0858923122f, 0.0175341442f, -0.4407196939f, 0.2381066382f, -0.2897727787f, 0.2764122486f, 0.0724013597f, -0.0308047663f, 0.3053709269f, 0.0163330585f, 0.0570714585f, -0.0236234646f, 0.0635213405f, 0.0354213417f, -1.0663028955f, 0.6944869757f, -0.2878819108f, -1.4925775528f, 0.7665660381f, -0.1105439216f, -0.0238897149f, -0.0754221156f, 0.3363339305f, 0.2858443260f, -0.1733856201f, 0.0521493889f, 0.3461742997f, 0.2814769149f, -0.2873414159f, 0.4742128551f, -0.1489596814f, -0.0616874062f, 0.3334531486f, 0.0895470753f, 0.1482992619f, 0.2663415670f, -0.1357230246f, 0.1272409111f, 0.1739474833f, -0.0396158770f, -0.2299157977f, 0.3354296386f, -0.0971331745f, 0.0599107854f, -0.2116435915f, 0.0036237189f, -0.0146749001f, 0.1627048999f, 0.0265766419f, -0.1404647976f, 0.1348209679f, 0.0386038274f, 0.0832009465f, 0.1008801162f, -0.2352240086f, 0.1155703738f, 0.3860405385f, -0.2482465953f, 0.0845950320f, 0.1754318178f, -0.3808707595f, 0.0895379111f, 0.6677945256f, -0.8431774974f, -0.1472975612f, 0.0593249872f, 0.2430428565f, -0.1037786976f, 0.1467283666f, 0.0925931856f, 0.1931418180f, -0.4991526902f, 0.2170799971f, -0.3517131805f, 0.2375140488f, 0.0154029783f, 0.1102749631f, -0.1170810089f, 0.3855656981f, 0.0403998457f, -0.1589706987f, 0.0194663201f, 0.0979902521f, 0.1945177764f, 0.3834078312f, -0.1833538711f, 0.2033750564f, -0.1113734320f, -0.1840741634f, 0.3917029798f, 0.1157676205f, -0.0281433295f, 0.1517755836f, 0.0068388991f, -0.0349308848f, -0.0911678225f, 0.1601140052f, 0.1310316622f, 0.1198214814f, -0.0069004898f, 0.0382058844f, 0.2547134459f, -0.0698263273f, 0.4446953237f, 0.5528334379f, -0.4906393588f, 0.3087639213f, 0.2707224786f, -0.4563876092f, -0.3173369765f, -0.0004550792f, -0.1265331358f, -0.2138340920f, 0.3350019455f, -0.5089215040f, -0.2033516467f, -0.1842168421f, -0.4357317090f, 0.0224098470f, 0.1739015579f, -0.2941237092f, -0.1539358795f, 0.4442908764f, 0.1883667409f, -0.0606046133f, 0.2392483950f, -0.2905186713f, 0.0578296594f, -0.2884786725f, 0.0823378116f, -0.3100174665f, -0.0708661377f, -0.2647692561f, 0.2833722532f, -0.3271467090f, 0.0904276744f, -0.1680893153f, 0.2052159905f, 0.4106840789f, -0.1244909540f, -0.0243826378f, 0.3146187961f, 0.3123479486f, -0.3811331391f, 0.1698233485f, -0.1196909994f, -0.1258945763f, 0.4332905710f, 0.0760371462f, -0.8750379086f, 0.8142943382f, 0.1840165108f, -0.6475807428f, 1.3454707861f, -0.1380212158f, -0.3384761512f, -0.3273259401f, -0.8691437244f, -0.0724102706f, 0.2005548924f, -0.3440433741f, 0.0196651556f, 0.4223264754f, 0.2029095590f, 0.4276505113f, 0.0986505449f, -0.1475594938f, -0.3382032812f, 0.1138283387f, 0.1471949220f, 0.2033850551f, -0.0555278696f, 0.2213535905f, -0.0325257517f, -0.0097370641f, 0.1087610200f, 0.3204112649f, 0.2352072150f, 0.2773498297f, 0.1092103869f, 0.2154766470f, -0.0024303170f, 0.3684815168f, 0.4153351784f, 0.3649735153f, -0.0810615048f, 0.1684212685f, 0.0697277263f, 0.3653983772f, -0.1783214957f, 0.0429973416f, -0.0002599965f, 0.1555277407f, -0.2253279835f, 0.2438270301f, -0.2696276903f, -0.0767149031f, 0.0640036166f, -0.1784728318f, 0.0023118577f, -0.5879151225f, 0.0395684764f, 0.3487381935f, -0.3439821303f, 0.1408351362f, 0.2748971283f, -0.5095893145f, -0.2310924083f, 0.2435310632f, 0.2232670039f, -0.2095053792f, 0.0120915761f, 0.2644006610f, -0.0003752283f, 0.1510982066f, -0.2660405040f, -0.1212259158f, 0.1175515354f, -0.2298246324f, -0.3800621033f, -0.1160359234f, -0.1961878687f, 0.0923986360f, 0.1257816255f, -0.7735905647f, 0.0994441360f, -0.0296206772f, -0.5117389560f, 0.0955006182f, -0.0504233763f, -0.4148717523f, 0.2099737376f, -0.0366226323f, -0.2144117206f, 0.0770139843f, -0.1231038794f, 0.0340996906f, 0.1485760212f, 0.0930731297f, -0.7419359684f, 0.3085299730f, 0.1036682427f, -1.7558666468f, 1.0586479902f, 0.1194860339f, 0.0793700889f, -0.2139667124f, 0.0676912367f, -0.3453971446f, -0.2542622387f, 0.0775706172f, 0.3584393561f, -0.4176333547f, -0.3165054023f, 0.3043967783f, -0.2754527628f, -0.3890128136f, -0.2599041462f, -0.3465970159f, -0.1417182833f, -0.3645177782f, -0.4190803766f, -0.2217882872f, -0.2908885777f, -0.0842761844f, -0.3021061420f, -0.0309780147f, -0.0791953728f, 0.1467651129f, -0.5002098083f, -0.2349166572f, 0.4538513422f, -0.0351583660f, -0.2580328584f, 0.1778934598f, -0.0331140794f, -0.1590005904f, 0.1692114919f, -0.2271464765f, 0.0443719700f, -0.0567882620f, -0.2890831232f, -0.2167435139f, 0.1043896675f, -0.3931835294f, -0.0605160370f, 0.0567269102f, -0.9740694761f, 0.2487174869f, 0.0364735089f, -0.0280716270f, 0.2637344897f, -0.0679079816f, 0.0961662009f, 0.0378069170f, -0.1642612815f, -0.0863784850f, 0.0659125373f, 0.2701660395f, 0.1933979839f, 0.2111778110f, -0.2311973870f, -0.2001885176f, 0.3056144416f, -0.0163352396f, 0.0735875964f, 0.1141945347f, 0.0397489890f, 0.2957231700f, 0.1413977295f, 0.0723314732f, -0.0779361278f, -0.1125001907f, 0.0899801999f, 0.0637690499f, 0.1236566231f, 0.2378424853f, 0.0433450006f, -0.0053633205f, -0.0040965453f, 0.0019099030f, -0.0630788580f, 0.2535447180f, 0.1606464088f, 0.1385823935f, 0.0910447687f, -0.1072314233f, -0.2142976969f, -0.3055757284f, 0.4337462187f, -0.1850602180f, -0.0246938523f, 0.4566473067f, -1.1809242964f, -0.2732987702f, 0.4156429768f, 0.2494425327f, -0.0629256219f, 0.5720233917f, 0.1624654680f, -0.0678443760f, 0.0055801435f, 0.5103183985f, 0.3084373474f, -0.3247926533f, -0.0794332325f, 0.0677736402f, 0.0068752072f, -0.0177420024f, -0.0341951475f, 0.4640825689f, 0.0057623913f, -0.2308952957f, 0.4425652325f, -0.1587463617f, -0.1066429913f, 0.2636419535f, 0.3162941933f, 0.1024093851f, 0.4200201333f, -0.0516877510f, 0.2311810404f, 0.2544858456f, -0.3215838373f, 0.0343534276f, 0.1366072148f, 0.0840384364f, -0.2424630970f, 0.0771163031f, 0.3097569644f, -0.2354646027f, 0.4009862542f, -0.1744279265f, 0.0854918286f, 0.4905558825f, -0.8155843616f, -0.0567082353f, 1.1281907558f, -2.0164327621f, 0.0039042968f, 0.0583749041f, -0.0429537296f, -0.0882395357f, 0.1880190521f, 0.0082101496f, -0.2562907040f, -0.0995938331f, -0.3231027424f, -0.1113692969f, 0.1321951896f, -0.0898770839f, 0.1177250743f, -0.0431885198f, 0.1528628320f, 0.1898867190f, -0.0088397432f, 0.2104990631f, -0.1987424344f, -0.1535490006f, -0.1288362741f, 0.2273545861f, 0.0382184759f, 0.4975844920f, 0.0275325049f, 0.1180608496f, 0.1270997673f, 0.1149622798f, -0.0594075993f, -0.1274803281f, -0.0037270763f, 0.2594409585f, -0.2579235733f, 0.1451719552f, -0.4389986694f, -0.3886433244f, -0.0943003446f, -0.2993452251f, -0.1329675168f, 0.1429631710f, -0.5724174380f, -0.1803897619f, -0.0750854537f, -0.8748621345f, 0.7442807555f, -0.3869682848f, -0.1786796600f, -0.0527672172f, 0.0391881615f, -0.1756400615f, -0.0972804800f, 0.1022175699f, -0.5592463017f, -0.1728797257f, 0.0522371605f, 0.0456242673f, -0.2322375774f, -0.2064959854f, -0.1066672876f, 0.1885781437f, -0.2668503523f, -0.2865473926f, 0.1130916625f, -0.1362968683f, -0.0081018312f, -0.2629280090f, -0.0248308796f, -0.0211294908f, 0.1781488955f, 0.3697315454f, -0.1287071258f, 0.2316785455f, 0.3147080541f, -0.2397783995f, -0.0267922673f, 0.3171928823f, -0.2510417402f, 0.2733088136f, 0.1167689338f, -0.1784863770f, -0.0518488139f, 0.0642550960f, -0.1606918573f, 0.2711939812f, -0.2402943373f, -0.8731281757f, 0.9859244227f, -0.1539380699f, -0.6768750548f, 1.3111497164f, -0.0855382010f, 0.1950927824f, 0.1122732460f, -0.1849481165f, 0.3363290429f, 0.1636260897f, 0.1079069376f, 0.0346130431f, 0.3109642863f, 0.0543738306f, -0.1434601098f, -0.1063015312f, 0.0473042354f, -0.1082305610f, 0.4773802161f, 0.0873055384f, 0.1130435467f, -0.0704154894f, -0.0076376819f, -0.1707040220f, 0.1018807963f, 0.0720958188f, -0.4535745978f, 0.4874938726f, 0.1035147980f, 0.1429842412f, 0.5181725025f, 0.1880175769f, -0.4155671000f, 0.4589367509f, -0.0531304926f, -0.0020928285f, 0.1728139073f, 0.0114684701f, -0.1746875048f, 0.6548573971f, -0.2511091232f, -0.3685885370f, -0.3340203762f, 0.0256159566f, 0.0429558121f, 0.3231965005f, -0.0332017429f, 0.7307965159f, -0.2922568023f, 0.1177820414f, 0.0093974089f, 0.0550594889f, -0.0930358171f, -0.3136230707f, 0.0774929151f, -0.0819082707f, -0.5224716067f, 0.3472873569f, 0.0573848002f, 0.0422515571f, 0.2746759355f, 0.1582873464f, -0.0026588074f, 0.0929058492f, -0.1123603955f, -0.3696992099f, -0.1008465439f, -0.3110389411f, -0.2622099817f, 0.0009476964f, 0.1893595308f, -0.0766559690f, 0.3335459530f, 0.1084731072f, -0.2894550264f, 0.1620046049f, -0.0763311461f, -0.3883490860f, -0.0034321758f, -0.3762231171f, 0.2911016643f, 0.0804887712f, -0.0883004591f, -0.3691868782f, -0.0276700687f, 0.2425375581f, -0.5365340114f, -0.1042003557f, -0.0834423304f, -0.8199181557f, 0.1654600352f, 0.1053512394f, -0.3591678143f, 1.0194772482f, 0.1012524813f, 0.7242442369f, 0.1099338159f, 0.2858201563f, 0.6419849396f, 0.4151856899f, 0.0930210724f, -0.0628958941f, 0.2366173416f, -0.1832678914f, -0.3321681321f, -0.0611567497f, -0.2684626281f, 0.1049657539f, 0.3549278080f, -0.1101502329f, -0.0629205555f, 0.4116115570f, -0.0615466796f, -0.2212433368f, 0.1731514335f, 0.1497776806f, -0.2010015845f, 0.2122841179f, -0.0142197432f, 0.3013925552f, 0.1501520425f, 0.0604978204f, 0.0637322664f, 0.3499701917f, 0.1788360029f, 0.5452448726f, -0.2771273553f, -0.3147727549f, -0.5449584126f, -0.0947333202f, -0.0500115417f, -0.1297596395f, 0.2776945829f, 0.2266739458f, -0.2662431896f, -0.1458127946f, 0.4342762828f, 0.3165177405f, -0.5106548071f, 0.2064033449f, -0.0317369848f, 0.0568879135f, -0.0780296922f, 0.0080008078f, 0.3140209615f, 0.0547788143f, -0.2582486272f, -0.3074997365f, -0.1507270485f, 0.0930104107f, -0.2310101539f, 0.0894067064f, -0.3069244027f, -0.3133325279f, 0.0624224246f, -0.1611046940f, 0.2562997937f, 0.1786992103f, -0.2561216950f, 0.1190809533f, -0.3052337766f, -0.0200743228f, -0.2558872402f, 0.3193261623f, -0.3939920664f, 0.0116297593f, 0.0840509608f, -0.3126768172f, -0.3954909742f, 0.0195727143f, -0.1668898910f, 0.0455691814f, 0.2609546185f, 0.1993458718f, -0.0381681360f, 0.0387329273f, -0.1600870788f, -0.0551277995f, -0.2707198262f, -0.5462940335f, -0.0254825540f, -0.1212711260f, -0.3714588881f, -0.2198227346f, -0.1736150086f, 0.4751005471f, -0.0283987857f, -0.0757806525f, 0.2219967246f, 0.2278070599f, 0.2385494709f, 0.2443857044f, 0.2908982337f, -0.1921733618f, 0.2383785546f, 0.1131533533f, 0.0150990849f, 0.1452473849f, 0.1318321675f, -0.0578550138f, 0.3226859272f, -0.1902273744f, 0.1476647109f, 0.2557664216f, 0.1652885079f, 0.0674676225f, 0.2998856306f, -0.0778649822f, -0.1909621805f, -0.2407148629f, -0.0817015916f, 0.0895476937f, 0.5014277697f, -0.1559449285f, -0.0270758681f, 0.2938349843f, -0.1074798033f, -0.1339805275f, -0.0459208935f, 0.2329681218f, -0.0997130424f, -0.0320796371f, -0.0982561186f, 0.0526633896f, -0.0357623808f, -0.3977814019f, 0.0389129855f, 0.0862205401f, -0.7073867917f, -0.2552019358f, 0.1445005834f, 0.1037077084f, -0.0965040624f, 0.6921867132f, 0.3429590464f, -0.0493691452f, 0.1133021489f, 0.2222730517f, -0.0075572832f, 0.0282294825f, 0.2127936482f, 0.0200243872f, 0.0297329873f, 0.3876225948f, -0.1792980283f, 0.4975616038f, 0.1970295906f, 0.1208335161f, 0.1702092886f, 0.1247371212f, 0.0260267798f, 0.2871461809f, -0.0625333264f, -0.1788513362f, -0.0388920717f, -0.1507767886f, 0.0016348793f, -0.0418170877f, 0.0418737829f, 0.0508939996f, 0.6358219385f, 0.0735573992f, -0.1442496479f, 0.2752018273f, -0.0602309741f, -0.1603878438f, -0.0380351804f, -0.2202519327f, 0.0119361216f, 0.3335078359f, -0.2420127392f, 0.2421282232f, 0.3246009648f, -0.9890928864f, -0.0907156095f, 0.1836690903f, -0.0792116970f, 0.1270543039f, 0.4144774973f, -0.0291491114f, 0.1785905063f, 0.0106107537f, -0.2136091441f, 0.0412862040f, 0.0097532468f, -0.0737286434f, 0.2180353999f, 0.3708742261f, 0.0220453013f, -0.2081660181f, 0.0882679522f, -0.3691737652f, -0.1969865710f, -0.2859092057f, 0.1488362253f, 0.2742875516f, -0.0127866957f, -0.2530025840f, 0.3144738972f, -0.0121060954f, -0.1543733627f, -0.3083443046f, -0.2619591355f, -0.2832477987f, 0.1002681851f, 0.2356611341f, -0.0219050031f, 0.0125298249f, 0.4479801953f, -0.2481343299f, -0.1161808074f, 0.3951102197f, -0.2768006027f, 0.1513746828f, -0.1018802375f, 0.1046176925f, -0.0811257362f, 0.0795731544f, 0.4333669543f, 0.1496477127f, -0.4805578291f, -0.1007082015f, 0.1366178095f, -0.7384447455f, -0.2315429598f, 0.1061266139f, -0.5378878117f, -0.1019999683f, 0.0954433456f, -0.0050590867f, -0.5102415085f, 0.3121551871f, -0.2530349195f, 0.1362529099f, -0.0025416911f, -0.1025263742f, 0.3546097577f, -0.1039908826f, -0.3685848415f, 0.4668449163f, -0.0663818941f, -0.0327080265f, 0.0764356777f, -0.1890128702f, 0.0385688543f, -0.0790589899f, 0.0880885199f, -0.0647152364f, 0.1769537628f, 0.1036211029f, -0.1123130098f, 0.0648689345f, 0.1345461905f, -0.2760616541f, 0.1523986459f, -0.1549141705f, -0.0963707268f, 0.4594833851f, -0.2258726060f, -0.7330309153f, 0.7689859271f, -0.0694399700f, -0.7976403236f, 1.5171662569f, -0.0021563966f, -0.8095301986f, 0.0886215568f, 0.1977474988f, -0.3473511636f, -0.0065516746f, -0.2531346381f, -0.1964060664f, 0.0665136874f, 0.0456610695f, -0.3450690210f, 0.0427172929f, -0.0247855484f, -0.0220771190f, -0.1070830598f, -0.2356048673f, -0.7479804158f, -0.1761544198f, 0.0005673057f, -0.2044663876f, 0.6479401588f, 0.3046976328f, -0.3623984456f, 0.2571758628f, -0.0785461217f, -0.5424185991f, 0.2035978585f, -0.0299092922f, -0.7903495431f, 0.0079432940f, -0.1481020749f, -0.3546800017f, 0.2237073779f, 0.0799577162f, -0.4125789404f, 0.4228472412f, 0.1327809840f, -0.2453218549f, 0.4070797265f, -0.1369866580f, -1.1570628881f, 0.8199995756f, 0.2505790293f, -1.5098482370f, 1.5998454094f, 0.0517093949f, 0.2136506438f, 0.1181843504f, -0.1062636077f, 0.6802575588f, -0.1425296813f, 0.1314217299f, 0.1622813046f, 0.1028165296f, -0.0972376317f, 0.0635997206f, 0.2609396875f, -0.0432799160f, 0.0755840242f, 0.0110742580f, 0.0018309602f, 0.6029071808f, -0.2876447737f, -0.0575537048f, -0.1905255169f, 0.1843124926f, 0.0537664481f, 0.3098834455f, 0.2728280127f, -0.1380626410f, 0.4893068671f, -0.0574203432f, 0.1520695984f, 0.1679108888f, 0.0527495444f, -0.1183250472f, 0.4609427750f, 0.1111265719f, 0.0766477808f, 0.1137232929f, -0.1275400817f, -0.0381892920f, 0.9120379090f, 0.0338433199f, 0.0586618818f, 0.6066586971f, -0.5673329830f, -0.0956063271f, 0.3832641244f, -1.5844212770f, 0.0098052351f, 0.1306319982f, 0.0664064661f, -0.2613600791f, 0.0601821430f, 0.2336419821f, 0.0634664297f, -0.1449621022f, 0.2424054146f, -0.2006364316f, -0.5068969131f, 0.2192143202f, -0.0240300540f, 0.1696228832f, 0.3004640937f, 0.0711592883f, 0.1311663985f, 0.3154930174f, -0.2280296981f, 0.0531176254f, 0.1945286244f, -0.0235797912f, 0.1031445265f, 0.2738814354f, 0.3171938658f, 0.2220628709f, -0.3307448924f, 0.1810800433f, 0.2919869721f, -0.0104124257f, -0.2920967937f, -0.5308108926f, -0.1961944997f, 0.0315298438f, 0.0736358538f, 0.0305225067f, 0.1554635018f, -0.1135368943f, -0.3624460399f, -0.3503362834f, 0.4311860204f, -0.2373899221f, 0.3917613029f, 0.7905983329f, -1.0585566759f, -0.1769768596f, 0.1468526423f, 0.0876212940f, -0.1365535855f, 0.0790687054f, -0.2304582447f, -0.2442665547f, 0.1780964136f, -0.2851124406f, -0.0307762083f, 0.2862341404f, 0.1213730648f, 0.1176825017f, 0.0483155325f, 0.2276052535f, -0.1504866332f, -0.3539329469f, -0.2576865852f, -0.1485744119f, 0.1148619577f, 0.1148032397f, 0.3655716181f, 0.1439591199f, 0.0360274725f, -0.2659612894f, -0.0704324320f, 0.1037225947f, 0.0528789908f, 0.3992571533f, 0.1250750870f, 0.1702688783f, -0.0886519253f, 0.1994624138f, -0.6329730153f, -0.0038515290f, -0.1582943499f, -0.2613961399f, -0.0185488611f, -0.1860376894f, 0.0669637546f, 0.0743019357f, 0.0860528722f, -0.3455509543f, -0.3351293802f, 0.1940000057f, 0.3503688574f, -0.4857946336f, 0.0295202956f, 0.1396084428f, -0.5628103614f, 0.0655399263f, -0.1371177286f, -0.3763043880f, -0.2758954167f, 0.0518257767f, -0.0602613762f, 0.0237992890f, -0.0519202538f, -0.3310865760f, 0.3412686586f, 0.1863428354f, -0.4749155939f, -0.0500081591f, 0.0315464363f, -0.5015357137f, 0.2840577662f, -0.2464322746f, -0.4640218616f, 0.0901426002f, -0.2774105668f, -0.5808244944f, 0.3993817866f, 0.1879851669f, -0.9678374529f, 0.0905803293f, 0.0771453679f, -0.4284676611f, -0.1223620325f, -0.0868562683f, 0.1088750288f, 0.1488625854f, 0.0597707555f, -0.1885354221f, 0.7035748363f, -0.2868062854f, -1.0445941687f, 1.0465531349f, 0.0793601796f, -1.4742193222f, 2.4199616909f, 0.2683813870f, 0.3269217014f, 0.0577097647f, -0.0902757645f, 0.3521226346f, -0.2424226850f, 0.1031329334f, -0.1612146348f, -0.0626256540f, -0.0204442125f, -0.2241010219f, -0.1377780288f, -0.0420546643f, 0.4973410964f, -0.3637700081f, 0.1361417323f, 0.3243185282f, -0.2696729898f, -0.1724952757f, 0.3671197295f, 0.0637892187f, 0.0845135301f, -0.1977987289f, -0.2818405628f, 0.0714825168f, 0.2088528126f, 0.2214325368f, 0.1822043359f, -0.3356871605f, 0.0214657858f, -0.1732648611f, 0.2564105988f, -0.2027107626f, 0.1887373477f, -0.0878974572f, -0.1270601302f, 0.0863127634f, 0.1111709103f, -0.2416613996f, -0.2144738734f, -0.2576451302f, -0.0138664190f, -0.3222662210f, -0.0458363071f, 0.2645227611f, -0.2343317866f, 0.3156866431f, -0.1741951555f, 0.0400198363f, 0.2590780258f, -0.1081243083f, 0.2021115422f, 0.0128465807f, -0.0333256274f, -0.1715221256f, 0.2298277915f, 0.1447790861f, -0.1571464092f, -0.0265371855f, 0.2582336664f, 0.2773505747f, 0.4933061898f, 0.2533989549f, -0.0032861186f, 0.6774885654f, -0.0242680348f, 0.0192671530f, 0.4470213950f, 0.2728625238f, -0.2828161120f, 0.3627488911f, -0.1046007350f, 0.3375050724f, 0.5027993917f, 0.2185622752f, -0.1983442605f, 0.0559607223f, 0.1337569058f, -0.1391552091f, 0.1152633727f, 0.1530890316f, 0.2467022538f, 0.2055902928f, -0.2837233841f, 0.0776956901f, 0.5814136267f, -0.5488743782f, 0.3053526580f, 1.1784347296f, -1.1289492846f, 0.0787530318f, -0.0923749730f, -0.1056528762f, -0.0837993771f, -0.3991640806f, -0.0840408131f, -0.1046826616f, -0.0951256007f, -0.1226236671f, 0.0531821102f, 0.1148509458f, -0.2139454633f, -0.0461154468f, 0.2820283175f, 0.2122804075f, 0.0217935462f, -0.2874357104f, -0.0314988308f, -0.0520393960f, -0.4344286025f, 0.1704758108f, -0.0513998084f, -0.1888423562f, -0.5690248013f, 0.1231360063f, -0.3698968887f, -0.0147105204f, 0.3539980650f, -0.4211453497f, -0.0349085778f, -0.1134865060f, -0.1334136426f, -0.3448802829f, -0.1519687474f, 0.1133460775f, 0.1951030642f, 0.1114637479f, -0.2488064468f, 0.1973020583f, 0.2561695278f, -0.4399252236f, 0.4961651862f, -0.1841335148f, -1.1617599726f, 1.1169083118f, 0.3009035289f, -0.5960324407f, -0.3158379793f, -0.0681537315f, 0.0154510876f, -0.2121440768f, 0.1139030308f, 0.1883361787f, 0.0277390294f, -0.2767428756f, 0.1070673391f, -0.0283528008f, 0.3797599673f, 0.3057368696f, 0.3201742172f, -0.0981309712f, -0.1634080559f, 0.2165047973f, 0.1664672792f, -0.5777462125f, 0.0747728273f, -0.0286371354f, -0.1661967635f, 0.1717289388f, -0.0754272267f, 0.2560178041f, 0.3934082389f, -0.2004681975f, -0.2521225810f, -0.3914980590f, 0.1811477095f, 0.0526097417f, -0.2172381580f, 0.0059495741f, -0.3142547309f, 0.1280710697f, -0.0284758992f, -0.1795866936f, 0.3614833057f, -0.0970198065f, -0.6320424080f, 0.4413255155f, -0.7329842448f, -1.1227320433f, 0.9129858017f, 0.0745357126f, 0.1318993568f, -0.3866117299f, 0.3071822226f, -0.0403514318f, 0.0581103154f, -0.1502809078f, -0.3482475579f, 0.0541273840f, 0.3910452127f, -0.1870363206f, 0.1190913320f, -0.2150449753f, -0.0294123460f, 0.0263759643f, -0.2569243312f, 0.1522879750f, -0.0132655120f, -0.0591644384f, 0.2831467390f, 0.2552282512f, -0.0374131948f, -0.1365549266f, 0.3928765953f, 0.1273600757f, 0.0674446076f, -0.2712595165f, 0.2251107693f, -0.2235316783f, 0.1678853631f, -0.0256317277f, -0.3656090200f, 0.2724590302f, -0.0844557956f, 0.1906695366f, 0.0552175455f, -0.0797786340f, -0.1187853664f, -0.0848686472f, -0.0763317347f, 0.1397980154f, -0.1300155371f, 0.1410720646f, 0.6283678412f, -0.2642170787f, -0.1564268470f, -0.1090580821f, -0.1792766303f, 0.0603893548f, -0.2459574491f, -0.1849522889f, 0.2273219377f, -0.2156712860f, -0.1013604999f, 0.4049685299f, 0.1032326296f, 0.2105669230f, -0.1581414491f, -0.2080702037f, -0.2681066990f, -0.2185780257f, 0.0702160820f, 0.0649050325f, -0.1853586882f, -0.0115719149f, -0.1403337568f, -0.2385531366f, 0.0147105018f, -0.0742251575f, 0.1685353369f, 0.3342865407f, 0.1804427356f, -0.1385942101f, 0.1385129988f, -0.0036358943f, -0.3007359505f, 0.0964965671f, 0.1627483517f, -0.0777262300f, 0.4472702146f, 0.1310013533f, 0.0460636467f, -0.1714837104f, -0.0363570824f, -0.0157272629f, 0.5052407384f, 0.2529557347f, 0.4509864450f, 0.3120554686f, -0.1895851940f, -0.1932204217f, -0.0136390673f, -0.3099979758f, -0.4415783882f, -0.7214636803f, -0.1873997748f, 0.0497729965f, 0.2510815263f, -0.5280097127f, 0.3061496913f, 0.3866315484f, -0.3355651498f, -0.1339345723f, -0.0139515214f, 0.1134821251f, 0.0113711171f, -0.3283156157f, -0.1615332067f, 0.2078200132f, -0.1831227392f, 0.0223454963f, -0.2724780142f, -0.0431253910f, 0.1114702746f, -0.4573912919f, 0.1179168373f, -0.1049286351f, -0.2757440209f, 0.0826656520f, -0.0277145784f, 0.2496311963f, -0.1692543775f, -0.0083139325f, 0.0438133366f, -0.0485327989f, -0.1382836998f, 0.0303558838f, -0.1241279095f, -0.0081319204f, 0.1040325761f, -0.6681051850f, 0.2225479186f, 0.0863594487f, -1.0636674166f, 0.7504796386f, -0.2543874383f, -0.3022661805f, -0.0568470508f, 0.7315358520f, 0.0631669909f, 0.2627627552f, 0.0585914254f, -0.1752853245f, -0.0229787007f, 0.0507512391f, -0.2597629428f, -0.1386324912f, 0.2120645493f, 0.1856016070f, -0.0054053841f, 0.0525330864f, -0.5738642216f, -0.2003259510f, 0.2227178216f, -0.2881798446f, -0.0886825845f, 0.2791599929f, -0.2521507740f, 0.2056467533f, -0.0333260074f, -0.1474425644f, 0.0707840547f, -0.0001304308f, -0.2178080082f, 0.4120033085f, -0.3070221841f, -0.3190259933f, -0.0999851674f, 0.0056279548f, -0.1459420621f, 0.0344968811f, -0.2190788388f, 0.0850113779f, -0.2141505331f, -0.3969065547f, -0.4769318700f, 0.3089564741f, -0.6508278251f, -0.2841776907f, 0.7088178992f, -0.4911235571f};
const float b1[] = {-0.0484991334f, 0.1595598608f, -0.3797338307f, -0.1627341211f, -0.0725700632f, 0.4217201769f, 0.2200147957f, 0.1650779098f, 0.0089023467f, -0.1185766682f, 0.1174200028f, -0.3476927280f, 0.2070993036f, -0.2189910859f, 0.0694114938f, 0.0294180140f, -0.4344160855f, -0.5268990397f, -0.0036150932f, -0.0682514161f, -0.2346971780f, 0.3813889325f, -0.1617240906f, -0.1012072787f, 0.0665157065f, -0.2821291685f, -0.0005582724f, 0.1013766825f, 0.2669793069f, 0.0107114045f, 0.1970580518f, 0.0500872731f, 0.1071406528f, -0.2181223929f, -0.1117098704f, 0.1096082255f, -0.0255541876f, 0.0077570109f, 0.0295007806f, -0.0338636041f, 0.1220141947f, 0.3395328224f, -0.0965066850f, 0.0948415175f, 0.2953288257f, -0.1177586615f, -0.6101986766f, 0.0089658825f, 0.2920709848f, 0.3367526233f, 0.1344112903f, 0.1511663944f, 0.1255111545f, -0.1977525651f, -0.1971361339f, -0.1032107472f, 0.2907773554f, -0.2009387016f, 0.1047333181f, 0.2338797152f, -0.0617911443f, -0.2116066962f, 0.0031041533f, 0.1023435816f};
const float W2[] = {-0.2947559059f, -0.1339098364f, 0.2945562601f, -0.1174730361f, 0.1873741597f, -0.0726241320f, 0.0081555126f, 0.1544611603f, 0.2278215587f, -0.2847039700f, 0.0209710784f, -0.1585674733f, 0.0572152287f, 0.0448508039f, 0.0174730793f, -0.2702310681f, -0.0485497899f, 0.0712299272f, 0.0533222966f, 0.0194069967f, -0.0499222316f, -0.1163136065f, -0.0059990422f, -0.0020319072f, 0.2439257503f, -0.1925050318f, -0.2066107243f, 0.1873848736f, 0.0519845299f, 0.0691963956f, -0.2221049070f, -0.1582525820f, 0.1677981615f, 0.0541667826f, -0.0658383891f, 0.0019912026f, -0.1820338964f, -0.2197556496f, 0.1295339018f, 0.3264516294f, -0.0559377447f, 0.2440705001f, -0.0108046345f, -0.3674210906f, 0.3365632892f, -0.0294657480f, 0.0307893306f, -0.0288145375f, 0.1074848995f, 0.0196371637f, 0.1883111298f, -0.2456621677f, 0.1417600811f, 0.1115165055f, -0.0376397744f, 0.0455319397f, -0.2800706923f, 0.0952727050f, 0.2359535098f, 0.2967129052f, 0.0896190628f, 0.3600614071f, -0.1351733059f, -0.0371984504f, 0.3169515133f, 0.2491217405f, -0.2973539531f, -0.3338736296f, -0.1658357084f, 0.1153986081f, 0.1296273917f, -0.5819036961f, 0.3468835056f, 0.0074520223f, -0.0650072992f, -0.1952667832f, -0.1427670568f, -0.2638574541f, -0.1144150272f, 0.2319631577f, -0.3802711070f, -0.0321431272f, 0.1382463276f, 0.2197957337f, -0.2974743843f, 0.0194233600f, 0.2454293221f, -0.1163186729f, 0.1767406613f, 0.3666644394f, 0.5151898265f, -0.0989739299f, 0.0204634387f, -0.2404933125f, 0.0238584150f, -0.2110170871f, -0.2653522789f, -0.0360216722f, 0.1019489840f, -0.2595408857f, -0.0858762860f, 0.1689306945f, -0.3270252049f, 0.1242253184f, 0.5989705324f, 0.0208873507f, -0.0456011407f, -0.1494729817f, 0.3824996352f, -0.0285422485f, 0.0935258865f, -0.1082427427f, 0.1480749846f, -0.0762562081f, 0.1168548241f, -0.1430917084f, -0.3884919584f, 0.0709305331f, 0.2033336759f, -0.2962910831f, 0.1277074218f, 0.3879910409f, -0.2568677366f, 0.2748217285f, -0.0593737327f, 0.0313198715f, -0.0445738696f, 0.4083927572f, -0.1379937679f, -0.1401214004f, -0.0747217387f, -0.1675714999f, 0.2304794490f, 0.2771676779f, -0.0434742980f, 0.0160968881f, -0.1902104914f, 0.0243000090f, -0.1896561682f, 0.1674002260f, -0.1289272606f, 0.0336461999f, 0.2731406391f, 0.3800556064f, 0.1235261112f, 0.2195206285f, 0.3360936046f, 0.0133733600f, -0.2280065715f, -0.0453083999f, -0.0780896991f, -0.0006756735f, -0.1886215955f, 0.0270720199f, 0.1015118137f, 0.4052093625f, 0.5211277604f, -0.0188421309f, -0.1338668019f, -0.0895340294f, 0.2604605556f, 0.2199028283f, -0.0744564459f, 0.2705295682f, -0.0623796917f, 0.0683274344f, -0.3410249949f, 0.1410966218f, -0.2514902949f, -0.1110607013f, 0.2065621316f, 0.0587021448f, -0.0359782912f, 0.1288743317f, -0.1280896366f, -0.0703355074f, -0.0021070894f, 0.1430839300f, 0.0032029527f, 0.1343051940f, 0.2458834201f, 0.1213356331f, -0.2476216853f, 0.1408698112f, -0.0754815713f, 0.1049674153f, 0.0698010325f, 0.2364050895f, -0.0896832049f, 0.0855047330f, -0.0247889869f, -0.1437625140f, -0.0811086074f, -0.1301829815f, 0.3832133412f, 0.3224259317f, 0.0445732512f, 0.0857324749f, 0.0607857704f, 0.4778748155f, 0.0312757641f, 0.3855943978f, -0.4263503253f, 0.4722848535f, 0.3204106390f, -0.0177179556f, 0.2215927541f, 0.0947209746f, 0.2967888117f, -0.4294960499f, -0.2584784329f, -0.1850273460f, 0.0006918865f, -0.0119156763f, -0.1147931293f, 0.0453336127f, 0.1211191863f, -0.0177029222f, 0.0270778034f, 0.2689822912f, 0.2192595601f, 0.0113918902f, -0.1721910238f, 0.1362732649f, 0.1567160934f, 0.1120833978f, -0.0556002632f, 0.4141873419f, 0.2495313883f, -0.1740564853f, -0.1279072762f, 0.0721559748f, -0.0961455405f, -0.1047861353f, -0.0755920634f, 0.0904699638f, 0.1900973916f, 0.1094848439f, 0.2841504514f, -0.1036204323f, 0.4474946558f, 0.0945320353f, -0.3517261446f, 0.1985075474f, 0.1605824232f, -0.2169631124f, 0.0327755474f, 0.0573886372f, -0.0884832069f, 0.1913497895f, 0.1068814099f, 0.3356569707f, 0.1894018501f, -0.0380489379f, 0.0051185912f, -0.2704823017f, 0.0886868089f, -0.0701040179f, 0.0061979108f, 0.2977293134f, 0.2227544487f, -0.0093648890f, 0.0429302044f, 0.1928267926f, -0.3770574629f, -0.0506665073f, -0.5348379016f, 0.1572021991f, -0.0990343913f, -0.1924421340f, 0.1898223609f, 0.1191042662f, -0.0685998052f, -0.2755534649f, -0.1248905808f, 0.1267269403f, 0.0941120833f, -0.0492668077f, 0.1094567925f, -0.1581981182f, 0.0199154466f, -0.1284180135f, 0.0134845469f, 0.4232779443f, 0.1278478354f, 0.0697751120f, 0.0062201689f, -0.2895691693f, 0.1941943765f, 0.2268340737f, -0.0932280421f, -0.0078798411f, -0.1842955351f, -0.3120546341f, -0.1174688637f, 0.0735423788f, -0.2427616268f, 0.0419880562f, -0.1532505304f, 0.1069079787f, -0.0743868798f, 0.2932728529f, -0.1030921713f, 0.1823684424f, -0.0178883187f, -0.0906180516f, 0.0658433437f, -0.2276290804f, 0.0426459536f, 0.0414443016f, -0.0558445863f, 0.0922164470f, 0.3160939515f, 0.1658757925f, 0.1565183997f, -0.2006618083f, -0.0038703282f, 0.2656678557f, 0.0472558849f, 0.0293770339f, -0.0649698004f, -0.0177682750f, 0.1058594286f, 0.1061984301f, -0.0381957516f, -0.0589920208f, -0.1958841532f, 0.3169230223f, -0.1721080542f, -0.0166993141f, 0.0167677477f, -0.3408740163f, -0.0872838125f, -0.0253248718f, -0.2481321990f, 0.1647318751f, -0.0295603760f, -0.1996066570f, -0.0109199425f, -0.2342791110f, -0.0393153392f, -0.0885922462f, -0.1777311414f, -0.1866943240f, -0.1097816229f, 0.0459236503f, 0.2588237226f, 0.2991657555f, -0.1462453306f, -0.1144245267f, -0.0342215560f, -0.0859875605f, -0.0470693782f, -0.1180856153f, 0.1681736559f, 0.0774927884f, -0.0983618796f, -0.2267581373f, 0.0372546278f, -0.2479875535f, -0.3226008713f, -0.2328771800f, -0.0398641042f, -0.2019485831f, -0.0943840593f, -0.0241285749f, -0.0309986807f, -0.1134280339f, -0.2134558409f, -0.0279376507f, 0.0621996596f, -0.0182515942f, 0.2513777614f, 0.1871450990f, 0.1751163751f, -0.0714917034f, -0.1818348318f, -0.0191962179f, -0.0037284223f, 0.2084734440f, 0.0990474224f, 0.0224791206f, 0.0551571958f, 0.0570825897f, 0.0979225188f, -0.1143301353f, -0.0280364975f, -0.1450682580f, 0.2179904133f, 0.0053265491f, -0.0341395661f, 0.1913141757f, -0.1051825434f, 0.0308661275f, -0.2056260854f, 0.1392410994f, -0.0119460672f, -0.1816838831f, -0.3407833278f, -0.0260506645f, 0.0762840062f, -0.0516345538f, 0.0542756617f, -0.3168407083f, 0.1780664623f, 0.2606585920f, 0.1950198412f, 0.0590266548f, 0.0514129847f, -0.2160126716f, -0.1664273888f, -0.0633839741f, 0.1649947464f, -0.1883327514f, -0.4246229827f, -0.0982356742f, 0.1409998685f, -0.0829510540f, -0.1842832267f, -0.2234564275f, 0.0386974066f, -0.2971811891f, 0.0559396632f, 0.0886562169f, 0.3414910138f, 0.0083728703f, -0.1622679532f, 0.0582966581f, 0.1224200875f, 0.1080292612f, -0.2748268247f, -0.2286272794f, -0.3209576309f, -0.2448690683f, -0.2881343663f, 0.1539194733f, -0.0341217965f, 0.0226772614f, -0.0689410567f, -0.1392362714f, -0.0274865646f, -0.1868237257f, 0.0100729950f, 0.1489922553f, -0.1928317249f, 0.3421264291f, 0.0950925946f, 0.0175230075f, 0.0757896081f, 0.0147237685f, -0.1352533102f, -0.0578918383f, 0.1929730773f, 0.3291194439f, 0.3069657981f, -0.0204098187f, 0.2190573663f, -0.2256528288f, -0.2549230754f, 0.0936993361f, 0.2944402397f, 0.2864423692f, -0.1668687910f, -0.1926468015f, -0.1278418154f, -0.1358358562f, -0.2224012911f, -0.0745398477f, -0.0240619481f, -0.1232170686f, -0.0503261797f, -0.2924695909f, -0.0849839598f, -0.0005519504f, 0.0318931527f, -0.1221864522f, 0.0825537592f, 0.2396823019f, -0.1277151853f, -0.1833428144f, 0.1863850802f, -0.0676757172f, -0.1283229440f, -0.2546049356f, -0.0866493136f, -0.2183202356f, 0.2123977691f, 0.1436865926f, 0.0653977692f, -0.2549377680f, -0.0096126497f, -0.0265844576f, -0.1180775091f, 0.0511653274f, 0.1244306490f, 0.0282598250f, -0.4212922454f, 0.0462688804f, -0.0972622037f, -0.1586788744f, 0.1602369100f, 0.0113759814f, 0.0618583485f, 0.1356965750f, 0.2247370631f, -0.0126879886f, -0.1552328765f, -0.1543368101f, -0.1377304494f, -0.0269469284f, 0.0177135207f, -0.0654625222f, -0.2910325527f, -0.0005451152f, -0.1289638132f, 0.0563658290f, -0.3947071135f, -0.2139014453f, 0.1039038822f, -0.0124247205f, -0.3392752111f, 0.0621948950f, -0.1591249108f, -0.1809046119f, 0.4113450050f, 0.4161610603f, -0.4265734851f, 0.1770837009f, 0.3732915521f, 0.0730898455f, 0.5045530200f, -0.4758471549f, 0.4839761555f, 0.1535163671f, 0.2984877229f, -0.1165816262f, -0.0599272326f, -0.5394781828f, 0.2257043421f, -0.1185779423f, 0.1299129874f, -0.1138549745f, 0.1546448022f, 0.2592048347f, -0.2749440670f, -0.0969306827f, 0.3940652907f, 0.2711123526f, -0.5287631750f, 0.4221602976f, -0.2284541875f, 0.1069599688f, -0.0210362617f, -0.1494901478f, -0.2876660824f, 0.1113974974f, 0.1277916729f, 0.2106474936f, 0.4316625893f, -0.0401126817f, 0.0474506803f, 0.0384021923f, 0.2694826722f, 0.1020372957f, 0.1350331306f, 0.3473154902f, -0.5977997780f, 0.0084203947f, -0.1740097255f, 0.1875710636f, 0.2205238789f, -0.6192159653f, -0.5315800905f, 0.0352611579f, 0.0042835232f, -0.3396740258f, -0.1099905074f, 0.2580199838f, -0.1166297495f, -0.0384584107f, 0.1363376677f, 0.2176102847f, 0.1974150687f, -0.1500690281f, 0.2129732221f, -0.1279901415f, 0.2173531353f, 0.3231593966f, -0.2534773052f, -0.4748304784f, 0.1718607545f, 0.0210493486f, -0.0090599041f, -0.4189790487f, -0.2269912809f, -0.1164331213f, -0.3333591521f, 0.2763442993f, 0.5992730856f, 0.0701412335f, -0.3389440775f, -0.3533754349f, 0.1988404840f, -0.0573857315f, -0.0109220939f, 0.2511214912f, -0.0355982706f, 0.0931621939f, 0.6533966064f, 0.4374053478f, 0.2303724438f, 0.3727909625f, -0.0751297623f, -0.2509903908f, 0.2297861129f, -0.0912382156f, 0.0277663264f, -0.0855352581f, -0.1919174939f, -0.1779951155f, 0.0570351109f, -0.3054900467f, -0.0545054860f, 0.1066127047f, 0.1682043374f, 0.1799181998f, -0.3971724510f, -0.1899037808f, 0.0723035410f, 0.5314099193f, -0.1849548519f, 0.1246431470f, 0.1638981402f, 0.1606382579f, 0.1966597289f, 0.0223226026f, 0.0985509008f, 0.2322310656f, 0.0349502936f, 0.1582542807f, -0.3593718410f, 0.4145230055f, -0.0952372849f, -0.0540622100f, -0.1447743773f, 0.1387865394f, -0.0494064875f, -0.0512428619f, 0.3617309928f, 0.1402506232f, 0.1107522920f, -0.0083712442f, 0.0082100499f, 0.3311007321f, -0.1311014742f, -0.2961582243f, 0.2549323440f, 0.0682458282f, -0.1174581796f, 0.1817682683f, -0.0538417846f, -0.1496402472f, 0.1336906254f, -0.1064926907f, 0.1721251011f, -0.1255439073f, -0.1428767741f, 0.0684343874f, 0.1119929701f, -0.2614641488f, 0.0407272615f, -0.1564686596f, 0.3047673106f, 0.1624471843f, -0.1863960028f, 0.0621770695f, -0.0860712975f, 0.1713044196f, -0.0540852137f, 0.0832278877f, -0.1890887469f, 0.0936677679f, -0.1443831474f, 0.1793062687f, 0.0157975759f, -0.0789089575f, -0.2600908279f, 0.2163177431f, -0.1425227970f, 0.0324435718f, -0.2698334455f, 0.0707770512f, -0.0778680965f, -0.2046806216f, 0.2355500907f, 0.3232275844f, 0.0158754736f, 0.0738654360f, 0.1414740682f, -0.0689650252f, -0.0948089734f, 0.0639149994f, -0.0506773815f, 0.0948262140f, 0.0075463331f, -0.1948979199f, -0.7647621632f, 0.1205464303f, -0.1259488910f, 0.3696021438f, 0.1436340809f, 0.0382971913f, -0.0221167095f, -0.3386986256f, 0.2041179985f, -0.4029792845f, 0.2026626468f, 0.1700336337f, 0.1244371012f, -0.1376522034f, -0.1405913830f, -0.6463152170f, 0.1079515368f, 0.0441006199f, 0.3858964443f, 0.4654060006f, -0.2471027076f, -0.2794832289f, 0.1102942526f, -0.0884959772f, -0.1511797160f, -0.1574693918f, -0.0720650703f, -0.3227247596f, 0.0337579995f, 0.0290018413f, 0.3017196059f, -0.1303451508f, -0.0986488536f, -0.0033203112f, 0.2074030191f, 0.1124612093f, 0.1363337487f, 0.1320079118f, 0.1897002459f, 0.1398069710f, -0.3103647828f, -0.2847974002f, 0.3237971365f, -0.0203047246f, -0.4134177864f, -0.1339136809f, -0.1028741375f, 0.7939133644f, 0.2898039818f, 0.3106452823f, -0.2818523347f, -0.4421709478f, -0.0051903524f, -0.3112733662f, -0.0248627122f, -0.0912192538f, -0.0388094075f, -0.0745142624f, 0.1368637830f, 0.0671328455f, -0.2036639303f, 0.0323531181f, -0.0280533955f, -0.0159323178f, 0.2683279812f, -0.2416252047f, -0.0667188838f, 0.0426183753f, 0.2081971914f, -0.1286817640f, 0.0222181920f, 0.1733556986f, -0.3571526408f, -0.0963477194f, 0.1299323440f, -0.1683058441f, 0.0521701686f, 0.1828521043f, 0.0024844918f, -0.2283974588f, 0.0178250968f, -0.0335935205f, -0.0165392738f, 0.0173665322f, 0.0077872435f, 0.0436942093f, -0.3734426796f, 0.0569045469f, -0.2343934476f, -0.0411366336f, -0.1068340093f, -0.1158229262f, -0.0991985798f, -0.1059543639f, 0.0720537752f, -0.2308972776f, 0.0400045663f, -0.1315304339f, -0.1658091247f, 0.2375423163f, 0.3109786808f, 0.1250694990f, 0.0263075382f, 0.2840065658f, -0.0825625435f, 0.1781774163f, -0.0715328678f, -0.1265996248f, 0.1422750205f, -0.2324727029f, -0.0757346004f, 0.1076806635f, 0.0220691171f, 0.0638462752f, -0.0155726019f, 0.2823860943f, 0.1763413846f, 0.0251987875f, -0.3024964035f, 0.0273893345f, 0.0337774940f, -0.1790033281f, -0.0205296185f, 0.0876345038f, -0.1890620887f, 0.0207071379f, -0.2048330456f, 0.0505071990f, -0.1999241263f, -0.0597246028f, -0.0859628469f, 0.2948337793f, -0.2471687198f, 0.0981484503f, -0.1730176657f, -0.0106123053f, 0.1789245605f, -0.1675791740f, -0.0416499637f, 0.0815403536f, 0.2063020617f, 0.0383089297f, 0.1149337664f, -0.1085725427f, -0.0841557905f, 0.2756134570f, -0.0555890128f, 0.0410865173f, -0.0459898710f, -0.2864241600f, 0.0106911138f, -0.2824068666f, -0.1948447526f, -0.0896085501f, -0.2701827586f, 0.0514505580f, 0.0207030997f, 0.0929675549f, -0.0873839706f, -0.1040331125f, 0.1129622832f, -0.0548497103f, -0.2564642131f, 0.1168803871f, -0.1167175695f, 0.1086297482f, -0.0515886657f, 0.1454932243f, -0.3904242516f, 0.0522081256f, 0.1379951686f, 0.2077099979f, 0.4100764692f, -0.1632136405f, -0.0821186081f, -0.2625996768f, -0.4452286065f, -0.0168294422f, -0.1798211038f, -0.0585822389f, -0.2289007008f, 0.3398423791f, 0.1265887022f, -0.1969448924f, -0.0120189236f, 0.0958646610f, -0.2637875080f, -0.0144622559f, -0.1956039965f, -0.1252637655f, -0.0214882717f, -0.1140176281f, 0.0894729048f, -0.1967985481f, -0.1940696985f, -0.1105447933f, -0.0365294106f, -0.0268956367f, -0.1448765397f, -0.3847996891f, -0.0446384661f, 0.3197105527f, -0.0291878190f, 0.2471600920f, 0.0990172550f, -0.0034587202f, 0.3540362120f, 0.0209465437f, 0.1966378242f, -0.1043859646f, -0.1944504231f, 0.3381507993f, 0.1425547451f, 0.0493733659f, 0.0451239906f, -0.0291274022f, 0.1076641753f, -0.0610444061f, -0.1567732990f, -0.1073069945f, 0.0649680644f, 0.0789499134f, -0.0165133607f, -0.0300546121f, 0.0429845266f, -0.1848547906f, -0.0691267475f, -0.0538660586f, 0.1702071279f, 0.0123615973f, 0.0271728374f, -0.0379998051f, 0.1014780551f, 0.0127438083f, 0.1442610919f, 0.1149661541f, -0.1093008816f, 0.0614385195f, 0.0765875354f, 0.0383657515f, -0.0720608905f, 0.0775436088f, -0.1399573684f, 0.2142236829f, 0.0775463581f, -0.1587516814f, 0.0229997616f, 0.1325304508f, -0.0874237344f, 0.2218870968f, -0.1902271658f, 0.0435540378f, 0.1267647892f, 0.2216774374f, 0.0884884149f, -0.2223676890f, 0.1173725128f, -0.1913802624f, -0.1229338273f, -0.0059900726f, 0.1483216137f, -0.0822072849f, 0.0851461142f, -0.1281088144f, 0.3144007325f, 0.0966582000f, -0.0045921863f, -0.2520934939f, -0.0177693572f, -0.1568884999f, 0.1252125055f, 0.1309786290f, 0.1047110260f, 0.1474296600f, 0.3306351900f, 0.0796906948f, -0.0735297352f, -0.2289046049f, 0.0463154726f, -0.0114544481f, 0.0407176018f, 0.1991413534f, 0.1918668002f, 0.1705634296f, 0.1459247470f, -0.1756442785f, -0.1135835052f, -0.1238393262f, 0.2754723430f, -0.0397125520f, -0.1031510606f, -0.0956834629f, 0.1353626400f, 0.2051744759f, -0.0550967269f, -0.1398796290f, 0.1434296817f, 0.0451570563f, 0.1612387449f, 0.1914627105f, 0.2547840476f, -0.0174131375f, 0.2183985412f, 0.0896505937f, -0.1267852634f, 0.0591736026f, -0.0017250096f, -0.0636569634f, 0.1504065245f, 0.0142882075f, 0.1040907651f, 0.0536862873f, 0.0302184206f, 0.1269102842f, 0.4083570838f, -0.1569605321f, 0.3399973214f, 0.0928555503f, -0.3376392722f, -0.1715873927f, -0.1008559093f, 0.0009810579f, -0.3032164872f, -0.1513724029f, 0.4032032192f, -0.1921462119f, -0.3057895601f, 0.3440467119f, 0.4205385149f, 0.2801465094f, -0.2100577950f, 0.0304049719f, -0.1555016190f, -0.1966587305f, 0.3017238379f, -0.2371021211f, -0.0406161360f, -0.0712061599f, 0.0761242136f, -0.0444607101f, 0.0262367241f, 0.1563991755f, -0.1581948996f, 0.3066782355f, 0.1648350656f, -0.1504027545f, 0.5285449624f, 0.4469548166f, 0.0998698473f, -0.2130730003f, -0.4273505807f, 0.2068473846f, 0.0261580795f, -0.2615257800f, -0.2943663895f, 0.1387435347f, 0.1193339154f, -0.2192765921f, 0.1221426353f, 0.0858027488f, -0.5133528709f, -0.1528265327f, -0.1281878948f, -0.1357783973f, -0.1263273954f, 0.1605353802f, 0.3571695089f, 0.2029302120f, 0.3375096619f, -0.2170496434f, 0.4264302254f, 0.0860849693f, -0.0252305381f, 0.0436916314f, 0.0758602843f, 0.1183853820f, 0.2487646192f, 0.2807839215f, -0.3103423119f, 0.0762128904f, 0.0060919221f, -0.1453563124f, 0.0706172958f, -0.1878705323f, 0.0621532910f, -0.7470766306f, 0.5308467150f, -0.0074313111f, -0.1625863463f, -0.0317204371f, 0.2632380724f, 0.1344134659f, -0.0198026244f, 0.1727176756f, -0.1206962913f, -0.2267471999f, 0.6263700724f, 0.0284361672f, -0.3892394304f, -0.0598308817f, -0.4549340904f, -0.1921543330f, 0.1184342057f, -0.0200898610f, 0.2311133295f, -0.1197116300f, -0.1496758014f, -0.1864963323f, 0.0724450275f, 0.0827380270f, -0.0672195852f, 0.2674258649f, -0.0312420204f, 0.0720375106f, 0.1620102674f, 0.1909475923f, -0.3000818789f, -0.1149972826f, -0.2591494024f, -0.0041519683f, 0.1662126631f, -0.1713797152f, -0.4332036078f, 0.0360398255f, -0.0206386112f, -0.2714462876f, 0.0724854246f, -0.0580483079f, 0.1743970960f, 0.3921365440f, 0.0151909618f, 0.2110924572f, 0.0706501827f, 0.1744245887f, -0.0549170002f, -0.3144020140f, 0.8334761262f, -0.1041733399f, 0.2558276653f, -0.3081380725f, -0.1792084724f, -0.0897368789f, -0.3458279371f, -0.2218095511f, 0.1870444417f, -0.2353995740f, -0.1193159148f, 0.1799608022f, 0.1309246868f, 0.0847174898f, -0.0418415330f, 0.0054009706f, 0.0398333110f, -0.1775570214f, -0.0394898877f, -0.2633041441f, 0.2249819338f, 0.2413661778f, 0.1016687602f, -0.0741930604f, -0.1393906176f, 0.3277149796f, -0.0632296726f, -0.1304837465f, -0.1495367587f, -0.1020989567f, -0.1049350649f, 0.2526550889f, -0.0897039995f, 0.1745190620f, 0.2214683443f, 0.3029370606f, 0.0382510945f, 0.0994791090f, 0.1714632809f, 0.0966113210f, 0.1240456402f, 0.1377551556f, -0.0518089198f, -0.0827888772f, -0.0414709561f, 0.1334861219f, 0.0921083018f, -0.0208824929f, -0.1322480440f, -0.1291140616f, -0.0009291580f, 0.2238849849f, 0.1743997335f, 0.0261258408f, -0.0356107689f, 0.4365161061f, 0.0840787068f, -0.0197795387f, 0.1427089423f, -0.1541394889f, -0.1032158658f, -0.1141613647f, -0.2906085551f, 0.0601944700f, 0.2219543308f, 0.1547644138f, -0.1826110631f, -0.2609728575f, -0.0312058181f, -0.1702275574f, -0.0229957514f, 0.2453102469f, -0.1840420663f, 0.0146070933f, -0.1875970066f, 0.3270495236f, -0.0829591081f, -0.3228934109f, -0.5799336433f, 0.0490325578f, 0.4039687216f, 0.0030290701f, 0.0307089724f, -0.1421542317f, 0.7113586664f, 0.0551524945f, 0.0451394916f, -0.0550417826f, -0.0099453386f, 0.3065293133f, -0.1666105390f, -0.5137354136f, 0.3269576728f, 0.1187777817f, -0.0679750815f, 0.0304869115f, -0.1049976125f, 0.1975372583f, 0.1378289461f, -0.2046011388f, -0.0566922911f, 0.1910253167f, 0.2055527121f, 0.0708166063f, -0.0212182328f, 0.1168773025f, -0.3043610752f, 0.0662821382f, 0.0067710378f, 0.1644784063f, 0.0399262272f, -0.2050821185f, -0.1121157184f, 0.1046361104f, 0.2734026909f, 0.1514344811f, -0.1568950564f, 0.2506534755f, 0.0601599105f, 0.2708155215f, -0.3436183929f, 0.1775131077f, 0.5930854678f, 0.2587197721f, -0.1851278841f, -0.1866651922f, 0.7428079844f, -0.1294676960f, -0.0578761734f, -1.0823726654f, 0.1591356397f, 0.0599742346f, -0.1794276685f, -0.0673298910f, -0.1739143282f, -0.1931367368f, -0.2836833000f, -0.2320435345f, 0.0242457576f, 0.2007318884f, 0.1036074013f, -0.0088623548f, 0.1126364470f, 0.1424547732f, 0.3627549112f, 0.2302166522f, 0.1395112425f, 0.2423430830f, 0.2122583091f, -0.1559947431f, -0.1351027936f, -0.0686325058f, 0.0930675939f, -0.1785456538f, -0.0715362430f, -0.0771202445f, -0.2119192779f, -0.0526842847f, 0.4161056280f, -0.0344285443f, 0.0749304593f, -0.0045813397f, -0.0125274742f, -0.0263055786f, 0.0227349140f, 0.0351181254f, 0.0748326853f, -0.1911166608f, 0.0144541282f, 0.4107466638f, -0.0104552601f, 0.3063087463f, 0.2047625035f, -0.0130701475f, 0.0510028526f, 0.3125412762f, -0.1178232506f, 0.3044655621f, 0.3369478881f, 0.0416160114f, 0.2253996730f, -0.0243044179f, -0.2204467803f, 0.1954617053f, -0.0381802656f, -0.2398829609f, 0.0981627554f, -0.2405160666f, 0.0688543841f, 0.0731843263f, -0.1242586896f, 0.0564268716f, 0.0381933115f, 0.1333182305f, -0.0245877411f, -0.2355092615f, -0.0366120562f, -0.1295519322f, -0.3603178859f, 0.0353907011f, 0.0910172537f, 0.1850314885f, -0.0234870519f, 0.2767162323f, 0.0157545619f, -0.0893959701f, -0.1593346894f, 0.0024484054f, -0.0453262217f, 0.4218251705f, -0.0071974215f, 0.4792160690f, 0.4144046903f, 0.0045615253f, -0.0679417774f, 0.5001537800f, 0.4376158416f, 0.2008356899f, -0.0803679153f, -0.2022989690f, 0.3055582941f, -0.1278939396f, -0.0040711956f, 0.1286260635f, 0.0084537398f, -0.3171738982f, -0.2126123160f, 0.0141398646f, -0.0405749977f, 0.1706233025f, -0.0205597542f, -0.1897853017f, 0.2409257293f, -0.1279405653f, -0.2310736924f, -0.2345201820f, -0.3636029065f, -0.2297659218f, -0.0720374212f, -0.4014194906f, -0.0225708354f, 0.1466029286f, 0.4819121659f, 0.2691939771f, -0.0275367498f, 0.1298193485f, 0.0214905161f, 0.0865174681f, 0.0691011623f, 0.0580987222f, 0.0094637191f, -0.0529612377f, -0.3446477056f, -0.3490145802f, 0.2864571214f, 0.2411775142f, -0.0862953514f, -0.7403447628f, 0.1033839285f, -0.0330867022f, -0.0692031533f, -0.0989454687f, 0.2881671488f, 0.0725461692f, 0.0049691335f, -0.1198928207f, -0.0722075552f, -0.3169758618f, -0.0335544646f, -0.0107028512f, -0.0308444388f, -0.0584178045f, -0.1027942747f, 0.0610203110f, 0.2012173235f, 0.1540657282f, 0.0204431508f, 0.1887459159f, -0.0369588546f, -0.2673218846f, -0.0804884806f, 0.1024504006f, 0.1050760671f, 0.2325034887f, -0.0926733464f, -0.0348469876f, 0.2672063708f, 0.1313889623f, -0.1149241924f, -0.0535033830f, 0.0329259112f, 0.2239445150f, 0.1308595091f, 0.0944733247f, -0.0786830187f, -0.1771310717f, 0.0878836215f, -0.0018369264f, 0.0353743061f, -0.0478762910f, 0.2206746191f, -0.0549092665f, -0.1645563692f, -0.2872276306f, 0.0983387157f, -0.1421726644f, -0.0512955263f, 0.1737758815f, -0.0052666296f, 0.0063087745f, 0.1726589352f, -0.0577292368f, -0.2461012304f, 0.1574037671f, -0.0032342018f, -0.0747224763f, -0.1124635190f, -0.0976846218f, 0.1810277551f, -0.1082001701f, -0.2080466449f, 0.2112381309f, 0.1281414181f, -0.2193147391f, -0.0305540115f, -0.1060402393f, 0.1403558105f, -0.2592225671f, -0.3297214210f, 0.0039375070f, -0.0675624833f, -0.0854063854f, 0.2149530351f, 0.0989985168f, -0.0170898158f, 0.1136018038f, 0.0895460472f, 0.0579184145f, -0.1990686059f, -0.1125055403f, -0.0662569329f, 0.0971689299f, 0.0332292654f, 0.1262888312f, -0.2269647270f, -0.1908098161f, -0.3244515061f, -0.0269765761f, 0.1107086986f, 0.0587802678f, -0.1259766072f, 0.0730928034f, -0.0986294523f, -0.3233608007f, -0.2958028018f, -0.0204451606f, 0.0681538805f, 0.2996772826f, 0.2497169375f, -0.0535282753f, -0.1909239888f, 0.1118272692f, -0.2478776574f, 0.1580465436f, -0.0682249293f, 0.0835075527f, -0.0865620077f, -0.1832617223f, 0.0608263537f, -0.0695320293f, 0.0812055543f, -0.1205255762f, 0.0427798964f, -0.1081543192f, -0.1051469669f, -0.3048769832f, 0.1441340595f, 0.1857263297f, 0.0343229547f, -0.1254577041f, -0.1303461790f, 0.0488601476f, 0.0404423028f, -0.3164258301f, 0.0761878118f, -0.1832651049f, -0.1370376945f, -0.1660748124f, 0.2809569836f, 0.0917410553f, 0.0611992888f, -0.0018921391f, -0.1055529118f, -0.0256135985f, -0.2036836743f, 0.1035116836f, -0.0268093217f, -0.1309937090f, 0.1194703653f, -0.1182039753f, -0.0153752808f, 0.0251596738f, -0.0473276228f, -0.0871943980f, 0.0320754834f, -0.0565996021f, -0.2216176540f, -0.0526258610f, -0.1018534824f, -0.0597375706f, 0.0340669155f, -0.0072572813f, -0.0419844165f, -0.1644106060f, 0.2011688352f, 0.0785185173f, -0.1175952032f, 0.1083109006f, 0.1247615218f, -0.0534466393f, -0.0562388971f, 0.1802813411f, -0.0003911594f, -0.2303448468f, -0.0927764326f, -0.0147221740f, 0.0202797409f, -0.3172907531f, 0.0286692828f, 0.2993262410f, 0.0142428912f, 0.1887996495f, 0.1206076518f, -0.1540629417f, 0.0344024673f, -0.2464571297f, -0.0154241798f, 0.0505370349f, 0.0388181545f, -0.0318458937f, 0.1082211807f, -0.0663980022f, 0.1592397988f, -0.0308646280f, 0.0639153793f, -0.0635888427f, 0.1385205537f, -0.0468584821f, 0.1547282487f, 0.0756897554f, 0.2311570793f, 0.2608390152f, -0.3740486801f, 0.0912615880f, -0.0439707600f, 0.0665055588f, -0.0398200527f, 0.0400213636f, -0.2444656491f, -0.0202446561f, -0.0823213756f, 0.0397379957f, 0.0931629762f, 0.0007047874f, -0.0210268926f, 0.1114390567f, -0.0705452040f, 0.0467256755f, -0.3856878281f, 0.3052970767f, 0.0987527445f, 0.0213763546f, 0.1064491570f, 0.3504210413f, -0.0235070195f, 0.2692088187f, -0.2452851683f, 0.0023185126f, -0.0281856023f, 0.0914761052f, 0.0346207395f, 0.0015611224f, 0.2520308793f, 0.0994274169f, -0.1547188312f, 0.2401286215f, -0.1360719353f, 0.0891130343f, -0.0810525864f, 0.1466422379f, -0.0765724182f, 0.3280746341f, -0.2816608846f, 0.0630108714f, -0.4270862639f, -0.0335653387f, 0.0310311727f, -0.1960281134f, 0.0815887228f, -0.1087604165f, -0.0224067438f, 0.0800285637f, 0.0618603714f, -0.4139130414f, 0.1929499060f, -0.2156079262f, 0.3188876510f, -0.0956860855f, 0.2389544547f, 0.1404248923f, 0.3719703555f, 0.1690998524f, 0.0075881458f, 0.1459082663f, 0.0066285711f, 0.1068555862f, 0.3413895369f, 0.0538721755f, 0.0649831966f, -0.1895640939f, 0.0378760546f, -0.0354425535f, 0.3036582172f, 0.1590345651f, 0.1882573962f, 0.0237152409f, 0.0873256475f, 0.1561637074f, -0.0192140192f, 0.0522694811f, 0.0853539482f, -0.1385621876f, -0.2165208906f, 0.4681486785f, -0.1995787621f, 0.1877222359f, 0.1044131517f, 0.0524933301f, 0.1574276388f, -0.2448312640f, 0.0630038157f, 0.2272092700f, -0.0006597448f, -0.1313273162f, -0.1671463996f, 0.2796292603f, 0.0446669050f, -0.0427563004f, 0.2823442519f, 0.3900063038f, -0.1137120798f, -0.0591667183f, -0.2431917787f, 0.0096342778f, -0.0440945029f, -0.4312225580f, -0.1621186882f, -0.0282260273f, -0.2005457729f, 0.1215861514f, 0.1243539751f, 0.2191662639f, 0.1330776662f, -0.0652196631f, -0.0767356008f, -0.2267646641f, -0.0147030484f, -0.2624874413f, -0.2530376017f, 0.2837894857f, -0.0667295009f, 0.1282927990f, 0.1057526246f, -0.0555201657f, -0.1086813137f, -0.0097390311f, -0.1897245198f, 0.2808792889f, 0.0980151147f, 0.0477902330f, 0.2059994638f, -0.0346585438f, -0.1846103668f, -0.0751624852f, 0.1768916398f, -0.2279739827f, -0.0209509879f, 0.2675727010f, -0.0195416417f, 0.0118815973f, -0.1547533125f, -0.2333903462f, 0.0982487425f, -0.0599740259f, -0.0775985494f, 0.1668248475f, 0.0649515539f, 0.2019071430f, -0.0190622211f, -0.0590630099f, -0.1871168613f, -0.2452631742f, -0.2791243792f, 0.1485658139f, 0.1166730598f, -0.0274066310f, -0.0780761540f, -0.0157532617f, -0.0779961124f, -0.1857933104f, 0.0566246286f, -0.0975586325f, 0.1049432382f, -0.3133105040f, -0.1344724298f, 0.1052984819f, 0.0821836740f, -0.1681302339f, 0.2064422518f, 0.0297693480f, 0.1211221963f, 0.3219280541f, -0.1374926120f, 0.2921681404f, -0.1146119535f, 0.2116938978f, 0.1557253301f, -0.2329479903f, 0.0796559677f, 0.2133255452f, 0.1563596278f, 0.0267654061f, -0.0292694233f, 0.0133805610f, -0.2093665302f, 0.0782997161f, -0.3108730316f, -0.0221312363f, -0.0294734426f, 0.1100298539f, 0.2350441366f, -0.2227314562f, 0.2702244222f, -0.1659414321f, 0.0589780547f, 0.2158108205f, 0.1259847134f, 0.2684853673f, -0.0463930890f, 0.0275784843f, -0.1092389598f, 0.1035213098f, 0.2019486576f, -0.2701719701f, 0.1111443564f, -0.0060016001f, 0.1518609673f, -0.0428671986f, -0.4622232318f, -0.0264277030f, -0.0864207074f, 0.1134794429f, 0.1500186920f, -0.2150944769f, 0.0983771309f, 0.0894083157f, 0.0187076665f, -0.0328472480f, -0.0683128312f, 0.1414472908f, 0.1252449006f, 0.0368145742f, -0.0987354070f, 0.0914651453f, 0.4605204463f, -0.1976576298f, 0.1617309004f, 0.0591338128f, -0.1917284280f, -0.0447418317f, 0.3358134329f, 0.0793706104f, -0.3908534348f, 0.2508898973f, 0.1310023963f, 0.0219945721f, 0.0330386683f, 0.0419284329f, -0.0486343578f, 0.1528943479f, -0.1494280100f, -0.1567046195f, -0.1831658632f, -0.0805239603f, -0.2324257493f, -0.2726442516f, -0.1780026108f, -0.0644429624f, -0.1752139032f, 0.1529761404f, -0.0828143954f, 0.0190869477f, 0.2348372191f, 0.0119314771f, 0.1300064921f, 0.3124851286f, -0.0310957897f, -0.2534968555f, -0.0183247197f, 0.2138205320f, 0.3596912324f, 0.0027064411f, -0.2452943474f, -0.0240007099f, -0.4490744770f, 0.0302760936f, -0.1214426830f, 0.0317291953f, 0.3376969099f, -0.0632876158f, -0.3723860681f, 0.0619937293f, 0.0497044139f, 0.1379002780f, -0.8894755840f, -0.1575770825f, 0.3259502351f, -0.1170608401f, -0.0619548187f, -0.2799714506f, 0.2733732760f, -0.3637331426f, 0.0612344258f, -0.2054077238f, 0.0248395875f, 0.2467772812f, -0.2567549348f, 0.1593196988f, -0.1732994020f, 0.1008227319f, -0.1042617857f, 0.2701542377f, 0.1415675431f, 0.1863781214f, 0.3065527678f, 0.2786171138f, -0.1791821122f, 0.1194639206f, -0.3683768213f, 0.0843116269f, -0.0851965025f, -0.0076068598f, 0.0760257170f, 0.2058496922f, 0.3847756982f, 0.1837764233f, 0.3115108311f, -0.0852771848f, -0.2273431271f, -0.1887737960f, -0.0819963217f, 0.3295083046f, 0.2257064283f, 0.2388579398f, 0.1367864907f, -0.4695247114f, 0.2325614989f, -0.3814831078f, 0.1678377688f, 0.3811972141f, 0.0869461223f, -0.2264231890f, -0.1109604537f, 0.5144478679f, -0.2036798745f, -0.0405552126f, 0.2605875134f, -0.1889690012f, -0.2688904405f, 0.0921135917f, -0.0947660953f, 0.1093382537f, -0.2547792494f, 0.3083675206f, -0.2917414904f, 0.1755139232f, -0.1343145370f, -0.0391272567f, -0.0462203249f, 0.1356830895f, 0.1383043379f, 0.0304970481f, 0.2675229907f, -0.1316134483f, -0.2585090995f, 0.3429288864f, -0.0711152554f, 0.0328486785f, 0.0714799836f, -0.2638412416f, -0.0583143868f, 0.0516380183f, -0.0937415659f, -0.0262094829f, 0.2300648987f, -0.0980777666f, -0.1784441024f, 0.0268263202f, 0.1845857054f, -0.2223668545f, 0.2198763192f, -0.3173776567f, 0.0703057647f, -0.1856531650f, -0.1845238060f, 0.0226768292f, 0.1585945487f, -0.0668204948f, 0.0950822383f, -0.1273897886f, 0.1463369131f, 0.0573509522f, -0.2303293198f, 0.1247601062f, 0.0126834307f, -0.0907680020f, 0.3568383157f, -0.0390945636f, -0.0060373009f, 0.0353566185f, -0.0258691590f, -0.1659144014f, -0.0254190844f, -0.1796103418f, -0.0750313178f, -0.0669098422f, 0.1279862225f, -0.0320856236f, -0.1467997879f, 0.1048654541f, -0.0353692845f, 0.0201596655f, 0.1394088417f, 0.5245695710f, -0.1930332780f, -0.0720016584f, -0.0939206332f, -0.0494607240f, 0.3440366685f, -0.0086286273f, 0.1286479831f, -0.1437560916f, -0.1215717345f, -0.1336416006f, 0.1496549249f, 0.1515648365f, 0.2796167731f, -0.1513290405f, -0.3155089915f, 0.1027476192f, 0.2958428860f, 0.1744854152f, 0.4644939899f, 0.3144663274f, -0.0109947901f, -0.0540251769f, -0.1225638092f, 0.1573993862f, -0.1924456507f, -0.0597364567f, -0.2664188743f, 0.0384350903f, 0.1438772231f, 0.0475212596f, 0.1228867024f, 0.0212307759f, 0.3331771493f, -0.1087288335f, 0.0039046304f, -0.1601663381f, 0.0069263917f, -0.1426664442f, -0.4527193010f, -0.1043186709f, -0.2010517269f, 0.2761479318f, 0.3512906730f, -0.0127373626f, -0.1320033073f, 0.0943971798f, -0.1660676003f, -0.2623693943f, -0.0517029464f, -0.2639927864f, -0.3027976453f, -0.0392145850f, -0.2457133830f, 0.2091671377f, -0.3218581378f, -0.0286500193f, 0.0701886192f, 0.4168801904f, -0.3340726793f, -0.1880532801f, 0.0486288331f, -0.5379312038f, 0.0236476231f, -0.0949221700f, -0.4016302824f, 0.2472882867f, -0.0624931827f, 0.3555344939f, 0.0964004025f, 0.0805880278f, 0.4922004044f, -0.4751213789f, 0.1754830629f, -0.3002090454f, 0.4166792035f, -0.6720297933f, 0.1110165268f, -0.0573656857f, -0.0091900500f, -0.3288377523f, 0.1538538784f, -0.1698580235f, -0.2529473603f, -0.2831186056f, 0.1409008652f, 0.0287549905f, 0.1742971539f, 0.4546627104f, -0.6928358078f, 0.0409706533f, 0.5325600505f, -0.4426186681f, 0.2452272326f, 0.0043500084f, -0.0583167225f, 0.0325509273f, 0.3025158942f, 0.2616737187f, 0.0560033098f, -0.0731782392f, 0.0354059041f, -0.0344133116f, -0.1256353408f, -0.2685172260f, -0.1181665808f, -0.2105293423f, 0.0407930277f, -0.7337741852f, -0.2727337480f, 0.2738280296f, 0.2036607116f, -0.1687757075f, -0.0913809389f, -0.1281587481f, -0.1496331096f, 0.3727048337f, -0.1785433590f, -0.3515767455f, 0.3333043456f, -0.0028212646f, -0.3482483923f, 0.0833213180f, 0.0281572063f, 0.3653593659f, 0.7178246975f, -0.0771589279f, -0.1309798509f, 0.0142332595f, 0.0155860139f, -0.0237402655f, 0.3486253917f, -0.2401229292f, 0.2694132328f, 0.1652687937f, 0.3044159114f, 0.0422572345f, -0.1222629324f, -0.4138337970f, 0.0523853712f, 0.2041203231f, 0.0467300788f, 0.1043074206f, 0.0814574584f, 0.1258276850f, -0.1724087745f, 0.3127486408f, -0.1846359372f, 0.3585298359f, -0.0378245600f, -0.1377497017f, 0.0616239682f, 0.1212337986f, 0.1311026365f, -0.0420112796f, -0.0186841022f, 0.2286929041f, -0.1985338032f, -0.2058139294f, 0.0239073783f, -0.2078487426f, 0.1606628299f, -0.0221218821f, 0.0786872879f, 0.0664065257f, -0.0143619562f, 0.0590971522f, 0.0923542306f, -0.0950260907f, 0.0197884198f, -0.0426366888f, -0.0785089582f, -0.1519662738f, 0.0184227582f, 0.1840775609f, 0.0566594452f, -0.0795273185f, -0.0509939976f, 0.0274838395f, -0.1977550089f, -0.2362818718f, -0.1473770142f, -0.2281327248f, -0.0706066191f, -0.2321061045f, -0.2577151358f, -0.4327087104f, -0.2789461911f, 0.1772851497f, 0.0247311294f, 0.0689088926f, 0.0951782912f, -0.2466214746f, 0.0643779561f, -0.0053865989f, -0.1495973468f, -0.0589890704f, -0.1262869537f, -0.0277246758f, 0.1059012488f, -0.0619413294f, 0.3576780260f, -0.1931553334f, 0.0236440636f, 0.0551089533f, 0.1136287451f, -0.0487628356f, -0.1603079140f, 0.1121260226f, -0.1325104088f, -0.0400844291f, 0.0989966467f, 0.0403135344f, 0.1121265590f, 0.0960586518f, -0.1976029724f, 0.3762023449f, 0.2125973254f, 0.0181582347f, -0.1958526224f, -0.0021773474f, -0.1606495082f, -0.0723875538f, 0.0191759914f, -0.0459705107f, -0.1016234234f, 0.3082615137f, -0.0999110341f, -0.0599505082f, 0.3068910539f, 0.1966227293f, -0.0527517758f, 0.0145087196f, -0.1268744320f, 0.3258635700f, 0.1409319490f, 0.0078932093f, -0.1887206435f, 0.0522538498f, -0.2566832006f, -0.2116799057f, 0.1214182824f, -0.2127462476f, 0.2279621661f, -0.3010722697f, -0.0988847613f, -0.0265789814f, -0.0346955024f, 0.1033941433f, -0.0887196735f, 0.1092851534f, -0.2053763717f, 0.1079916507f, -0.2641700208f, -0.0485103354f, 0.1661267281f, 0.1159366593f, 0.2288615257f, 0.0545864739f, 0.1528837979f, -0.0259231254f, 0.0128103979f, -0.4501348138f, 0.0133855483f, -0.0177136809f, 0.0883600786f, -0.1594282985f, 0.0768067017f, -0.0265896469f, -0.0828211308f, 0.2030732632f, 0.2383626550f, 0.0399513021f, 0.0811870322f, -0.0880399793f, 0.2197011858f, 0.1845525205f, -0.1070345342f, -0.0694757402f, -0.1584644616f, -0.0124000693f, -0.0042601600f, 0.1128175408f, -0.1767689288f, -0.1518927068f, -0.0599413924f, -0.1263758987f, -0.0032587235f, -0.0296569094f, -0.0935638472f, 0.1643909663f, -0.0389334597f, -0.1904140860f, -0.0973587111f, -0.0461935438f, -0.1159933358f, -0.0772987902f, 0.1821979433f, -0.2768233716f, -0.0425414182f, -0.0603541918f, 0.0730217248f, -0.1790754199f, 0.3088458478f, -0.0883768871f, 0.1522118449f, -0.1968954802f, 0.0719016567f, -0.1174364835f, 0.0104248160f, -0.1344766617f, 0.1080559716f, -0.0763317123f, 0.3741047978f, 0.0159593467f, -0.1552083641f, 0.0985824764f, -0.1948439330f, 0.0970231444f, -0.0300796349f, -0.1431403011f, 0.1264394671f, -0.1698454469f, -0.0566044636f, 0.5051419735f, 0.1940629035f, 0.1266010255f, -0.0946177021f, 0.1069622710f, 0.1652662456f, 0.0092471987f, -0.0247731339f, -0.1790001839f, 0.0457753316f, -0.0210721418f, 0.0335829370f, 0.0308084711f, 0.1701466590f, -0.0035748233f, 0.1378569156f, 0.1024454236f, -0.3338683844f, -0.2198513895f, 0.0534085184f, 0.0353980176f, -0.1772011220f, -0.1765749305f, -0.1458432674f, -0.0890603662f, 0.0745529383f, 0.0534666963f, -0.2155466825f, 0.0281402506f, 0.0329792947f, 0.0248216279f, 0.1092127338f, 0.0758337453f, 0.0086740814f, -0.1725086421f, -0.0285811387f, 0.0161026511f, 0.2689108551f, 0.0613195151f, -0.1164341792f, -0.0287870597f, -0.0165403634f, 0.3936963081f, -0.1317836642f, -0.0754139200f, 0.1925840229f, 0.0329655334f, 0.1855024993f, 0.0756804124f, 0.1618817598f, -0.0156196747f, 0.0154507169f, 0.5593690276f, -0.0378404371f, 0.1441073716f, -0.1748272777f, 0.3629111648f, -0.0136641758f, 0.1007887200f, -0.0924566463f, -0.0830168650f, 0.0589920208f, -0.0848506987f, 0.1110378355f, 0.2287927419f, 0.0254278146f, 0.0609809570f, -0.0538773462f, 0.1397017986f, -0.0509573892f, -0.2214366049f, 0.1349829882f, 0.0434644632f, 0.0327136479f, 0.1184373647f, 0.1211581677f, -0.0712353662f, 0.1235965043f, -0.0868685544f, 0.0375426486f, 0.0636662245f, 0.3951653540f, -0.0466625020f, 0.3076647222f, -0.1126733944f, -0.0836477205f, -0.1733230501f, -0.0964279920f, 0.0388414674f, 0.0289962608f, -0.2456948757f, 0.3482541442f, -0.0896803066f, 0.1608135402f, 0.1011942849f, -0.1439841390f, -0.1001095772f, -0.1776484400f, 0.0531294942f, 0.0176609941f, -0.1776876301f, -0.0445924699f, 0.2816267312f, 0.0523578934f, 0.2221092731f, 0.2911863625f, 0.1446037740f, 0.1050802991f, 0.2754234374f, -0.0037980871f, -0.3729187250f, 0.0872975588f, 0.0924135372f, -0.1259157062f, 0.2189839929f, -0.3226999640f, -0.1765109450f, 0.0929487348f, 0.0998311117f, -0.0632089376f, -0.0963434875f, 0.0595358908f, -0.0071745031f, 0.3020744622f, 0.1276992559f, -0.1012007594f, 0.0035100766f, -0.0156242829f, 0.0739570260f, -0.1422795802f, -0.1707040370f, -0.3311192989f, -0.0041993428f, 0.1825838983f, -0.0248146914f, 0.1888944507f, -0.0617411137f, 0.0259242672f, -0.1416405737f, 0.0901416615f, 0.1101856381f, -0.2855124772f, 0.0839904398f, 0.0663080737f, 0.0727753788f, -0.1990430206f, -0.0477333963f, -0.1388003677f, -0.0437232852f, 0.3474061787f, -0.0171999205f, 0.1456703097f, -0.1688900441f, 0.0618417896f, 0.0622253232f, -0.1517144144f, -0.0084670195f, 0.2399426252f, -0.1949199289f, 0.1542367190f, 0.1914613992f, 0.2061989456f, 0.0359108336f, -0.1617898494f, 0.2056088150f, 0.0474472977f, 0.2020063847f, 0.2834948301f, -0.2398862988f, -0.0646133944f, -0.2048002332f, -0.0157807991f, -0.0520362221f, 0.0511224531f, -0.4590609372f, 0.0497193374f, -0.0575034469f, 0.1251517385f, -0.4265319705f, -0.3849493563f, 0.2926849425f, -0.0065578613f, -0.2175182104f, -0.3015391827f, -0.0161432605f, 0.1482130587f, -0.0287310593f, 0.2599236369f, 0.0776615366f, -0.3289988041f, 0.0157383792f, 0.0556583293f, -0.1522042453f, 0.0639457852f, 0.0471658744f, 0.1395896077f, -0.0286370926f, 0.0306921843f, 0.2918262780f, 0.0888285711f, 0.2054063231f, -0.0281117130f, 0.1185575649f, 0.2110092044f, -0.0837194920f, -0.1307722181f, -0.0392446965f, -0.2107641250f, 0.0374720357f, -0.0977988169f, 0.1384830028f, -0.1562561244f, -0.1465055197f, 0.1182930321f, -0.0102830734f, 0.0218055863f, 0.0986464098f, -0.1537207812f, -0.0058652218f, -0.1880876720f, -0.2836832404f, 0.3696952462f, -0.1368851960f, 0.1298349202f, 0.1118683070f, -0.1494983137f, 0.0428961962f, -0.1284888834f, 0.0550718606f, 0.3615178466f, -0.3424237072f, 0.1650434583f, 0.1078110114f, 0.0430760197f, 0.1247471645f, 0.0677466244f, -0.1008322760f, -0.0003814162f, 0.1099759787f, 0.4201127887f, -0.2197717875f, 0.2818662226f, -0.1207207292f, -0.0220967326f, -0.1463571936f, 0.0455159135f, 0.3921056688f, 0.1458522081f, 0.1965603083f, -0.0925407186f, -0.1864244193f, -0.2015542239f, 0.1492527723f, -0.0225377604f, -0.1227259040f, 0.0350906625f, 0.0938744396f, -0.0524203070f, 0.1500760615f, -0.0009889805f, 0.0710811764f, -0.2023033500f, 0.3292720020f, -0.1366097927f, 0.0751895085f, -0.1544999033f, 0.2449841350f, -0.0157348197f, -0.1494065821f, 0.2438505739f, 0.0364051722f, 0.1301126480f, -0.3064600825f, 0.1138938963f, -0.1451750398f, -0.0356229618f, -0.1829238683f, 0.0554105490f, 0.0863306969f, -0.0071799611f, 0.2764910161f, -0.0503621064f, -0.0027362939f, -0.0179345198f, -0.0165925939f, -0.0122728096f, -0.0451547392f, 0.0616308302f, 0.0240281038f, 0.1466275156f, -0.3464958370f, -0.2111546546f, 0.0415939465f, -0.0252627525f, 0.2819555104f, 0.2277736068f, -0.0556290522f, 0.0387004875f, -0.0415847898f, 0.2323092371f, -0.0487434492f, 0.1441825479f, -0.2909632921f, 0.2425034046f, -0.1119981781f, 0.0294632614f, 0.2045977265f, 0.0355032384f, 0.0193112325f, -0.1396124214f, -0.0804180801f, 0.2536757588f, 0.0727068409f, 0.2844019532f, 0.1728613675f, 0.2014871836f, 0.1056834906f, -0.1609944403f, -0.2818702459f, 0.0120177995f, 0.0476146676f, -0.0435206704f, 0.1144758016f, 0.1191085875f, -0.2070048302f, 0.1145444810f, -0.1387431920f, 0.1638283432f, -0.1167173013f, 0.1755508482f, -0.1130614802f, 0.3528913856f, -0.3826830685f, 0.0253109448f, 0.2565888166f, 0.0332244299f, 0.0234214831f, 0.0691623315f, -0.0202261340f, -0.1077276021f, 0.1951150745f, 0.0823748186f, -0.1297114640f, -0.2192047834f, 0.4708229899f, -0.1121967733f, -0.1393063366f, -0.1457202137f, 0.0176336076f, -0.1736168861f, 0.1234229431f, -0.1520386040f, -0.0673117861f, 0.0686950013f, -0.1817020327f, 0.3284069896f, -0.1809775233f, 0.3700859547f, 0.0927388370f, 0.1366365105f, 0.0609285459f, -0.1998992115f, 0.0100892000f, -0.0662390888f, -0.3558908701f, -0.1622362882f, 0.0719034225f, -0.2395209372f, -0.0206733793f, -0.0580779240f, -0.1031056419f, -0.1191481575f, 0.1314179152f, 0.1259945929f, -0.0403550640f, -0.0450077467f, 0.1034179926f, 0.0133497259f, 0.1280910224f, -0.2230799645f, -0.0187304709f, -0.0147530194f, 0.1154209822f, 0.1311110705f, -0.1870823503f, 0.0761578530f, -0.0161880217f, -0.1235316172f, -0.1348307729f, 0.2059156746f, 0.1452047080f, 0.2527320087f, -0.1337438673f, 0.3549227417f, -0.0472278669f, 0.0546817854f, -0.0026271741f, 0.4441556036f, 0.1045411527f, 0.0985014290f, 0.0337474160f, 0.0670617148f, -0.2537897229f, -0.1762822419f, -0.1816112548f, 0.2261731923f, -0.1362899840f, 0.1204493716f, -0.2101703584f, -0.1837318093f, -0.3372320533f, 0.2978466451f, 0.2142104805f, -0.1578887254f, 0.0444496125f, 0.0417391136f, 0.1284186244f, 0.0163744744f, -0.1264210045f, 0.1977216005f, -0.1687679142f, 0.0795241967f, -0.0343553238f, -0.0962963998f, -0.0779176801f, 0.0767694414f, -0.0026108178f, 0.2042409033f, -0.0891856551f, 0.0002744868f, 0.0391593687f, 0.0868328810f, 0.1574692428f, -0.0770312771f, 0.1086552963f, -0.0471164137f, -0.3596735597f, -0.1844832152f, -0.0897887722f, 0.0959452167f, 0.1544473320f, 0.1882286817f, 0.2722615898f, -0.0290300883f, -0.2098012120f, -0.0659654588f, -0.0166625939f, 0.2144411206f, 0.0409134366f, 0.0715181306f, -0.0181407779f, -0.0868994743f, 0.0603156872f, 0.0869384632f, -0.0321634077f, 0.2052547783f, 0.0295957718f, -0.0656460598f, -0.0544185452f, -0.0459096283f, -0.0715084821f, 0.2701640129f, -0.0447715893f, -0.2577489316f, 0.0009655297f, -0.1655982882f, 0.5121991038f, 0.0835021660f, -0.0867435634f, 0.1899086088f, -0.1096744612f, -0.0533166640f, -0.3125178814f, -0.2962701619f, 0.0241691750f, 0.1015034392f, 0.2448645234f, 0.2781978846f, 0.0562625416f, 0.1165042818f, 0.1388316453f, -0.1328046173f, -0.1794173419f, 0.1358311325f, 0.0998454168f, -0.0861865878f, 0.1528097987f, 0.0926332250f, -0.0057262522f, -0.0125798080f, -0.0880322754f, 0.0117032174f, -0.3345441520f, -0.0175136440f, -0.1176970676f, -0.2132065445f, 0.1455476582f, 0.4292632341f, -0.0982292295f, 0.4209730327f, 0.0219093561f, 0.3048658967f, -0.1544914991f, 0.2078261226f, -0.1199156269f, -0.1444338113f, 0.0402977653f, -0.1580730677f, 0.1729091108f, -0.1224735230f, -0.0304816756f, -0.2184368819f, 0.0598959289f, 0.2573135793f, -0.1082360074f, 0.3091239929f, -0.2460089773f, 0.1424638778f, -0.2289103121f, 0.1015686393f, -0.0378974862f, 0.1926000118f, -0.3038520515f, 0.3214236498f, 0.2517279387f, -0.0753866509f, -0.0001526169f, -0.3608174920f, 0.2503680587f, 0.0543574654f, 0.0687212050f, -0.1061200425f, -0.0810395107f, 0.1541877389f, -0.1463381052f, 0.0049416968f, 0.2793932855f, -0.1569239199f, -0.1315715760f, -0.1759235412f, 0.0400508493f, -0.1283898205f, -0.0770792291f, -0.0189016927f, -0.1969492882f, 0.1820939928f, -0.1837887615f, -0.1734997183f, 0.1476417035f, 0.1420205683f, -0.0443235449f, -0.3264046311f, 0.0719361976f, -0.1219896525f, -0.4003928602f, -0.1697882861f, -0.0533951335f, 0.2275259644f, -0.3717769980f, -0.3214383125f, -0.0322393924f, -0.0675827488f, -0.0002174447f, 0.3243444562f, 0.1992399693f, -0.4039742351f, 0.0619891174f, 0.0406560302f, 0.1575170457f, -0.0263324603f, -0.1996451616f, -0.0107748434f, 0.0738970637f, -0.1021511033f, -0.1533831060f, 0.1537442654f, 0.1325453073f, 0.1074818298f, 0.1444847882f, 0.1139040813f, 0.2249303460f, -0.0974985212f, 0.2263316661f, 0.2016233504f, -0.1749349087f, -0.1667134613f, -0.2039956897f, 0.0693752691f, -0.1073180586f, 0.1753419936f, 0.1271596104f, -0.2313079834f, 0.1887716651f, -0.0916905850f, 0.3012982607f, -0.2042977214f, -0.0932035893f, 0.0202754904f, 0.3090490103f, 0.0103483191f, -0.1748222560f, -0.0210591611f, -0.3290211260f, -0.1497135907f, 0.2054899335f, -0.0889412835f, 0.3014302552f, 0.1936417371f, -0.0829737186f, 0.1027818620f, 0.0108300252f, 0.0391937755f, -0.1726675630f, -0.3017055690f, -0.1149878725f, -0.1937573999f, 0.0795030370f, 0.2833352685f, 0.1628842354f, 0.2797836959f, 0.0965264291f, 0.1382096261f, 0.1494107097f, 0.1867239922f, -0.0003337410f, -0.1004818752f, 0.3961949646f, -0.2360117137f, 0.2555129230f, 0.0082360515f, -0.1261375099f, 0.0641964823f, 0.0503453910f, 0.0704135224f, 0.2103684843f, 0.2209252119f, 0.0214704517f, 0.0194672272f, 0.0094453041f, 0.0442731269f, 0.2355358303f, -0.1168966219f, -0.0799592957f, -0.0305093750f, 0.1802820563f, -0.1933771521f, -0.0629181713f, 0.0883429348f, 0.1199200377f, -0.0171650499f, 0.1230892241f, 0.0761703476f, 0.1707354188f, 0.1550291628f, -0.2489733845f, 0.0227659792f, -0.0457725078f, -0.4169608355f, -0.2658899128f, 0.0226909090f, -0.0755434781f, -0.1132074222f, -0.3540732563f, -0.1072473750f, 0.2733206749f, -0.2925549150f, 0.0296636634f, -0.0995939225f, 0.0146871656f, -0.1460296512f, 0.1341782659f, -0.0147271408f, -0.0373680778f, 0.0361352675f, 0.2486410737f, -0.2595583200f, 0.0143891471f, -0.1305163503f, -0.0812632442f, -0.0565739535f, 0.0612150617f, -0.3288241625f, -0.0248832460f, 0.1832955033f, -0.0510962829f, -0.1653331369f, -0.1792948097f, -0.0109304618f, -0.0770663619f, -0.0047410550f, 0.1213176325f, -0.0403567180f, -0.0197935291f, -0.1514916420f, -0.0736092106f, 0.0151176900f, -0.1224708557f, 0.0823352709f, 0.1071356311f, 0.1328696460f, 0.0567192584f, 0.0469076969f, 0.1304222494f, -0.1721414924f, -0.0035003806f, -0.1543049514f, 0.1205171123f, -0.0716328695f, 0.1191093177f, 0.0139629636f, 0.2855675519f, 0.1455241889f, -0.1175372079f, 0.0192735232f, -0.1403538436f, -0.1638109684f, 0.1250291020f, 0.1112202555f, 0.1897386611f, 0.0176389534f, -0.0020212939f, 0.2334274650f, 0.1005575359f, -0.2649368644f, -0.0807168484f, -0.2573057115f, 0.1183768287f, 0.0646595731f, 0.0558441617f, -0.3538330495f, 0.1357767433f, -0.3464080095f, 0.0160497110f, 0.2331238985f, 0.1989184171f, -0.0401290618f, -0.1843004823f, -0.0416887626f, -0.1639168411f, -0.0994029194f, -0.0897579417f, 0.1685938239f, -0.0427571498f, 0.1019361690f, -0.1149585843f, -0.1075809002f, 0.1322244853f, 0.1098551303f, 0.2942856848f, 0.2168458104f, -0.3522966802f, 0.0201928820f, -0.0938145965f, 0.1391033530f, 0.1674839705f, 0.1410522014f, -0.1333243996f, -0.0114727803f, -0.0357310623f, -0.0503841192f, 0.0809125677f, -0.3140569329f, -0.0065845461f, 0.0089380341f, -0.0316183269f, 0.0705401152f, -0.1517458409f, -0.1707210094f, -0.0681423619f, -0.0967788622f, -0.0506787002f, -0.0788985342f, 0.2382394671f, -0.1339203119f, 0.0404252820f, 0.1741675735f, 0.0687506795f, -0.2590699196f, -0.1800688505f, -0.1769872457f, 0.0367508493f, -0.1017940268f, 0.1542417407f, 0.1246293411f, -0.0270070061f, 0.2286225110f, -0.2413009703f, 0.0870263800f, -0.1840050668f, -0.0037574584f, 0.2323933393f, 0.0824814439f, 0.2154270858f, 0.1435863823f, -0.0820930675f, 0.1912426651f, 0.0702218488f, -0.2726362944f, -0.0957317725f, 0.0572269149f, 0.0156588834f, -0.0794681907f, 0.0144296838f, -0.1073205099f, -0.1985996962f, 0.0643405020f, -0.1614532024f, -0.1082215980f, -0.0664426461f, -0.0892266631f, 0.0357768163f, 0.0707555935f, -0.3495336771f, 0.1143896952f, -0.0330811515f, 0.1795300096f, -0.0319028981f, -0.2683375776f, -0.1749359071f, -0.0713678747f, 0.1386171579f, -0.0995291024f, 0.0992863700f, -0.0132158641f, 0.0704523250f, -0.2547479570f, -0.0476467386f, -0.0627034083f, 0.0545495749f, 0.0359473750f, -0.0621956140f, 0.1316224486f, 0.1202648059f, 0.1112059206f, 0.0075045465f, -0.2161323726f, 0.0155216511f, -0.1506592482f, 0.1595721841f, 0.2459687889f, -0.0798216537f, 0.0908569694f, -0.3862263560f, 0.0780582353f, -0.2159097791f, 0.2696573138f, 0.0190563742f, -0.0997323170f, -0.0671332479f, 0.2690878808f, -0.0050173299f, -0.0656443983f, 0.1698178500f, -0.0800560117f, 0.0898959637f, -0.1730141491f, 0.0295872111f, 0.0758934543f, 0.0772061571f, 0.1329367757f, -0.0048211156f, 0.1057016328f, 0.1445365548f, -0.1081081256f, 0.3623831272f, -0.1238776818f, 0.1397592276f, -0.0760695189f, -0.0353901535f, 0.0092835827f, -0.2421999723f, -0.0393313803f, 0.1770460457f, -0.1418399811f, 0.0556769855f, -0.0349253267f, -0.3435932994f, -0.0186767094f, -0.1502019018f, 0.3581762910f, -0.1840977520f, 0.0834420398f, -0.4499107301f, -0.0846606418f, -0.0714931935f, 0.2670331299f, -0.2137188762f, 0.2540636361f, -0.1086250693f, 0.0864484981f, 0.1310275495f, -0.1372507066f, -0.2984334826f, 0.4839396179f, 0.1076615006f, 0.4206888080f, 0.0975065082f, -0.0211025551f, -0.3423519731f, -0.2296373099f, 0.1808550805f, 0.0782789811f, 0.3623538613f, -0.2669882774f, -0.0799384341f, -0.1181747764f, -0.2495210916f, 0.3425287008f, 0.0490974076f, -0.4361172318f, -0.3975784779f, -0.2781558335f, -0.3257504404f, -0.1588132083f, 0.5735406876f, -0.4736780226f, 0.2556830645f, -0.1666745842f, -0.1451439112f, 0.0716438144f, 0.4331535697f, -0.1259301007f, 0.2212450951f, 0.2217401415f, 0.2695402205f, -0.1868332922f, -0.4500102103f, -0.1805933118f, 0.3833868802f, -0.2510593534f, 0.0454716980f, -0.1038497463f, -0.7337141633f, 0.0015081440f, -0.1183847934f, -0.0851904824f, -0.2137743384f, 0.3329065144f, 0.2682960629f, 0.1165827662f, -0.0879165381f, 0.0399030969f, 0.2005895972f, -0.1890518367f, -0.1841792017f, -0.1985427439f, -0.0072842082f, -0.0036669369f, -0.0569626167f, -0.3366871178f, 0.1675799340f, -0.0351387039f, 0.1646336019f, -0.3076357543f, 0.5391556621f, -0.1775981486f, 0.0614618808f, -0.0161513221f, -0.0529676229f, -0.4979369044f, -0.2006064951f, 0.0496063903f, -0.0692276508f, -0.0250539053f, 0.0153950285f, 0.3428095877f, 0.4417210817f, -0.0473026410f, 0.1815731972f, -0.0374818593f, 0.4472773671f, 0.1185853705f, 0.0134673174f, 0.1879289448f, 0.2576124072f, 0.1960169971f, -0.3087276816f, 0.0756614357f, 0.1504505575f, 0.0422441959f, 0.2120345086f, -0.0180091653f, 0.0878650099f, -0.0152066853f, 0.0397723243f, -0.2776518762f, 0.1452855319f, -0.3479072750f, 0.2147255838f, 0.0746069029f, -0.4244349003f, 0.1090715826f, -0.3528009355f, -0.1231412739f, 0.1777205169f, 0.2958915830f, -0.2697816193f, -0.0707990825f, -0.0714558512f, -0.2724959254f, 0.0212428272f, 0.2953062952f, 0.1400187314f, 0.2710062563f, -0.0857648849f, -0.5073959827f, -0.6620256305f, 0.4275801778f, 0.3039589226f, 0.1048925519f, -0.6545130610f, -0.1181160957f, 0.3394715190f, -0.0691246763f, -0.3478051722f, 0.0240675099f, 0.1351647973f, -0.0244527236f, -0.3157170713f, -0.0542677082f, -0.1368525475f, 0.2132281959f, -0.0913468674f, 0.0515788719f, 0.1367541701f, -0.1587578356f, 0.0024159055f, 0.0862964690f, 0.0415191315f, -0.0864259973f, -0.2135998607f, 0.1534201354f, 0.0701725185f, 0.1358095109f, -0.0696118847f, -0.1355045587f, -0.0035214999f, 0.0953940824f, 0.0736172423f, 0.0692389831f, 0.1930085719f, -0.0226153843f, -0.0867864788f, 0.0146175465f, 0.2740520537f, 0.0482964814f, 0.0704999268f, 0.1625117809f, -0.1183292791f, -0.3475568295f, 0.1858110875f, 0.0982452109f, -0.1523654759f, -0.0481099412f, -0.0447253585f, 0.0227059163f, 0.2692244649f, -0.0831806734f, -0.2126464099f, -0.1795197278f, 0.0151882749f, -0.0664910749f, -0.2052403241f, 0.0159375332f, 0.1477423757f, 0.0437546596f, -0.1256242692f, -0.3037671745f, 0.1857407838f, -0.3022310138f, -0.1934225708f, 0.2257520556f, 0.0729321167f, -0.0869483203f, 0.1336501837f, 0.2858060002f, 0.0402627736f, 0.1674445421f, 0.0092549417f, 0.1660659164f, -0.0156896692f, 0.1756338775f, 0.1295304596f, -0.2874134481f, -0.1704039425f, -0.0852130428f, -0.2011621594f, 0.2820619941f, -0.3225698769f, 0.1984189749f, 0.0866904110f, 0.0129073355f, 0.1564499587f, -0.1099624410f, 0.3889290392f, 0.0933064446f, 0.0958497301f, 0.3268458843f, -0.0242599957f, -0.2566520274f, -0.2604261041f, 0.4130453467f, -0.2676724494f, -0.3340340853f, 0.0682735071f, -0.2190644592f, -0.1908991635f, 0.1480876803f, 0.0382654928f, 0.0245530475f, 0.3023437858f, 0.1868017912f, -0.0113953175f, 0.3065657020f, 0.2748548388f, -0.0656388924f, -0.2314954996f, -0.3457515240f, -0.0851922184f, 0.0101840543f, -0.1016087830f, 0.0008609496f, 0.1791539043f, -0.4117131531f, -0.2255150974f, -0.0693203658f, 0.2443503886f, 0.1031883210f, -0.0377053693f, 0.0694634542f, -0.3734566867f, 0.4116901457f, 0.3535083234f, 0.0625301898f, 0.3906573355f, 0.2760027945f, -0.4060873091f, -0.1275136322f, 0.5248984694f, 0.0922910795f, 0.0574251749f, 0.5742582679f, -0.2009745091f, -0.0791437775f, 0.2678439617f, -0.0414534993f, 0.0470365919f, 0.0442834981f, -0.0765335187f, 0.0469778590f, 0.2736286521f, -0.2060149759f, 0.2190918475f, 0.1047432274f, -0.1545217037f, -0.0263253786f, 0.0367933959f, 0.1183603406f, -0.2470303625f, 0.0166336522f, -0.1322616637f, -0.1018736064f, -0.1365379691f, 0.0533565246f, 0.1708592623f, 0.0854169801f, -0.2587297261f, -0.0812977925f, -0.1567540616f, 0.1233819053f, -0.0135278711f, -0.0445454419f, -0.0889087841f, -0.1493712366f, 0.4731549025f, -0.2811148167f, -0.0590614192f, -0.0548532456f, 0.0382035226f, 0.0397257954f, 0.2264043093f, -0.1170930341f, -0.3187506199f, 0.2411979884f, 0.2174401879f, 0.1624463052f, -0.1071622521f, 0.1145273149f, -0.0214646272f, 0.0471702516f, 0.0631973147f, 0.2878409624f, 0.0929284915f, 